tree
version=v4
num_class=3
num_tree_per_iteration=3
label_index=0
max_feature_idx=782
objective=multiclass num_class:3
feature_names=Column_0 Column_1 Column_2 Column_3 Column_4 Column_5 Column_6 Column_7 Column_8 Column_9 Column_10 Column_11 Column_12 Column_13 Column_14 Column_15 Column_16 Column_17 Column_18 Column_19 Column_20 Column_21 Column_22 Column_23 Column_24 Column_25 Column_26 Column_27 Column_28 Column_29 Column_30 Column_31 Column_32 Column_33 Column_34 Column_35 Column_36 Column_37 Column_38 Column_39 Column_40 Column_41 Column_42 Column_43 Column_44 Column_45 Column_46 Column_47 Column_48 Column_49 Column_50 Column_51 Column_52 Column_53 Column_54 Column_55 Column_56 Column_57 Column_58 Column_59 Column_60 Column_61 Column_62 Column_63 Column_64 Column_65 Column_66 Column_67 Column_68 Column_69 Column_70 Column_71 Column_72 Column_73 Column_74 Column_75 Column_76 Column_77 Column_78 Column_79 Column_80 Column_81 Column_82 Column_83 Column_84 Column_85 Column_86 Column_87 Column_88 Column_89 Column_90 Column_91 Column_92 Column_93 Column_94 Column_95 Column_96 Column_97 Column_98 Column_99 Column_100 Column_101 Column_102 Column_103 Column_104 Column_105 Column_106 Column_107 Column_108 Column_109 Column_110 Column_111 Column_112 Column_113 Column_114 Column_115 Column_116 Column_117 Column_118 Column_119 Column_120 Column_121 Column_122 Column_123 Column_124 Column_125 Column_126 Column_127 Column_128 Column_129 Column_130 Column_131 Column_132 Column_133 Column_134 Column_135 Column_136 Column_137 Column_138 Column_139 Column_140 Column_141 Column_142 Column_143 Column_144 Column_145 Column_146 Column_147 Column_148 Column_149 Column_150 Column_151 Column_152 Column_153 Column_154 Column_155 Column_156 Column_157 Column_158 Column_159 Column_160 Column_161 Column_162 Column_163 Column_164 Column_165 Column_166 Column_167 Column_168 Column_169 Column_170 Column_171 Column_172 Column_173 Column_174 Column_175 Column_176 Column_177 Column_178 Column_179 Column_180 Column_181 Column_182 Column_183 Column_184 Column_185 Column_186 Column_187 Column_188 Column_189 Column_190 Column_191 Column_192 Column_193 Column_194 Column_195 Column_196 Column_197 Column_198 Column_199 Column_200 Column_201 Column_202 Column_203 Column_204 Column_205 Column_206 Column_207 Column_208 Column_209 Column_210 Column_211 Column_212 Column_213 Column_214 Column_215 Column_216 Column_217 Column_218 Column_219 Column_220 Column_221 Column_222 Column_223 Column_224 Column_225 Column_226 Column_227 Column_228 Column_229 Column_230 Column_231 Column_232 Column_233 Column_234 Column_235 Column_236 Column_237 Column_238 Column_239 Column_240 Column_241 Column_242 Column_243 Column_244 Column_245 Column_246 Column_247 Column_248 Column_249 Column_250 Column_251 Column_252 Column_253 Column_254 Column_255 Column_256 Column_257 Column_258 Column_259 Column_260 Column_261 Column_262 Column_263 Column_264 Column_265 Column_266 Column_267 Column_268 Column_269 Column_270 Column_271 Column_272 Column_273 Column_274 Column_275 Column_276 Column_277 Column_278 Column_279 Column_280 Column_281 Column_282 Column_283 Column_284 Column_285 Column_286 Column_287 Column_288 Column_289 Column_290 Column_291 Column_292 Column_293 Column_294 Column_295 Column_296 Column_297 Column_298 Column_299 Column_300 Column_301 Column_302 Column_303 Column_304 Column_305 Column_306 Column_307 Column_308 Column_309 Column_310 Column_311 Column_312 Column_313 Column_314 Column_315 Column_316 Column_317 Column_318 Column_319 Column_320 Column_321 Column_322 Column_323 Column_324 Column_325 Column_326 Column_327 Column_328 Column_329 Column_330 Column_331 Column_332 Column_333 Column_334 Column_335 Column_336 Column_337 Column_338 Column_339 Column_340 Column_341 Column_342 Column_343 Column_344 Column_345 Column_346 Column_347 Column_348 Column_349 Column_350 Column_351 Column_352 Column_353 Column_354 Column_355 Column_356 Column_357 Column_358 Column_359 Column_360 Column_361 Column_362 Column_363 Column_364 Column_365 Column_366 Column_367 Column_368 Column_369 Column_370 Column_371 Column_372 Column_373 Column_374 Column_375 Column_376 Column_377 Column_378 Column_379 Column_380 Column_381 Column_382 Column_383 Column_384 Column_385 Column_386 Column_387 Column_388 Column_389 Column_390 Column_391 Column_392 Column_393 Column_394 Column_395 Column_396 Column_397 Column_398 Column_399 Column_400 Column_401 Column_402 Column_403 Column_404 Column_405 Column_406 Column_407 Column_408 Column_409 Column_410 Column_411 Column_412 Column_413 Column_414 Column_415 Column_416 Column_417 Column_418 Column_419 Column_420 Column_421 Column_422 Column_423 Column_424 Column_425 Column_426 Column_427 Column_428 Column_429 Column_430 Column_431 Column_432 Column_433 Column_434 Column_435 Column_436 Column_437 Column_438 Column_439 Column_440 Column_441 Column_442 Column_443 Column_444 Column_445 Column_446 Column_447 Column_448 Column_449 Column_450 Column_451 Column_452 Column_453 Column_454 Column_455 Column_456 Column_457 Column_458 Column_459 Column_460 Column_461 Column_462 Column_463 Column_464 Column_465 Column_466 Column_467 Column_468 Column_469 Column_470 Column_471 Column_472 Column_473 Column_474 Column_475 Column_476 Column_477 Column_478 Column_479 Column_480 Column_481 Column_482 Column_483 Column_484 Column_485 Column_486 Column_487 Column_488 Column_489 Column_490 Column_491 Column_492 Column_493 Column_494 Column_495 Column_496 Column_497 Column_498 Column_499 Column_500 Column_501 Column_502 Column_503 Column_504 Column_505 Column_506 Column_507 Column_508 Column_509 Column_510 Column_511 Column_512 Column_513 Column_514 Column_515 Column_516 Column_517 Column_518 Column_519 Column_520 Column_521 Column_522 Column_523 Column_524 Column_525 Column_526 Column_527 Column_528 Column_529 Column_530 Column_531 Column_532 Column_533 Column_534 Column_535 Column_536 Column_537 Column_538 Column_539 Column_540 Column_541 Column_542 Column_543 Column_544 Column_545 Column_546 Column_547 Column_548 Column_549 Column_550 Column_551 Column_552 Column_553 Column_554 Column_555 Column_556 Column_557 Column_558 Column_559 Column_560 Column_561 Column_562 Column_563 Column_564 Column_565 Column_566 Column_567 Column_568 Column_569 Column_570 Column_571 Column_572 Column_573 Column_574 Column_575 Column_576 Column_577 Column_578 Column_579 Column_580 Column_581 Column_582 Column_583 Column_584 Column_585 Column_586 Column_587 Column_588 Column_589 Column_590 Column_591 Column_592 Column_593 Column_594 Column_595 Column_596 Column_597 Column_598 Column_599 Column_600 Column_601 Column_602 Column_603 Column_604 Column_605 Column_606 Column_607 Column_608 Column_609 Column_610 Column_611 Column_612 Column_613 Column_614 Column_615 Column_616 Column_617 Column_618 Column_619 Column_620 Column_621 Column_622 Column_623 Column_624 Column_625 Column_626 Column_627 Column_628 Column_629 Column_630 Column_631 Column_632 Column_633 Column_634 Column_635 Column_636 Column_637 Column_638 Column_639 Column_640 Column_641 Column_642 Column_643 Column_644 Column_645 Column_646 Column_647 Column_648 Column_649 Column_650 Column_651 Column_652 Column_653 Column_654 Column_655 Column_656 Column_657 Column_658 Column_659 Column_660 Column_661 Column_662 Column_663 Column_664 Column_665 Column_666 Column_667 Column_668 Column_669 Column_670 Column_671 Column_672 Column_673 Column_674 Column_675 Column_676 Column_677 Column_678 Column_679 Column_680 Column_681 Column_682 Column_683 Column_684 Column_685 Column_686 Column_687 Column_688 Column_689 Column_690 Column_691 Column_692 Column_693 Column_694 Column_695 Column_696 Column_697 Column_698 Column_699 Column_700 Column_701 Column_702 Column_703 Column_704 Column_705 Column_706 Column_707 Column_708 Column_709 Column_710 Column_711 Column_712 Column_713 Column_714 Column_715 Column_716 Column_717 Column_718 Column_719 Column_720 Column_721 Column_722 Column_723 Column_724 Column_725 Column_726 Column_727 Column_728 Column_729 Column_730 Column_731 Column_732 Column_733 Column_734 Column_735 Column_736 Column_737 Column_738 Column_739 Column_740 Column_741 Column_742 Column_743 Column_744 Column_745 Column_746 Column_747 Column_748 Column_749 Column_750 Column_751 Column_752 Column_753 Column_754 Column_755 Column_756 Column_757 Column_758 Column_759 Column_760 Column_761 Column_762 Column_763 Column_764 Column_765 Column_766 Column_767 Column_768 Column_769 Column_770 Column_771 Column_772 Column_773 Column_774 Column_775 Column_776 Column_777 Column_778 Column_779 Column_780 Column_781 Column_782
feature_infos=[-0.43281066417694092:0.32443273067474365] [-0.17300599813461304:0.84069305658340454] [-0.51949876546859741:0.069982320070266724] [-0.46764117479324341:0.42162102460861206] [-0.48568969964981079:0.129022017121315] [-0.30537539720535278:0.53752106428146362] [-0.74408990144729614:0.35275083780288696] [-0.5923159122467041:0.20961064100265503] [-0.2674371600151062:0.37109282612800598] [-0.1817193329334259:0.41294401884078979] [-0.58480304479598999:0.24583990871906281] [-0.31172400712966919:0.61988794803619385] [-0.17469704151153564:0.40360924601554871] [-0.22332450747489929:0.35804480314254761] [-0.38352471590042114:0.64992719888687134] [-0.42102044820785522:0.32955467700958252] [-0.36011666059494019:0.42186728119850159] [-0.38939660787582397:0.44513165950775146] [-0.49527272582054138:0.4291151762008667] [-0.16906507313251495:0.39516955614089966] [-0.33623164892196655:0.41699361801147461] [-0.37463408708572388:0.38004603981971741] [-0.37874183058738708:0.64156001806259155] [-0.17512983083724976:0.68039947748184204] [-0.46695879101753235:0.65610122680664062] [-0.49331533908843994:0.15342497825622559] [-0.41175371408462524:0.46658509969711304] [-0.38553720712661743:0.40961435437202454] [-0.57572329044342041:0.26485088467597961] [-0.55126500129699707:0.11769683659076691] [-0.13231328129768372:0.47281020879745483] [-0.21696722507476807:0.56480073928833008] [-0.39652389287948608:0.23056519031524658] [-0.30078607797622681:0.55466550588607788] [-0.068294741213321686:0.71963214874267578] [-0.10874728858470917:0.72651243209838867] [-0.077427871525287628:0.70082783699035645] [-0.29971924424171448:0.3069814145565033] [-0.34479761123657227:0.39157819747924805] [-0.26944851875305176:0.72744941711425781] [-0.35550487041473389:0.41732481122016907] [-0.0065672462806105614:0.70184421539306641] [-0.57778728008270264:0.23638671636581421] [-0.33120280504226685:0.66967499256134033] [-0.061132147908210754:0.68872189521789551] [-0.42893743515014648:0.31143283843994141] [-0.26825422048568726:0.65801548957824707] [-0.49502089619636536:0.20542797446250916] [-0.25485101342201233:0.41070416569709778] [-0.20619502663612366:0.54872810840606689] [-0.36787489056587219:0.41984406113624573] [-0.31099504232406616:0.19573472440242767] [-0.6238136887550354:0.2671760618686676] [-0.33309388160705566:0.6933014988899231] [-0.21283963322639465:0.79724669456481934] [-0.41367504000663757:0.42760324478149414] [-0.52395319938659668:0.32373714447021484] [-0.50571310520172119:0.18956363201141357] [-0.41505098342895508:0.58731859922409058] [-0.34177693724632263:0.23901578783988953] [-0.28575396537780762:0.45370015501976013] [-0.72866559028625488:0.088994607329368591] [-0.24318864941596985:0.44089031219482422] [-0.16035410761833191:0.51875591278076172] [-0.28407889604568481:0.33303099870681763] [-0.83617234230041504:0.20171791315078735] [-0.46613845229148865:0.38685423135757446] [-0.11591833829879761:0.59320026636123657] [-0.28528937697410583:0.38275629281997681] [-0.54745340347290039:0.23339787125587463] [-0.35622400045394897:0.27129638195037842] [-0.4881233274936676:0.81028556823730469] [-0.28517797589302063:0.68886899948120117] [-0.19278782606124878:0.67596560716629028] [-0.40086480975151062:0.18978011608123779] [-0.14851132035255432:0.6683121919631958] [-0.43905669450759888:0.20831573009490967] [-0.20877307653427124:0.50138324499130249] [-0.49257713556289673:0.33500465750694275] [-0.40414917469024658:0.2338099479675293] [-0.27197259664535522:0.51303446292877197] [-0.38747283816337585:0.52575421333312988] [-0.033748451620340347:0.60314226150512695] [-0.16487486660480499:0.5296090841293335] [-0.59708809852600098:0.13703390955924988] [-0.069205492734909058:0.58557808399200439] [-0.72030389308929443:0.13814571499824524] [-0.26100724935531616:0.35590425133705139] [-0.29193490743637085:0.25792041420936584] [-0.21960486471652985:0.40066182613372803] [-0.18771880865097046:0.34980675578117371] [-0.54542779922485352:0.57026982307434082] [-0.49074655771255493:0.44992566108703613] [-0.093240082263946533:0.81861472129821777] [-0.64618986845016479:-0.007748996838927269] [-0.35287117958068848:0.48894026875495911] [-0.11364942789077759:0.73365950584411621] [-0.53640592098236084:0.24942821264266968] [-0.41376912593841553:0.84588468074798584] [-0.26449614763259888:0.45739984512329102] [-0.24054959416389465:0.48508232831954956] [-0.53949069976806641:0.36287069320678711] [-0.47222176194190979:0.41452512145042419] [-0.32939544320106506:0.10578241944313049] [-0.42408129572868347:0.22052173316478729] [-0.74218684434890747:0.4493173360824585] [-0.27650761604309082:0.29760774970054626] [-0.57244580984115601:0.21172076463699341] [-0.47292381525039673:0.16633185744285583] [-0.24318146705627441:0.38765439391136169] [0.027428321540355682:0.73569977283477783] [-0.26866436004638672:0.38949966430664062] [-0.53378552198410034:0.39497086405754089] [-0.2936670184135437:0.3308844268321991] [-0.2156272828578949:0.48314982652664185] [-0.19704955816268921:0.43849736452102661] [-0.53473526239395142:0.37835037708282471] [-0.25581741333007812:0.38651248812675476] [-0.35114622116088867:0.31505483388900757] [-0.19774517416954041:0.40823584794998169] [-0.11354312300682068:0.56288778781890869] [-0.0047637633979320526:0.92753219604492188] [-0.40863430500030518:0.38543212413787842] [-0.49326306581497192:0.16984409093856812] [-0.39562496542930603:0.49352043867111206] [-0.23260819911956787:0.61129307746887207] [-0.43231081962585449:0.2747420072555542] [-0.23374637961387634:0.49406987428665161] [-0.65125298500061035:0.16500797867774963] [-0.55581551790237427:0.38293904066085815] [-0.31507790088653564:0.59534001350402832] [-0.54171836376190186:0.24137954413890839] [-0.31977802515029907:0.48772984743118286] [-0.40293499827384949:0.39704287052154541] [-0.36473357677459717:0.54655814170837402] [-0.22121122479438782:0.59239339828491211] [-0.26228940486907959:0.37703430652618408] [-0.31732723116874695:0.37695804238319397] [-0.46046623587608337:0.14032155275344849] [-0.31637787818908691:0.46410149335861206] [-0.53469687700271606:0.32790136337280273] [-0.41709655523300171:0.68514400720596313] [-0.30401217937469482:0.45023095607757568] [-0.42314526438713074:0.66478043794631958] [-0.51152223348617554:0.54067122936248779] [-0.18655765056610107:0.47993707656860352] [-0.19832822680473328:0.72238081693649292] [-0.46475473046302795:0.18494971096515656] [-0.34723937511444092:0.32375922799110413] [-0.51471567153930664:0.57835912704467773] [-0.32817724347114563:0.48048645257949829] [-0.37445229291915894:0.38095176219940186] [-0.3404616117477417:0.36926430463790894] [-0.29658013582229614:0.33770269155502319] [-0.6616901159286499:0.38072288036346436] [-0.25781327486038208:0.44187158346176147] [-0.5838930606842041:0.37571090459823608] [-0.15404380857944489:0.44460639357566833] [-0.26524949073791504:0.40386009216308594] [-0.46662807464599609:0.52495801448822021] [-0.52042597532272339:0.16634029150009155] [-0.28137499094009399:0.42315575480461121] [-0.082192495465278625:0.63993430137634277] [-0.17737491428852081:0.46102294325828552] [-0.23366549611091614:0.45033043622970581] [-0.4985632598400116:0.28351947665214539] [-0.31760835647583008:0.44434508681297302] [-0.42219680547714233:0.32882726192474365] [-0.55809396505355835:0.22255226969718933] [-0.16440188884735107:0.70096892118453979] [-0.62669086456298828:0.26354110240936279] [-0.23884427547454834:0.59337210655212402] [-0.40087056159973145:0.3305148184299469] [-0.23714223504066467:0.37166395783424377] [-0.63852238655090332:1.0012996196746826] [-0.11625131964683533:0.3175007700920105] [-0.36302685737609863:0.54879432916641235] [-0.36476463079452515:0.33131039142608643] [-0.30853378772735596:0.47175535559654236] [-0.39032202959060669:0.27722638845443726] [-0.43599921464920044:0.65181291103363037] [-0.054906159639358521:0.55871772766113281] [-0.18553906679153442:0.59741604328155518] [-0.36162483692169189:0.38504168391227722] [-0.55941081047058105:0.26636666059494019] [-0.30458730459213257:0.37284696102142334] [-0.5884469747543335:0.23569883406162262] [-0.3678964376449585:0.21800117194652557] [-0.61816048622131348:0.27375012636184692] [-0.52059805393218994:0.75025534629821777] [-0.38160160183906555:0.19143509864807129] [-0.37391293048858643:0.64971655607223511] [-0.41366162896156311:0.51965653896331787] [-0.35103559494018555:0.41781586408615112] [-0.27546495199203491:0.58711957931518555] [-0.6497044563293457:-0.085150532424449921] [-0.51499354839324951:0.58272773027420044] [-0.32817208766937256:0.33810737729072571] [-0.40903687477111816:0.44551873207092285] [-0.49757593870162964:0.39171472191810608] [-0.44797271490097046:0.4717852771282196] [-0.47232711315155029:0.30178302526473999] [-0.11912093311548233:0.5834040641784668] [-0.46486169099807739:0.32495671510696411] [-0.51574015617370605:0.42260840535163879] [-0.5469738245010376:0.200447678565979] [-0.3021666407585144:0.1894524097442627] [-0.062231376767158508:0.845589280128479] [-0.22525617480278015:0.51920211315155029] [-0.28683102130889893:0.69130539894104004] [-0.37602740526199341:0.56834506988525391] [-0.28984719514846802:0.41217023134231567] [-0.2688678503036499:0.34991699457168579] [-0.4802335798740387:0.41276326775550842] [-0.52081882953643799:0.39107793569564819] [-0.25595563650131226:0.40538337826728821] [-0.33980363607406616:0.56432992219924927] [-0.72069907188415527:0.21284569799900055] [-0.5688323974609375:0.36371263861656189] [-0.41901788115501404:0.23586373031139374] [-0.40897971391677856:0.20204572379589081] [-0.44899681210517883:0.47097700834274292] [-0.79926508665084839:0.57406103610992432] [-0.0081475544720888138:0.92007637023925781] [-0.071241289377212524:0.80907523632049561] [-0.21354109048843384:0.60010623931884766] [-0.20944485068321228:0.5440821647644043] [-0.58729815483093262:0.30910027027130127] [-0.21887168288230896:0.43390959501266479] [-0.17399215698242188:0.35145109891891479] [-0.32144364714622498:0.24935740232467651] [-0.25558513402938843:0.25921681523323059] [-0.22629398107528687:0.41972458362579346] [-0.090705521404743195:0.46604272723197937] [-0.32681208848953247:0.34244856238365173] [-0.16026216745376587:0.43859788775444031] [-0.56374698877334595:0.361095130443573] [-0.20425532758235931:0.38439637422561646] [-0.55633825063705444:0.24228152632713318] [-0.41604682803153992:0.21541447937488556] [-0.31071972846984863:0.36431068181991577] [-0.23234482109546661:0.5564415454864502] [-0.43092882633209229:0.31253984570503235] [-0.23516274988651276:0.30556473135948181] [-0.27785190939903259:0.40635037422180176] [-0.30763590335845947:0.3692556619644165] [-0.4660382866859436:0.23452751338481903] [-0.51386106014251709:0.38848957419395447] [-0.76702821254730225:0.36166077852249146] [-0.35003659129142761:0.38150978088378906] [-0.17007532715797424:0.48561078310012817] [-0.16155236959457397:0.43430289626121521] [-0.44542273879051208:0.43253502249717712] [-0.31592199206352234:0.27918046712875366] [-0.38326334953308105:0.2680191695690155] [-0.45725113153457642:0.25718787312507629] [-0.26571738719940186:0.60147911310195923] [-0.37120205163955688:0.31669315695762634] [-0.66459304094314575:0.21334555745124817] [-0.4854404628276825:0.56591570377349854] [-0.34061405062675476:0.44404810667037964] [-0.40235000848770142:0.29895550012588501] [0.0034436886198818684:0.75387930870056152] [-0.60589414834976196:0.34996491670608521] [-0.46858853101730347:0.27602630853652954] [-0.46695190668106079:0.28739374876022339] [-0.1848006546497345:0.68736708164215088] [-0.57189595699310303:0.22008374333381653] [-0.39081037044525146:0.37455087900161743] [-0.32037988305091858:0.34039047360420227] [-0.1868792325258255:0.77234554290771484] [-0.2300439178943634:0.54663825035095215] [-0.30980208516120911:0.47482895851135254] [-0.34479033946990967:0.35868591070175171] [-0.12634599208831787:0.80219930410385132] [-0.33811876177787781:0.31660020351409912] [-0.31848028302192688:0.54269886016845703] [0.17423099279403687:1.2597172260284424] [-0.35111153125762939:0.42990309000015259] [-0.22713500261306763:0.57446181774139404] [-0.25811606645584106:0.68601107597351074] [-0.26749938726425171:0.2622869610786438] [-0.32230940461158752:0.45650053024291992] [-0.50724035501480103:0.1531682014465332] [-0.15977145731449127:0.5035775899887085] [-0.21992531418800354:0.54306292533874512] [-0.56973874568939209:0.73771893978118896] [-0.43986812233924866:0.40059995651245117] [-0.53656023740768433:0.30116927623748779] [-0.2997404932975769:0.38821980357170105] [-0.59297585487365723:0.14542919397354126] [-0.088710851967334747:0.71691364049911499] [-0.35788372159004211:0.45276305079460144] [-0.17609217762947083:0.71582686901092529] [-0.11892887949943542:0.60349535942077637] [-0.19303107261657715:0.93756210803985596] [-0.25085669755935669:0.34450411796569824] [-0.60968613624572754:0.27813541889190674] [-0.043052762746810913:0.37032929062843323] [-0.41778838634490967:0.5256161093711853] [-0.45119532942771912:0.43267819285392761] [-0.49855515360832214:0.37547627091407776] [-0.33637347817420959:0.40976142883300781] [-0.45092403888702393:0.33787393569946289] [-0.67821425199508667:0.54142546653747559] [-0.32580286264419556:0.58308875560760498] [-0.43356749415397644:0.40770363807678223] [-0.36578422784805298:0.39047026634216309] [-0.48067831993103027:0.5941699743270874] [-0.27016574144363403:0.52348518371582031] [-0.42541688680648804:0.49756854772567749] [-0.61093276739120483:0.2832525372505188] [-0.38440346717834473:0.42461308836936951] [-0.6155579686164856:0.44806116819381714] [-0.59700798988342285:0.011514090001583099] [-0.22532454133033752:0.48908644914627075] [-0.38874426484107971:0.52871042490005493] [-0.4903419017791748:0.26125392317771912] [-0.52017879486083984:0.34701600670814514] [-0.31425219774246216:0.36770385503768921] [-0.44538742303848267:0.31299459934234619] [-0.2933010458946228:0.42735862731933594] [-0.23612844944000244:0.46181634068489075] [-0.62142097949981689:0.19069212675094604] [-0.29768109321594238:0.55624985694885254] [-0.23793652653694153:0.49973037838935852] [-0.34181466698646545:0.5303492546081543] [-0.3928450345993042:0.4057595431804657] [-0.77282941341400146:0.024242078885436058] [-0.43934264779090881:0.38177335262298584] [-0.26793467998504639:0.38411179184913635] [-0.37486451864242554:0.37036055326461792] [-0.22737897932529449:0.45499143004417419] [-0.33476999402046204:0.37119054794311523] [-0.27118462324142456:0.44836100935935974] [-0.38982942700386047:0.2402663379907608] [-0.11657391488552094:0.63852077722549438] [0.006587945856153965:0.60981786251068115] [-0.70734894275665283:0.29997637867927551] [-0.46973264217376709:0.28964298963546753] [-0.249415323138237:0.47299462556838989] [-0.10331651568412781:0.56550312042236328] [-0.66546738147735596:0.40666684508323669] [-0.36831092834472656:0.49414059519767761] [-0.27218657732009888:0.91779714822769165] [-0.23947258293628693:0.42187994718551636] [-0.32847470045089722:0.45823898911476135] [-0.1786469966173172:0.48614200949668884] [-0.57547974586486816:0.25422057509422302] [-0.24191504716873169:0.43863749504089355] [-0.64887064695358276:0.23533889651298523] [-0.21353942155838013:0.3920939564704895] [-0.38832294940948486:0.23658882081508636] [-0.41126209497451782:0.48144340515136719] [-0.39477384090423584:0.24069970846176147] [-0.73004424571990967:0.13708955049514771] [-0.29371392726898193:0.4823799729347229] [-0.25927942991256714:0.33307099342346191] [-0.47968631982803345:0.28329142928123474] [-0.34683316946029663:0.42495381832122803] [-0.17955486476421356:0.7225189208984375] [-0.28282910585403442:0.54012894630432129] [-0.12274789810180664:0.47454071044921875] [-0.13635122776031494:0.84638917446136475] [-0.26958006620407104:0.40244150161743164] [-0.28088736534118652:0.30698749423027039] [-0.074453070759773254:0.61829686164855957] [-0.18236227333545685:0.99391621351242065] [-0.36370685696601868:0.46572273969650269] [-0.57581347227096558:0.35234177112579346] [-0.11689680814743042:0.53067231178283691] [-0.24083438515663147:0.56185626983642578] [-0.24035249650478363:0.40976333618164062] [-0.24892929196357727:0.28006809949874878] [-0.61798197031021118:0.2724909782409668] [-0.43625736236572266:0.37722831964492798] [-0.27891284227371216:0.29735445976257324] [-0.61534953117370605:0.23438873887062073] [-0.51128125190734863:0.28825712203979492] [-0.40649151802062988:0.32282036542892456] [-0.35970881581306458:0.5246245265007019] [-0.26923897862434387:0.4044831395149231] [-0.41110995411872864:0.61945235729217529] [-0.23356287181377411:0.27139931917190552] [-0.35718226432800293:0.46474254131317139] [-0.25075867772102356:0.35684341192245483] [-0.33982205390930176:0.57371699810028076] [-0.45158439874649048:0.16589462757110596] [-0.45956230163574219:0.36291268467903137] [-0.45267224311828613:0.33168298006057739] [-0.33394694328308105:0.29676294326782227] [-0.37720036506652832:0.45045432448387146] [-0.30045416951179504:0.44873559474945068] [-0.21523499488830566:0.44773659110069275] [-0.2766108512878418:0.40004634857177734] [-0.35970503091812134:0.46063974499702454] [-0.31106966733932495:0.66506475210189819] [-0.38292780518531799:0.27835121750831604] [-0.50887382030487061:0.27352750301361084] [-0.24861980974674225:0.33340173959732056] [-0.22042998671531677:0.7390819787979126] [-0.15839254856109619:0.47418686747550964] [-0.21429601311683655:0.78019189834594727] [-0.61197924613952637:0.48801881074905396] [-0.14040970802307129:0.61076956987380981] [-0.70011758804321289:0.22413185238838196] [-0.22727465629577637:0.36967593431472778] [-0.20609751343727112:0.44462114572525024] [-0.81000840663909912:0.23965422809123993] [-0.26005423069000244:0.3789132833480835] [-0.6114494800567627:0.25736939907073975] [-0.3213580846786499:0.54387569427490234] [-0.4583011269569397:0.336220383644104] [-0.41761308908462524:0.29632657766342163] [-0.19524618983268738:0.5513908863067627] [-0.62228161096572876:0.14986121654510498] [-0.67960041761398315:0.22308847308158875] [-0.39211767911911011:0.17140042781829834] [-0.32962793111801147:0.52062606811523438] [-0.52622020244598389:0.068178310990333557] [-0.25718080997467041:0.50349259376525879] [-0.51087534427642822:0.26405578851699829] [-0.53333175182342529:0.36988401412963867] [-0.71519768238067627:0.16908040642738342] [-0.10340017080307007:0.92611598968505859] [-0.20943398773670197:0.46215143799781799] [-0.39821764826774597:0.40740564465522766] [-0.28436166048049927:0.28448179364204407] [-0.40792229771614075:0.24487528204917908] [-0.34728085994720459:0.46946555376052856] [-0.4375154972076416:0.62049347162246704] [-0.58743274211883545:0.24493572115898132] [-0.31591811776161194:0.48537415266036987] [-0.31255486607551575:0.47939509153366089] [-0.50395756959915161:0.68204021453857422] [-0.18443720042705536:0.59496557712554932] [-0.68399536609649658:0.041007868945598602] [-0.70626437664031982:0.24270129203796387] [-0.20332643389701843:0.4447077214717865] [-0.39427876472473145:0.39693745970726013] [-0.37586984038352966:0.41893947124481201] [-0.020114604383707047:0.93056631088256836] [-0.27517059445381165:0.35458177328109741] [-0.42239999771118164:0.14592735469341278] [-0.17760004103183746:0.6285967230796814] [-0.22371569275856018:0.56738054752349854] [-0.27015715837478638:0.59285503625869751] [-0.38225626945495605:0.54623055458068848] [-0.21420395374298096:0.51530194282531738] [-0.55049538612365723:0.26788172125816345] [-0.54716342687606812:0.29497653245925903] [-0.2867581844329834:0.49824288487434387] [-0.242629274725914:0.46054834127426147] [-0.27381473779678345:0.32153815031051636] [-0.29899236559867859:0.40279525518417358] [-0.33518904447555542:0.60649347305297852] [-0.10695348680019379:0.61768722534179688] [-0.24041426181793213:0.65449714660644531] [-0.20620611310005188:0.39645090699195862] [-0.29756325483322144:0.46409595012664795] [-0.31985372304916382:0.48098647594451904] [0.027164466679096222:1.0640594959259033] [-0.54381376504898071:0.4224974513053894] [-0.38284492492675781:0.27243173122406006] [-0.28060191869735718:0.47105997800827026] [-0.38577687740325928:0.54982054233551025] [-0.22131659090518951:0.44928932189941406] [-0.33097249269485474:0.34837877750396729] [-0.31774884462356567:0.51391875743865967] [-0.23650537431240082:0.66866385936737061] [-0.29736107587814331:0.27949512004852295] [-0.38689532876014709:0.48428076505661011] [-0.16821660101413727:0.64784246683120728] [-0.60557389259338379:0.13956931233406067] [-0.38896429538726807:0.29979926347732544] [-0.2223546952009201:0.5661386251449585] [-0.3188663125038147:0.48727184534072876] [-0.095621831715106964:0.51972413063049316] [-0.54304063320159912:0.18044623732566833] [-0.53852581977844238:0.39507207274436951] [-0.19466176629066467:0.38510054349899292] [-0.40402024984359741:0.28981810808181763] [-0.72521889209747314:0.3590206503868103] [-0.28939163684844971:0.44362682104110718] [-0.33620595932006836:0.40591078996658325] [-0.35464665293693542:0.35292810201644897] [-0.31357705593109131:0.31001469492912292] [-0.28837370872497559:0.38547107577323914] [-0.31026661396026611:0.39505770802497864] [-0.40052962303161621:0.49439612030982971] [-0.2128530889749527:0.51137959957122803] [-0.39308193325996399:0.2255672812461853] [-0.099028363823890686:0.77739369869232178] [-0.35914844274520874:0.33247274160385132] [-0.42864635586738586:0.31230172514915466] [-0.18536721169948578:0.79935848712921143] [-0.46059906482696533:0.26859423518180847] [-0.24839094281196594:0.57119512557983398] [-0.22949624061584473:0.47085779905319214] [-0.49992093443870544:0.26627331972122192] [-0.57102692127227783:0.43519234657287598] [-0.56675428152084351:0.24120910465717316] [-0.48675775527954102:0.3917047381401062] [-0.1510181725025177:0.46897611021995544] [-0.43684479594230652:0.33173841238021851] [-0.49588707089424133:0.45920306444168091] [-0.19974043965339661:0.49325111508369446] [-0.21816065907478333:0.51214009523391724] [-0.44490861892700195:0.4362143874168396] [-0.48353585600852966:0.11444971710443497] [-0.42989954352378845:0.25359725952148438] [-0.54309070110321045:0.18700131773948669] [-0.41975158452987671:0.54678696393966675] [-0.23693406581878662:0.58673357963562012] [-0.49733787775039673:0.32345214486122131] [-0.18964415788650513:0.47793754935264587] [-0.38586822152137756:0.56449723243713379] [-0.54418236017227173:0.31269872188568115] [-0.60096287727355957:0.30419167876243591] [-0.35781228542327881:0.43488258123397827] [-0.37331584095954895:0.41617429256439209] [-0.32239019870758057:0.6729884147644043] [-0.33805528283119202:0.29033896327018738] [-0.32183367013931274:0.26214909553527832] [-0.96237927675247192:0.045529801398515701] [-0.47298020124435425:-0.030311428010463715] [-0.31578028202056885:0.3516954779624939] [-0.41540002822875977:0.23174938559532166] [-0.067072771489620209:0.56384754180908203] [-0.79927289485931396:0.20435893535614014] [-0.54678207635879517:0.24272841215133667] [-0.35080668330192566:0.49785757064819336] [-0.0089136064052581787:0.49872946739196777] [-0.20021244883537292:0.5760575532913208] [-0.2244667261838913:0.39142608642578125] [-0.3773728609085083:0.34638702869415283] [-0.37338036298751831:0.4297012984752655] [-0.30921322107315063:0.24887065589427948] [-0.259959876537323:0.60514223575592041] [-0.37568205595016479:0.19196406006813049] [-0.40001428127288818:0.45669415593147278] [-0.40703922510147095:0.35961323976516724] [-0.20045594871044159:0.35331442952156067] [-0.3532111644744873:0.33703494071960449] [-0.42153960466384888:0.33656799793243408] [-0.39071905612945557:0.23779501020908356] [-0.55105710029602051:0.73530566692352295] [-0.072511546313762665:0.4456290602684021] [-0.2712022066116333:0.20841498672962189] [-0.44622611999511719:0.39713394641876221] [-0.50164699554443359:0.18736341595649719] [-0.72470593452453613:0.31133872270584106] [-0.16054520010948181:0.43496260046958923] [-0.30234932899475098:0.37886899709701538] [-0.26698273420333862:0.34236079454421997] [-0.25774013996124268:0.47839757800102234] [-0.43809846043586731:0.34055885672569275] [-0.2996528148651123:0.42357805371284485] [-0.21366691589355469:0.81567585468292236] [-0.27723303437232971:0.5446007251739502] [-0.45904248952865601:0.14276869595050812] [-0.47384065389633179:0.12564943730831146] [-0.4168994128704071:0.41036024689674377] [-0.2917206883430481:0.40675991773605347] [-0.3130033016204834:0.4296531081199646] [-0.50975525379180908:0.36636054515838623] [-0.31372633576393127:0.49052008986473083] [-0.34429222345352173:0.527351975440979] [-0.42016470432281494:0.41747796535491943] [-0.26982346177101135:0.43507793545722961] [-0.406410813331604:0.20293325185775757] [-0.38753527402877808:0.46391233801841736] [-0.23632657527923584:0.39647620916366577] [-0.69164562225341797:-0.032121468335390091] [-0.54770517349243164:0.26198288798332214] [-0.20029494166374207:0.41419869661331177] [-0.36775580048561096:0.28813850879669189] [-0.39908686280250549:0.48915141820907593] [-0.27327591180801392:0.67656195163726807] [-0.49051615595817566:0.21403314173221588] [-0.34267443418502808:0.39342281222343445] [-0.17236445844173431:0.45411893725395203] [-0.5665706992149353:0.27943652868270874] [-0.51740390062332153:0.26258319616317749] [-0.27313351631164551:0.50031787157058716] [-0.34133213758468628:0.41922208666801453] [-0.45262831449508667:0.25013703107833862] [-0.31205496191978455:0.5353018045425415] [-0.60416191816329956:0.45549798011779785] [-0.42678171396255493:0.58122527599334717] [0.88841915130615234:1.9861115217208862] [-0.19966056942939758:0.54331076145172119] [-0.22003269195556641:0.30572289228439331] [-0.37622642517089844:0.47673851251602173] [-0.034332748502492905:0.66045725345611572] [-0.53876191377639771:0.29847824573516846] [-0.21442596614360809:0.48332041501998901] [-0.24688208103179932:0.41657739877700806] [-0.50706303119659424:0.3177967369556427] [-0.84206306934356689:0.16155299544334412] [-0.25596702098846436:0.41914975643157959] [-0.36349952220916748:0.33883041143417358] [-0.41314274072647095:0.36924552917480469] [-0.2201659083366394:0.53665494918823242] [-0.42389625310897827:0.17613935470581055] [-0.15259917080402374:0.46573930978775024] [-0.49337321519851685:0.33776652812957764] [0.027839202433824539:0.78520965576171875] [-0.51319491863250732:0.22610947489738464] [-0.39912194013595581:0.44833439588546753] [-0.89795058965682983:0.18843144178390503] [-0.74403047561645508:0.2886587381362915] [-0.28521579504013062:0.40293008089065552] [-0.32880795001983643:0.48673248291015625] [-0.15552917122840881:0.43795633316040039] [-0.63970315456390381:0.10905345529317856] [-0.18200087547302246:0.62610489130020142] [-0.37628865242004395:0.43340745568275452] [-0.51300036907196045:0.28290998935699463] [-0.57599478960037231:0.32011419534683228] [-0.50317978858947754:0.35334405303001404] [-0.38528859615325928:0.35993495583534241] [-0.22712415456771851:0.64662265777587891] [-0.1423400491476059:0.68319118022918701] [-0.16864091157913208:0.39540982246398926] [-0.50990962982177734:0.54825913906097412] [-0.66433191299438477:0.13948008418083191] [-0.39858746528625488:0.26868590712547302] [-0.28561756014823914:0.36079895496368408] [-0.27665314078330994:0.26913756132125854] [-0.50339758396148682:0.2096213698387146] [-0.59986555576324463:0.28650873899459839] [-0.26109066605567932:0.5669897198677063] [-0.18933083117008209:0.45520135760307312] [-0.2517121434211731:0.42433470487594604] [-0.50257885456085205:0.37936848402023315] [-0.3238770067691803:0.56557482481002808] [-0.28215780854225159:0.33366042375564575] [-0.68230915069580078:0.32635647058486938] [-0.45340138673782349:0.36061713099479675] [-0.23965972661972046:0.39933359622955322] [-0.36844825744628906:0.6475030779838562] [-0.34846580028533936:0.81147360801696777] [-0.45714044570922852:0.45450916886329651] [-0.48644822835922241:0.42751067876815796] [-0.11521336436271667:0.67162871360778809] [-0.19861337542533875:0.5446631908416748] [-0.29791676998138428:0.28162401914596558] [-0.45031356811523438:0.36551320552825928] [-0.40734153985977173:0.32524073123931885] [-0.31432542204856873:0.3393712043762207] [-0.39013960957527161:0.39278262853622437] [-0.16894260048866272:0.28482764959335327] [-0.37266379594802856:0.23049148917198181] [-0.54876542091369629:0.35854363441467285] [-0.4473356306552887:0.1723908931016922] [-0.12149316072463989:0.69595503807067871] [-0.53150904178619385:0.21100234985351562] [-0.15103211998939514:0.68212282657623291] [-0.30863946676254272:0.45006048679351807] [-0.1950870156288147:0.34132248163223267] [-0.21686846017837524:0.35598918795585632] [-0.5875706672668457:0.42577457427978516] [-0.48759475350379944:0.57626181840896606] [-0.26515477895736694:0.36686256527900696] [-0.52031588554382324:0.27720201015472412] [-0.64903038740158081:0.25171634554862976] [-0.22241580486297607:0.77438205480575562] [-0.53641736507415771:0.27118167281150818] [-0.05819779634475708:0.92840111255645752] [-0.70506805181503296:0.045205041766166687] [-0.46213215589523315:0.417793869972229] [-0.35820251703262329:0.32777413725852966] [-0.38388824462890625:0.65475296974182129] [-0.14068508148193359:0.74989598989486694] [-0.73017829656600952:0.1833575963973999] [-0.43373078107833862:0.56406623125076294] [-0.44398754835128784:0.31761229038238525] [-0.4710237979888916:0.15544012188911438] [-0.14536365866661072:0.56094539165496826] [-0.24045631289482117:0.69611012935638428] [-0.31697520613670349:0.37613365054130554] [-0.23352068662643433:0.50245320796966553] [-0.19862452149391174:0.63772344589233398] [-0.41955524682998657:0.3359571099281311] [-0.21735082566738129:0.51683950424194336] [-0.032588105648756027:0.55173158645629883] [-0.32054829597473145:0.25286191701889038] [-0.2944733202457428:0.35708218812942505] [-0.65567779541015625:0.38605368137359619] [-0.37447309494018555:0.25949278473854065] [-0.41292166709899902:0.15543597936630249] [-0.43896755576133728:0.44483274221420288] [-0.13145674765110016:0.95452940464019775] [-0.22960200905799866:0.74567687511444092] [-0.21484330296516418:0.46041703224182129] [-0.29929032921791077:0.43479865789413452] [-0.25790244340896606:0.60453891754150391] [-0.39147889614105225:0.21404124796390533] [-0.27621367573738098:0.372152179479599] [-0.42443922162055969:0.26459896564483643] [-0.26581224799156189:0.49714338779449463] [-0.13184854388237:0.655875563621521] [-0.46804976463317871:0.29143375158309937] [-0.65720242261886597:0.097745850682258606] [-0.66678351163864136:0.3277679979801178] [-0.34740221500396729:0.30483824014663696] [-0.29050421714782715:0.45135760307312012] [-0.81376844644546509:0.4100322425365448] [-0.1935812383890152:0.55661594867706299] [0.051468625664710999:0.64840787649154663] [-0.30565297603607178:0.29615604877471924] [-0.40633225440979004:0.36125800013542175] [-0.49397522211074829:0.17802760004997253] [-0.052633173763751984:0.54662775993347168] [-0.6620708703994751:0.064665548503398895] [-0.4620191752910614:0.17810544371604919] [-0.23710283637046814:0.51178950071334839] [-0.61456179618835449:0.33852040767669678] [-0.27974477410316467:0.73260051012039185] [-0.80280196666717529:0.3889196515083313] [-0.33729380369186401:0.38779813051223755] [-0.55026865005493164:0.43854358792304993] [-0.34781378507614136:0.24029235541820526] [-0.18500903248786926:0.51276248693466187] [-0.45550775527954102:0.18425415456295013] [-0.40414154529571533:0.71052378416061401] [-0.23618711531162262:0.49942904710769653] [-0.30573886632919312:0.56936883926391602] [-0.27311372756958008:0.69806092977523804] [-0.30637821555137634:0.85945749282836914] [-0.39904230833053589:0.25154727697372437] [-0.29781687259674072:0.37642896175384521] [-0.30512645840644836:0.7247236967086792] [-0.2353055328130722:0.53664201498031616] [-0.23343408107757568:0.44613373279571533] [-0.48378381133079529:0.24898886680603027] [-0.33508086204528809:0.46973824501037598] [-0.40157487988471985:0.24212631583213806] [-0.40366417169570923:0.31543305516242981] [-1.1430196762084961:-0.0051198736764490604] [-0.38865828514099121:0.42154091596603394] [-0.37313190102577209:0.43813392519950867] [-0.26246172189712524:0.55976283550262451] [-0.47296518087387085:0.35180854797363281] [-0.60571402311325073:0.40629652142524719] [-0.16968311369419098:0.42659860849380493] [-0.57149851322174072:0.18463210761547089] [-0.34951332211494446:0.30051076412200928] [-0.14019361138343811:0.56331300735473633] [-0.2102695107460022:0.34515395760536194] [-0.30245447158813477:0.3714410662651062] [0.016884736716747284:0.5557401180267334] [-0.35653290152549744:0.41314607858657837] [-0.55692183971405029:0.26246985793113708] [-0.23438261449337006:0.403839111328125] [-0.31263607740402222:0.40353786945343018] [-0.42066842317581177:0.405141681432724] [-0.72086715698242188:0.42117372155189514] [-0.33706456422805786:0.40474170446395874] [-0.27806603908538818:0.43731310963630676] [-0.47034123539924622:0.43406885862350464] [-0.32833963632583618:0.29585132002830505] [-0.27587699890136719:0.33056110143661499] [-0.20557421445846558:0.41715067625045776] [-0.28573501110076904:0.43129968643188477] [-0.46275246143341064:0.16837960481643677] [-0.33447366952896118:0.49977624416351318] [478:7221] [88:1537] [13:433] [3:94] [3:306] [1:67] [0.021990697830915451:0.87103962898254395] [6.6707965743262321e-05:0.99952030181884766] [8.3062572230119258e-05:0.99971359968185425] [9.1835943749174476e-05:0.99983072280883789] [0:14] [0:1] [0.00065836986000000004:0.99273889999999998] [0.00023904526:0.99574510000000005] [0.00015796000000000001:0.99847620000000004]
tree_sizes=2029 1719 2147 2309 1871 2193 2515 2399 2200 2521 1992 2518 2527 2518 2313 2320 2090 2311 2199 2524 2430 2431 2627 2533 3054 1888 2531 2420 1997 2307 2633 1987 2203 2646 2106 2430 2307 1877 2311 2972 1992 2097 2088 1765 2411 2547 1980 2421 2313 2001 2213 2637 1874 2427 2318 2319 2098 2644 2199 2628 2304 2199 2639 2429 2537 2420 2535 2305 2544 2862 2104 2641 2211 2434 2741 2426 1881 2646 2632 2208 3087 2643 2312 1993 2315 2426 2423 2651 2520 2107 2529 2428 2104 2310 2414 2420 2537 2652 2438 2208 2214 2545 2423 2209 2328 2317 1993 2417 2214 2215 2332 2325 2308 2211 2098 2769 2423 2207 2543 2311 2104 2633 1990 2325 2429 2211 2208 2318 2327 2323 1995 2536 2004 1789 2099 2323 2094 2548 1900 2212 2758 2112 1996 2220 1990 2105 1999 2008 1779 2209 1553 2217 1579 1987 2325 1990 2222 2429 2435 1440 2440 1779 1986 2000 1992 2428 2425 2436 2001 2108 2228 2322 2003 2214 1895 2319 1782 1565 1987 2430 1241 2313 2210 1999 1666 2425 1671 2220 1888 1460 2660 1786 1777 1885 2516 1452 2111 1892 1235 1668 2107 1347 2219 2229 1236 1890 1889 2112 1977 1676 1243 2102 1678 1649 1783 1886 1230 2009 2445 1675 1991 2430 1457 2001 1890 1236 1990 2005 1991 1888 1562 1895 1664 1567 1341 2749 1339 1349 2112 1346

Tree=0
num_leaves=18
num_cat=0
split_feature=780 780 780 371 780 780 508 642 190 657 90 577 491 780 82 288 219
split_gain=2111.36 106.712 33.6069 22.009 16.3125 10.8114 10.3499 10.216 7.74097 5.92841 5.38726 4.47345 4.39466 3.56695 2.84771 1.39767 1.27406
threshold=0.61229077500000006 0.11095328200000001 0.88780135000000016 0.032889647409319885 0.20608864000000002 0.045127967500000005 -0.045855378732085221 0.1909931227564812 -0.082331240177154527 -0.26874350011348719 0.13335745781660083 -0.095503348857164369 -0.0092505174688994867 0.96614887500000013 0.34316772222518926 0.064715515822172179 0.055271113291382797
decision_type=2 2 2 2 2 2 2 2 2 2 2 2 2 2 2 2 2
left_child=1 5 7 4 -3 15 -5 10 -8 -4 -2 -7 13 -11 -13 16 -1
right_child=2 3 9 6 -6 11 8 -9 -10 12 -12 14 -14 -15 -16 -17 -18
leaf_value=-1.1622149897368153 -1.0194498493533217 -1.123223861160586 -1.0334743576206116 -1.1012137820743995 -1.0771437466113689 -1.1336502098896175 -1.1434615042519385 -1.0651134968942217 -1.1184268987509625 -1.0110451325758136 -1.0436903253451848 -1.1535743977938966 -1.0282007786083411 -0.99917854227437064 -1.1360324179639743 -1.149643854434973 -1.1522558799317739
leaf_weight=607.74421483278275 52.357462346553802 42.08479568362236 31.480752676725388 32.806258052587509 53.351591378450394 50.700580626726151 113.99346232414246 39.765161275863647 56.665354818105698 204.12782788276672 60.973247289657593 245.21849453449249 31.480752676725388 126.58576339483261 32.143505364656448 31.812129020690918 42.416172027587891
leaf_count=1834 158 127 95 99 161 153 344 120 171 616 184 740 95 382 97 96 128
internal_value=-1.11029 -1.14844 -1.01895 -1.11939 -1.09747 -1.15704 -1.12968 -1.04096 -1.13515 -1.01039 -1.03249 -1.14878 -1.00839 -1.0065 -1.15154 -1.16101 -1.16157
internal_weight=1855.71 1308.94 546.771 298.901 95.4364 1010.04 203.465 153.096 170.659 393.675 113.331 328.063 362.194 330.714 277.362 681.973 650.16
internal_count=5600 3950 1650 902 288 3048 614 462 515 1188 342 990 1093 998 837 2058 1962
is_linear=0
shrinkage=1


Tree=1
num_leaves=15
num_cat=0
split_feature=782 782 782 782 230 593 782 358 544 712 213 446 178 317
split_gain=2783.87 57.0386 51.6841 16.4964 9.78601 6.05882 3.58794 3.93123 2.91504 1.57381 1.30837 0.764706 0.974261 0.487368
threshold=0.46302493500000003 0.081530655000000021 0.70418242500000006 0.89278799000000009 -0.07912943139672278 0.03982393071055413 0.015513490000000003 -0.031442297622561448 -0.16152792423963544 -0.02932224981486797 -0.045123094692826264 0.31662175059318548 0.023771987296640876 0.0086215487681329268
decision_type=2 2 2 2 2 2 2 2 2 2 2 2 2 2
left_child=1 6 -2 5 -3 -4 11 10 -5 -10 -8 13 -13 -1
right_child=2 4 3 8 -6 -7 7 -9 9 -11 -12 12 -14 -15
leaf_value=-1.1909284264272679 -1.093651223677657 -1.1652325457594908 -1.066942234857323 -1.0441511062012752 -1.1287625001247228 -1.0406273817935876 -1.1884926851323296 -1.1656780679522025 -1.0384123106414953 -1.0276164648541288 -1.1756323309371988 -1.1896322031755358 -1.1781407665704684 -1.1869120213324351
leaf_weight=748.66429427266121 50.324880540370941 37.907052874565125 56.860579311847687 42.808826953172684 55.553439557552338 50.978450417518616 109.79973936080933 38.560622751712799 47.710601031780243 355.21522822976112 31.371354103088379 58.82128894329071 37.25348299741745 108.16581466794014
leaf_count=2291 154 116 174 131 170 156 336 118 146 1087 96 180 114 331
internal_value=-1.1372 -1.18511 -1.03994 -1.03506 -1.14355 -1.0545 -1.18854 -1.18136 -1.03036 -1.02889 -1.18564 -1.18989 -1.18518 -1.19042
internal_weight=1830 1226.1 603.899 553.574 93.4605 107.839 1132.64 179.732 445.735 402.926 141.171 952.905 96.0748 856.83
internal_count=5600 3752 1848 1694 286 330 3466 550 1364 1233 432 2916 294 2622
is_linear=0
shrinkage=1


Tree=2
num_leaves=19
num_cat=0
split_feature=781 781 781 380 780 656 363 185 130 284 386 781 708 710 238 343 135 299
split_gain=2378.47 69.0523 38.6507 14.4317 11.9334 9.64777 9.91313 7.62504 7.34633 5.71815 4.32698 2.94184 3.14613 3.21906 2.31398 2.2548 1.65852 1.19968
threshold=0.38452328500000005 0.76163456000000018 0.099014550000000021 0.054247304797172553 0.05034879200000001 0.17450506985187533 0.47834534943103796 0.038226023316383369 0.14646187424659732 0.15935807675123217 0.050628071650862701 0.047281346000000009 -0.32831963896751398 0.40615135431289678 0.018690573982894424 -0.050123937427997582 0.31089149415493017 0.13181824237108233
decision_type=2 2 2 2 2 2 2 2 2 2 2 2 2 2 2 2 2 2
left_child=2 3 11 -2 15 6 -6 10 -9 -7 -4 14 -13 -14 17 -3 -17 -1
right_child=1 4 7 -5 5 9 -8 8 -10 -11 -12 12 13 -15 -16 16 -18 -19
leaf_value=-1.1009874917029181 -1.0379939600418651 -0.96707438284730629 -1.0979332820138701 -0.99408037587087927 -0.99860335651910614 -0.97500775935109774 -0.96077940249853078 -1.078708901809815 -1.0514313935742921 -0.95412195239393782 -1.0719517998129438 -1.0823066134247783 -1.1017332508694384 -1.0846517252881078 -1.0912728190161478 -0.94983443380386967 -0.96174374188592493 -1.1055598023327877
leaf_weight=345.26363086700439 36.846316337585449 32.41111159324646 48.446082592010498 60.728188037872314 54.587135314941406 62.434036016464233 34.799298763275146 62.434036016464233 58.681170463562012 113.6094753742218 33.093450784683228 44.693217039108276 176.04351139068604 41.963860273361206 52.540117740631104 244.95976972579956 42.646199464797974 364.36912822723389
leaf_count=1012 108 95 142 178 160 183 102 183 172 333 97 131 516 123 154 718 125 1068
internal_value=-1.05033 -0.96755 -1.09639 -1.01066 -0.960366 -0.96905 -0.983873 -1.07431 -1.06549 -0.961527 -1.08739 -1.10076 -1.0957 -1.09845 -1.1025 -0.953165 -0.951599 -1.10334
internal_weight=1910.55 683.022 1227.53 97.5745 585.447 265.43 89.3864 202.655 121.115 176.044 81.5395 1024.87 262.701 218.007 762.173 320.017 287.606 709.633
internal_count=5600 2002 3598 286 1716 778 262 594 355 516 239 3004 770 639 2234 938 843 2080
is_linear=0
shrinkage=1


Tree=3
num_leaves=20
num_cat=0
split_feature=780 780 780 780 371 708 780 642 164 174 185 660 316 637 782 335 410 288 219
split_gain=1834.08 100.48 26.5658 20.3117 13.2416 12.2729 10.4416 8.68458 8.63682 4.885 4.75128 5.36012 4.60755 3.19034 2.95523 3.9809 2.18053 1.37647 1.26714
threshold=0.61229077500000006 0.11095328200000001 0.88780135000000016 0.36495717500000008 0.016946949064731601 -0.19579505175352094 0.045127967500000005 0.1909931227564812 -0.0090142074041068537 0.35110092163085943 0.0045606589410454043 0.047793738543987281 -0.090817108750343309 -0.028182754293084141 0.010299750500000001 -0.059369113296270364 -0.1676337197422981 0.064715515822172179 0.055271113291382797
decision_type=2 2 2 2 2 2 2 2 2 2 2 2 2 2 2 2 2 2 2
left_child=1 6 7 4 -3 -5 17 10 -6 13 -2 -12 -4 -8 16 -16 -14 18 -1
right_child=2 3 12 5 8 -7 9 -9 -10 -11 11 -13 14 -15 15 -17 -18 -19 -20
leaf_value=-0.050449164560760505 0.08772422657555401 0.0062464300876520981 0.075580202654901854 -0.0081240871689004044 -0.0012122910365555848 0.037441428197916682 -0.023597210798686388 0.041236035794164197 -0.031409362185850193 -0.016730590886648938 0.076550447101123548 0.048054704806378537 0.081695832060719495 -0.041513023565974638 0.093868196123202394 0.068101806510967935 0.096792443007562942 -0.037819553914257974 -0.040390664374119846
leaf_weight=590.6204286813736 35.834552884101868 56.932987034320831 58.898300856351852 33.084985285997391 37.387834250926971 39.966875374317169 34.678336977958679 40.773384690284729 129.72380977869034 32.555104225873947 44.281078040599823 37.36940062046051 33.673164367675781 253.84310388565063 41.940062344074249 32.939282536506653 244.86041906476021 31.070494472980499 41.35491532087326
leaf_count=1834 104 172 170 100 114 120 107 120 396 100 129 109 97 783 121 95 705 96 128
internal_value=8.66576e-06 -0.036747 0.082544 -0.00853788 -0.0168014 0.0168024 -0.0452628 0.0632612 -0.0246549 -0.037067 0.070902 0.0635135 0.0899443 -0.0393607 0.0923369 0.0825396 0.094969 -0.049231 -0.0497915
internal_weight=1851.79 1281.22 570.57 297.096 224.045 73.0519 984.122 158.258 167.112 321.077 117.485 81.6505 412.311 288.521 353.413 74.8793 278.534 663.046 631.975
internal_count=5600 3950 1650 902 682 220 3048 462 510 990 342 238 1188 890 1018 216 802 2058 1962
is_linear=0
shrinkage=0.0553438


Tree=4
num_leaves=16
num_cat=0
split_feature=782 782 782 782 781 260 593 782 257 779 752 683 340 497 192
split_gain=2430.7 54.232 41.1549 12.6177 8.82587 6.32146 6.33659 3.501 2.84709 3.8692 2.83722 1.95445 1.45719 0.678768 0.445592
threshold=0.46302493500000003 0.081530655000000021 0.70418242500000006 0.89278799000000009 0.3590667600000001 0.10492542013525964 0.03982393071055413 0.015513490000000003 0.03064844943583012 0.21807065217391305 0.18559037148952487 0.1877035275101662 0.19914793968200686 -0.033896787092089646 -0.1142442151904106
decision_type=2 2 2 2 2 2 2 2 2 2 2 2 2 2 2
left_child=1 7 -2 5 -3 6 -4 13 12 -10 -9 -12 -5 -1 -15
right_child=2 4 3 8 -6 -7 -8 10 9 -11 11 -13 -14 14 -16
leaf_value=-0.045541000981807196 0.040224507504943087 0.0067152635097994361 0.050859497322195663 0.09976596457058047 -0.028887511544213963 0.093279411375717089 0.083569657963417074 -0.029842372992775489 0.097348630169803788 0.076309118525006964 -0.037158347690026489 -0.051319729919103135 0.089974554901418466 -0.048309899592657954 -0.052178738253378008
leaf_weight=59.341876655817032 51.459823668003082 59.960519045591354 40.293540179729462 304.06858637928963 33.091403305530548 38.778602421283722 33.116429269313812 40.211424052715302 60.493684202432632 48.472132205963135 44.927264451980591 90.144803404808044 56.012058585882187 106.28639966249466 759.21277126669884
leaf_count=187 154 184 119 884 102 114 97 126 176 141 141 283 163 335 2394
internal_value=-1.75045e-05 -0.0465167 0.0876732 0.0918734 -0.00594401 0.0751856 0.0656213 -0.0499483 0.0958639 0.0879938 -0.0427667 -0.046612 0.0982442 -0.051309 -0.0517041
internal_weight=1825.87 1193.18 632.695 581.235 93.0519 112.189 73.41 1100.12 469.046 108.966 175.283 135.072 360.081 924.841 865.499
internal_count=5600 3752 1848 1694 286 330 216 3466 1364 317 550 424 1047 2916 2729
is_linear=0
shrinkage=0.0553438


Tree=5
num_leaves=19
num_cat=0
split_feature=781 781 781 380 781 204 545 226 130 265 645 214 210 411 603 425 708 3
split_gain=2088.02 56.3413 36.4627 12.7297 9.60244 9.83895 7.19326 7.29318 11.1924 4.77782 2.80175 2.57039 1.95706 2.6436 1.9355 2.15766 1.49876 0.942003
threshold=0.38452328500000005 0.76163456000000018 0.099014550000000021 0.054247304797172553 0.9515212500000001 0.1068038083612919 -0.1645085662603378 0.21111410856246951 0.14646187424659732 -0.23525466769933698 0.45925363898277288 -0.11475556716322897 0.026705797761678699 0.048978172242641456 0.22872404009103778 0.20879338681697848 -0.31318993866443628 -0.067351333796977983
decision_type=2 2 2 2 2 2 2 2 2 2 2 2 2 2 2 2 2 2
left_child=2 3 10 -2 5 9 -4 8 -8 -3 12 -9 13 -1 17 -16 -14 -6
right_child=1 4 6 -5 14 -7 7 11 -10 -11 -12 -13 16 -15 15 -17 -18 -19
leaf_value=-0.053790839734692952 0.011193727454909347 0.062986838761341576 0.00012090027463037325 0.052159998941055247 0.084154488892939167 0.05339632070402095 -0.03552841942885937 -0.029909990351414135 0.0021516261155991811 0.082732316447446483 -0.036270174994224809 -0.051368350498269766 -0.046709778196439705 -0.041406364441688021 0.091164120088878059 0.071385605226973098 -0.052511691202724559 0.0939913815271744
leaf_weight=76.521869301795959 37.15308952331543 44.789110034704208 34.443346351385117 62.084478139877319 37.260263979434967 52.107448756694794 51.52741339802742 31.962023347616196 45.414662808179855 237.00782141089439 52.307415664196014 36.994521915912628 187.70703575015068 172.01163801550865 34.427974015474319 33.715541869401932 510.83674818277359 167.89991208910942
leaf_count=230 108 127 102 178 105 148 153 95 134 671 157 110 564 517 97 95 1536 473
internal_value=8.23109e-06 0.0754925 -0.0444397 0.0368258 0.0818113 0.0755081 -0.0228879 -0.0276662 -0.0178745 0.0795954 -0.0487598 -0.0414271 -0.0494493 -0.0452209 0.0895105 0.081385 -0.0509532 0.0922071
internal_weight=1906.17 706.446 1199.73 99.2376 607.208 333.904 200.342 165.899 96.9421 281.797 999.385 68.9565 947.077 248.534 273.304 68.1435 698.544 205.16
internal_count=5600 2002 3598 286 1716 946 594 492 287 798 3004 205 2847 747 770 192 2100 578
is_linear=0
shrinkage=0.0553438


Tree=6
num_leaves=22
num_cat=0
split_feature=780 780 780 331 662 64 780 425 402 780 598 3 356 45 580 284 303 163 450 776 31
split_gain=1605.83 67.8943 50.3063 15.204 13.0062 11.3418 10.1118 8.257 7.80171 6.35047 5.6164 5.19728 5.08763 6.35642 4.70024 3.75175 3.68238 3.16901 1.69814 1.28119 1.0765
threshold=0.48411453000000004 0.11095328200000001 0.82016250000000002 -0.053809467703104012 -0.15935996174812314 0.017858249135315422 0.045127967500000005 0.18320681899785998 0.36028084158897405 0.94366213500000018 -0.077360238879919038 0.13999453932046893 0.070537615567445769 -0.031442448496818536 0.093961291015148177 0.12882120907306674 -0.13238012790679929 0.10580917447805406 -0.22417300939559934 0.95011389255523693 0.22608974575996402
decision_type=2 2 2 2 2 2 2 2 2 2 2 2 2 2 2 2 2 2 2 2 2
left_child=1 6 4 10 -2 -5 18 -7 -6 12 11 -3 -4 -14 15 -8 17 -11 -1 -20 -18
right_child=2 3 9 5 8 7 14 -9 -10 16 -12 -13 13 -15 -16 -17 20 -19 19 -21 -22
leaf_value=-0.038599221273987419 0.06681427725836224 -0.037146053923392361 0.09199107489425222 -0.024341492698368376 0.04333739055794919 -0.0018229228234075616 -0.024977141833130097 0.03411905083990921 0.0093412915158134404 0.086277392436451772 -0.0025806675253214569 -0.012254610717400664 0.075307233937154938 0.052186190756992185 -0.020608310172096907 -0.041948095782080537 0.091273398584834756 0.064035547697081363 -0.049311223376855791 -0.037468765021488118 0.081433482332203336
leaf_weight=55.996504276990891 38.387048691511154 78.798367977142334 35.243921518325806 31.558307856321335 45.48269110918045 41.980476528406143 49.255477458238602 36.664304226636887 37.947437733411789 39.075013011693954 31.175236344337463 38.174456387758255 133.85018628835678 50.187158733606339 52.61507973074913 212.07335007190704 161.39416125416756 39.811369031667709 557.33471190929413 29.683132261037827 44.202121824026108
leaf_count=179 110 243 99 97 132 128 155 111 110 109 96 117 376 141 165 670 449 111 1784 95 123
internal_value=2.57473e-05 -0.0370595 0.0720711 -0.0118824 0.0401508 0.00368242 -0.0438564 0.0149311 0.0278781 0.0797892 -0.0234619 -0.0290251 0.072701 0.0690042 -0.035711 -0.0387506 0.0852513 0.0750582 -0.0478327 -0.048713 0.0891601
internal_weight=1840.89 1215.31 625.581 258.351 121.817 110.203 956.958 78.6448 83.4301 503.764 148.148 116.973 219.281 184.037 313.944 261.329 284.483 78.8864 643.014 587.018 205.596
internal_count=5600 3840 1760 792 352 336 3048 239 242 1408 456 360 616 517 990 825 792 220 2058 1879 572
is_linear=0
shrinkage=0.0553438


Tree=7
num_leaves=21
num_cat=0
split_feature=775 772 772 775 772 286 208 775 770 237 773 232 258 693 23 192 341 214 776 438
split_gain=856.611 202.554 72.7759 56.1616 35.2092 30.861 25.0174 24.7146 17.796 15.5487 14.4809 11.7613 10.4399 9.9027 9.28817 8.29568 5.16695 3.9143 3.08711 2.00591
threshold=0.2110206335783005 184.50000000000003 112.50000000000001 0.015300125349313022 218.50000000000003 0.25199097394943243 0.11745166778564455 0.9617099165916444 108.50000000000001 0.10392731055617334 34.500000000000007 0.12205415964126588 -0.25894786417484278 0.20721555501222613 0.27848505973815924 -0.029144709929823872 0.21504668891429904 -0.1268399432301521 0.96262928843498241 0.11259494721889497
decision_type=2 2 2 2 2 2 2 2 2 2 2 2 2 2 2 2 2 2 2 2
left_child=2 7 -1 13 6 8 14 10 -5 -8 12 -12 -2 -4 -3 -6 -17 -9 -15 -19
right_child=1 4 3 5 15 -7 9 17 -10 -11 11 -13 -14 18 -16 16 -18 19 -20 -21
leaf_value=0.037877664954498076 0.084954567607044104 -0.017308391059605469 -0.018431976126652719 -0.035266530168448981 0.0076834039464659578 0.030760496812314658 0.022152833478479978 0.069677813066621852 -0.011014625927451928 0.06914016189429828 0.057649745275763539 0.014176407287746984 0.053301175731033032 -0.04845769782054634 0.020905969216874654 -0.0099181482565519549 -0.040758138422994382 0.091274799117970859 -0.040594729588675563 0.076276369649302594
leaf_weight=46.549066185951233 66.129726409912109 36.203095465898514 47.437509179115295 164.69227132201195 31.114631861448288 37.917172998189926 41.774698317050934 42.450020730495453 212.03048166632652 44.648110181093216 45.513146728277206 32.826339393854141 61.846988588571548 319.65247103571892 42.165536880493164 30.303750067949295 36.968348026275635 144.68353548645973 294.76498556137085 34.083904951810837
leaf_count=138 187 113 150 527 96 113 126 121 662 129 133 98 179 1038 126 95 118 407 948 96
internal_value=-4.13817e-05 0.0484561 -0.0298693 -0.0327991 0.010256 -0.0168271 0.0258977 0.0719703 -0.0216176 0.0464317 0.0581865 0.0394373 0.0696608 -0.0428047 0.00324967 -0.0159405 -0.0268701 0.0848236 -0.044686 0.0884177
internal_weight=1813.76 690.712 1123.04 1076.49 263.178 414.64 164.791 427.534 376.723 86.4228 206.316 78.3395 127.977 661.855 78.3686 98.3867 67.2721 221.217 614.417 178.767
internal_count=5600 2024 3576 3438 803 1302 494 1221 1189 255 597 231 366 2136 239 309 213 624 1986 503
is_linear=0
shrinkage=0.0553438


Tree=8
num_leaves=19
num_cat=0
split_feature=781 781 781 514 777 225 73 356 699 780 333 252 781 48 238 599 299 343
split_gain=1841.29 47.4685 34.6311 10.6667 8.796 9.34192 6.9026 5.62242 6.08856 3.41983 5.64355 3.41522 2.83497 2.75937 2.33606 1.76165 1.22166 1.17307
threshold=0.38452328500000005 0.76163456000000018 0.099014550000000021 -0.12640331685543058 0.083679933100938811 0.18612059205770495 0.25090537965297705 0.23148996382951739 0.094498209655284895 0.042315957500000008 0.1010752320289612 -0.073661472648382173 0.047281346000000009 -0.024228530004620549 0.018690573982894424 -0.35190933942794794 0.13181824237108233 -0.027402312494814392
decision_type=2 2 2 2 2 2 2 2 2 2 2 2 2 2 2 2 2 2
left_child=2 3 12 -2 5 11 7 8 -4 17 -11 -3 14 -14 16 -15 -1 -6
right_child=1 4 6 -5 9 -7 -8 -9 -10 10 -12 -13 13 15 -16 -17 -18 -19
leaf_value=-0.047393729559887583 0.018762113377839246 0.082146621244890874 -0.0082893028460174819 0.055250130120353055 0.073566533321145711 0.037227118907546736 -0.037566453325805119 0.0049015722085862081 -0.034913007161826881 0.077426420152849812 0.055485625527660842 0.059347192369084041 -0.029210088599410867 -0.034062014533330395 -0.037401623361631997 -0.047181382074547466 -0.052133363830324402 0.084390215343395358
leaf_weight=327.23431953787804 58.313976377248764 43.566231578588486 54.02016943693161 42.406877070665359 36.431218981742859 34.634436666965485 59.504662275314331 33.018680363893509 51.341701209545135 212.6363325715065 43.346111506223679 37.704571694135666 42.273763298988342 38.697452306747437 50.000666499137878 169.27245584130287 344.72096189856529 214.93857550621033
leaf_count=1012 166 120 162 120 100 96 179 99 154 587 120 104 130 119 154 521 1068 589
internal_value=1.4485e-05 0.0693855 -0.042908 0.0341282 0.0750827 0.0613139 -0.0218015 -0.0150202 -0.0212655 0.0782274 0.0737127 0.0715743 -0.0472038 -0.0421193 -0.0489658 -0.0447418 -0.0498258 0.0828233
internal_weight=1894.06 723.978 1170.08 100.721 623.257 115.905 197.885 138.381 105.362 507.352 255.982 81.2708 972.2 250.244 721.956 207.97 671.955 251.37
internal_count=5600 2002 3598 286 1716 320 594 415 316 1396 707 224 3004 770 2234 640 2080 689
is_linear=0
shrinkage=0.0553438


Tree=9
num_leaves=22
num_cat=0
split_feature=780 780 780 708 780 662 780 82 780 704 521 773 651 104 538 692 450 450 776 483 558
split_gain=1428.97 64.9931 43.3638 13.4625 12.0029 11.4379 10.0746 8.45956 5.77554 5.53734 5.46452 4.38991 4.81295 4.28685 5.56976 4.34944 3.48143 1.65592 1.16142 1.07665 0.0201362
threshold=0.48411453000000004 0.11095328200000001 0.82016250000000002 -0.16998846083879468 0.20608864000000002 -0.15935996174812314 0.045127967500000005 0.24737747013568881 0.96614887500000013 -0.18917277455329892 0.16741646826267245 49.500000000000007 -0.030641240999102589 -0.20961812883615491 0.21006775647401812 0.015262314118444921 -0.01846893876791 -0.22417300939559934 0.95011389255523693 0.047169873490929611 0.46530145406723028
decision_type=2 2 2 2 2 2 2 2 2 2 2 2 2 2 2 2 2 2 2 2 2
left_child=1 6 5 9 -5 -2 17 -7 11 10 -3 16 -13 14 -8 -15 -4 -1 -19 -10 -21
right_child=2 3 8 4 -6 7 13 -9 19 -11 -12 12 -14 15 -16 -17 -18 18 -20 20 -22
leaf_value=-0.037458983733219792 0.06209370205660221 -0.025250547085462729 0.07773532591879434 -0.014706268811246289 0.021097259448419541 0.044491455717478708 -0.038614247691694664 0.0093814183616834079 0.075040112258439567 -0.041052323503753228 0.0013811561893096586 0.075399681098958546 0.053600236831494896 -0.044783809859227613 -0.0069733048664281632 -0.02976642518813593 0.058744257355119268 -0.048147383799434847 -0.036787690755197798 0.085982022819698314 0.083775911934351882
leaf_weight=54.726464122533798 39.214085966348648 68.57524248957634 185.72632977366447 58.239912301301956 56.494939744472504 39.730602860450745 32.844580143690109 44.67514568567276 43.279853522777557 36.823931246995926 35.956455111503601 50.279312461614609 81.536508858203888 129.61155703663826 35.455616265535355 108.85171774029732 35.354900270700455 540.59804803133011 29.284187912940979 83.037998706102371 35.338365435600281
leaf_count=179 110 214 509 181 170 114 106 128 118 116 111 138 224 419 114 351 97 1784 95 226 96
internal_value=3.98146e-05 -0.0358549 0.0668301 -0.0111615 0.00292138 0.0373921 -0.0426443 0.0259116 0.0739018 -0.0225936 -0.0160879 0.069927 0.0619185 -0.0344273 -0.0221932 -0.0379302 0.0747001 -0.0466794 -0.0475642 0.082576 0.0853274
internal_weight=1825.64 1187.46 638.173 256.09 114.735 123.62 931.372 84.4057 514.553 141.356 104.532 352.897 131.816 306.763 68.3002 238.463 221.081 624.609 569.882 161.656 118.376
internal_count=5600 3840 1760 792 351 352 3048 242 1408 441 325 968 362 990 220 770 606 2058 1879 440 322
is_linear=0
shrinkage=0.0553438


Tree=10
num_leaves=17
num_cat=0
split_feature=782 782 782 523 782 158 260 153 782 144 544 670 647 446 163 317
split_gain=1964.02 50.625 26.5352 9.35497 8.5119 7.2211 5.40603 5.5496 3.2743 2.72956 2.25311 1.92278 1.38733 0.776326 1.78476 0.479024
threshold=0.33843428000000003 0.70418242500000006 0.081530655000000021 -0.0094310687854886038 0.89278799000000009 0.16442147642374041 0.10492542013525964 0.028960768133401874 0.015513490000000003 -0.018269368447363373 -0.16152792423963544 -0.18816627562046048 0.053070159628987319 0.31662175059318548 0.1559974476695061 0.0086215487681329268
decision_type=2 2 2 2 2 2 2 2 2 2 2 2 2 2 2 2
left_child=2 3 8 -2 6 -4 7 -3 13 -10 -6 -11 -12 15 -15 -1
right_child=1 4 5 -5 10 -7 -8 -9 9 11 12 -13 -14 14 -16 -17
leaf_value=-0.050239803703016818 0.048771399664889171 0.040186432724948776 0.0052540015316725015 0.0095597941548152005 0.070296442881973037 -0.030161379259983551 0.081523588508988901 0.070109004876868108 -0.025371144175600737 -0.047434932789139905 0.085572791136977869 -0.031673576114349823 0.079258893185800622 -0.050087434778409295 -0.033648121666252029 -0.046090896269220673
leaf_weight=684.76309165358543 39.837527632713318 34.770067304372787 34.748324751853943 35.048872858285904 47.494228333234787 35.781607776880264 40.792271316051483 41.996675997972488 29.413420766592026 107.90400177240372 267.40957289934158 30.545816898345947 181.2138703763485 56.807098299264908 31.636367619037628 99.576667845249176
leaf_count=2291 117 98 108 103 131 112 114 118 96 354 735 100 498 189 105 331
internal_value=-5.55706e-05 0.0733881 -0.0455667 0.0304233 0.0786306 -0.0127105 0.0652266 0.0565611 -0.0477933 -0.0407045 0.0818059 -0.0439599 0.0830234 -0.0491563 -0.0442109 -0.0497135
internal_weight=1799.74 688.563 1111.18 74.8864 613.677 70.5299 117.559 76.7667 1040.65 167.863 496.118 138.45 448.623 872.783 88.4435 784.34
internal_count=5600 1914 3686 220 1694 220 330 216 3466 550 1364 454 1233 2916 294 2622
is_linear=0
shrinkage=0.0553438


Tree=11
num_leaves=22
num_cat=0
split_feature=781 781 781 48 777 580 109 507 81 781 467 325 343 567 55 396 731 129 12 172 438
split_gain=1648.62 40.6053 33.7458 8.60874 7.29955 8.40656 7.25703 10.0462 4.04737 5.01538 3.65217 5.42842 3.36455 2.62495 2.354 1.81074 2.94543 1.47246 1.07163 1.60391 0.93859
threshold=0.38452328500000005 0.76163456000000018 0.082515732500000008 0.041114283725619323 0.083679933100938811 0.0561884492635727 0.092469058930873885 0.15397410839796069 0.10189510136842729 0.15208441000000003 0.061517372727394111 0.11290831863880159 0.11756696552038194 0.15258057415485385 -0.20181309431791303 0.1302389279007912 -0.13702072203159329 -0.20118906348943708 0.21256259083747867 -0.0067121232859790316 0.13232536613941195
decision_type=2 2 2 2 2 2 2 2 2 2 2 2 2 2 2 2 2 2 2 2 2
left_child=2 3 15 -2 5 12 8 -8 9 -4 14 -12 -3 -10 -6 18 -17 -18 20 -20 -1
right_child=1 4 6 -5 10 -7 7 -9 13 -11 11 -13 -14 -15 -16 16 17 -19 19 -21 -22
leaf_value=-0.050418652553816702 0.051202386905976692 0.078410803972315923 -0.034846258922730224 0.018548706767370277 0.062035743945119341 0.034854280510546537 0.013751563394097147 -0.024441933742564322 -0.04988904666481607 -0.0067927898856199537 0.048210006783967023 0.072112391213349017 0.055951572699466615 -0.028685044149103587 0.076997602496471376 -0.030343962336983284 -0.039701217444933226 -0.04826732489485891 -0.032250836198001731 -0.049562122839378067 -0.044166792113938633
leaf_weight=416.28157180547714 42.513627827167511 40.863194823265076 43.184009611606598 59.200643181800842 35.855402618646622 35.40349018573761 32.279764294624329 60.833989322185516 39.621665984392166 35.662956714630127 41.32051694393158 99.232152462005615 41.193711906671524 32.754484862089157 339.4759458899498 46.547484487295151 92.830845803022385 185.04057338833809 29.863132417201996 36.726443886756897 90.429599702358246
leaf_count=1323 119 111 133 167 97 97 98 186 122 108 112 269 112 101 918 147 294 587 95 117 287
internal_value=1.44387e-05 0.0646641 -0.0415957 0.0322003 0.0698773 0.0574125 -0.0233583 -0.011199 -0.0308434 -0.022161 0.0727146 0.0650881 0.067141 -0.0402976 0.0755694 -0.0465592 -0.0432466 -0.0454068 -0.0484331 -0.0418037 -0.0493036
internal_weight=1877.12 735.059 1142.06 101.714 633.344 117.46 244.337 93.1138 151.223 78.847 515.884 140.553 82.0569 72.3762 375.331 897.72 324.419 277.871 573.301 66.5896 506.711
internal_count=5600 2002 3598 286 1716 320 748 284 464 241 1396 381 223 223 1015 2850 1028 881 1822 212 1610
is_linear=0
shrinkage=0.0553438


Tree=12
num_leaves=22
num_cat=0
split_feature=782 777 773 777 708 773 782 339 642 589 375 52 616 782 467 190 6 708 544 105 92
split_gain=436.419 481.556 49.3888 42.5778 35.4434 23.541 18.176 11.8704 11.8431 10.3742 10.1474 9.86703 9.54555 8.962 7.25736 7.14169 2.63615 2.41247 1.69792 1.14054 0.690625
threshold=0.6390686000000001 0.12617710977792743 42.500000000000007 0.89446422457695018 -0.16372102499008176 41.500000000000007 0.13406337500000001 -0.047480467706918709 0.21339358389377597 0.19361356645822528 -0.027618541382253167 -0.20230406522750852 0.3016523569822312 0.89278799000000009 0.065866142511367812 -0.095166746526956544 -0.14068035036325452 -0.097363352775573717 -0.16152792423963544 -0.40557757019996638 -0.15122138708829877
decision_type=2 2 2 2 2 2 2 2 2 2 2 2 2 2 2 2 2 2 2 2 2
left_child=1 2 4 5 9 10 8 -6 -4 -1 -3 17 -7 15 -13 16 -2 -5 -15 -20 -21
right_child=13 3 6 11 7 12 -8 -9 -10 -11 -12 14 -14 18 -16 -17 -18 -19 19 20 -22
leaf_value=0.02404539382719292 -0.049744853820148829 -0.034915428846840089 0.061834515661536582 -0.046898805521433065 0.027849870627616909 0.0020037163438933795 0.016412678121382668 0.06082274950589666 0.038337011579998817 -0.012915751749147331 0.0035195845226875379 -0.031737078597353093 0.037723476677446577 -0.035326877114864555 -0.0032518200236954218 -0.013818984876907829 -0.028088271035034071 -0.033062548850648341 -0.037834648247589295 -0.041225774604917824 -0.049382488553077697
leaf_weight=35.953956514596939 41.423836827278137 61.980219781398773 407.24772471189499 144.06190270185471 70.80689325928688 53.302505701780319 34.421125799417496 63.449267566204071 78.42547070980072 65.864161521196365 31.835433930158615 98.540281713008881 40.211598426103592 39.142351716756821 37.969911634922028 52.656999140977859 29.598166257143021 52.960837751626968 34.235831320285797 36.18796905875206 293.72240781784058
leaf_count=109 133 204 1115 486 208 163 101 179 222 207 101 329 118 131 123 168 95 175 115 123 995
internal_value=6.43521e-05 0.0175506 0.0457568 -0.0233976 0.0247609 -0.00228258 0.0552864 0.0434354 0.0580409 0.00013407 -0.0218708 -0.0352562 0.0173665 -0.0423106 -0.0238159 -0.0292715 -0.0407242 -0.0431812 -0.0463085 -0.0474881 -0.0484888
internal_weight=1804 1277.03 756.169 520.863 236.074 187.33 520.094 134.256 485.673 101.818 93.8157 333.533 93.5141 526.968 136.51 123.679 71.022 197.023 403.289 364.146 329.91
internal_count=5600 3840 2141 1699 703 586 1438 387 1337 316 305 1113 281 1760 452 396 228 661 1364 1233 1118
is_linear=0
shrinkage=0.0553438


Tree=13
num_leaves=22
num_cat=0
split_feature=775 780 781 781 780 780 781 781 676 488 781 780 180 780 214 298 93 431 446 474 758
split_gain=683.553 297.188 174.444 132.524 451.717 31.7373 16.4008 8.13281 6.56642 6.41969 5.49883 9.78631 3.70073 3.25117 2.04015 1.60952 1.25323 1.02921 0.75302 0.518904 0.169196
threshold=0.20078578591346743 0.19094640000000004 0.21624007000000003 0.13451734500000004 0.5077710700000001 0.76099158000000011 0.18892255000000002 0.033247185000000005 0.2062770873308182 -0.014515145216137169 0.5278376050000001 0.58479580000000009 0.26893223822116857 0.87439480500000011 -0.10103351250290869 0.11711833626031877 0.43052344024181372 -0.36926358938217158 0.31662175059318548 0.007297792937606574 -0.10606945306062697
decision_type=2 2 2 2 2 2 2 2 2 2 2 2 2 2 2 2 2 2 2 2 2
left_child=3 2 7 4 8 6 -3 16 14 -9 11 -5 20 -6 -1 -15 -2 -12 -19 -13 -7
right_child=1 5 -4 10 13 12 -8 9 -10 -11 17 19 -14 15 -16 -17 -18 18 -20 -21 -22
leaf_value=0.088542144826267696 0.078320334479678663 0.03315590722967901 -0.035888043994596878 -0.0098525728102971215 -0.028189547975270512 -0.050665148547562634 -0.020290205471051828 0.04419873065907113 0.053157951054144253 0.070439230790785484 -0.03783664438594081 -0.0504225435535701 -0.027228510447521996 -0.03765633082248325 0.072249847302250342 -0.049192007616702269 0.067942779446773613 -0.049039841171007938 -0.042191256372890812 -0.040337427771241066 -0.044579147263075242
leaf_weight=34.934516310691833 318.6937167942524 39.176756113767624 49.762581050395966 35.202804774045944 30.337234079837799 30.817134201526642 31.901372164487839 45.799784243106842 49.592183917760849 76.22528800368309 31.463300228118896 37.066194295883179 49.519630700349808 44.510811895132065 74.037010252475739 228.40356647968292 40.736218333244324 415.19669795036316 56.552799463272095 27.804812282323837 28.260806888341904
leaf_count=96 859 115 161 111 99 104 101 125 137 208 108 126 167 153 203 790 110 1441 195 95 96
internal_value=-8.2712e-05 0.041944 0.0627549 -0.0281333 -0.00582019 -0.019583 0.00916517 0.0729511 0.0698736 0.0605935 -0.0452135 -0.0333556 -0.0384008 -0.0453999 0.0774771 -0.0473118 0.0771454 -0.047571 -0.0482196 -0.0461053 -0.0477599
internal_weight=1776 710.893 531.218 1065.1 461.815 179.676 71.0781 481.455 158.564 122.025 603.287 100.074 108.598 303.252 108.972 272.914 359.43 503.213 471.749 64.871 59.0779
internal_count=5600 2046 1463 3554 1478 583 216 1302 436 333 2076 332 367 1042 299 943 969 1744 1636 221 200
is_linear=0
shrinkage=0.0553438


Tree=14
num_leaves=20
num_cat=0
split_feature=781 780 781 227 782 679 545 728 781 576 355 79 450 238 495 608 781 272 755
split_gain=1465.27 35.2234 32.413 11.036 10.9072 7.71533 7.2252 7.67374 6.47643 3.79139 3.53413 2.4521 2.37604 1.94502 2.86506 1.87058 1.6526 4.38099 1.25769
threshold=0.38452328500000005 0.10509276500000002 0.082515732500000008 -0.24029527604579923 0.0070304051000000005 0.21920777857303622 -0.17996303737163541 -0.0069520636461675158 0.16616120500000003 0.092664100229740157 -0.40245041251182551 -0.08771390467882155 -0.10283104702830313 0.018690573982894424 0.40167513489723211 -0.2811416089534759 0.046049924500000013 -0.0019881124608218666 -0.050959313288331025
decision_type=2 2 2 2 2 2 2 2 2 2 2 2 2 2 2 2 2 2 2
left_child=2 9 13 -3 11 -6 -4 12 -9 10 -2 -5 -8 16 -15 -12 18 -18 -1
right_child=1 3 6 4 5 -7 7 8 -10 -11 15 -13 -14 14 -16 -17 17 -19 -20
leaf_value=-0.038576008838749697 0.052938209658371017 0.015124403606557804 0.001464192306514593 0.074043742145275177 0.054853663646434091 0.022083385701858672 -0.051469886207187697 -0.028022784284534676 -0.003224272678242233 0.052829115948942018 0.059868600194851518 0.053247641459104808 -0.03116040277342318 -0.047003740030943639 -0.023981212966564244 0.071662326531674023 -0.027107984578978901 -0.046603545473675276 -0.048005519372196298
leaf_weight=47.186906695365906 38.438383966684341 41.465754210948944 33.79479119181633 34.910510659217834 35.797831952571869 57.224088370800018 33.965777277946472 83.424624651670456 52.627850472927094 48.496877640485764 46.2578444480896 34.919913232326508 36.953048259019852 34.989141464233398 31.557309806346893 405.18334570527077 48.853587508201599 128.08194863796234 579.06330731511116
leaf_count=155 103 114 104 95 98 158 107 262 160 130 124 95 115 114 102 1085 158 417 1904
internal_value=1.65023e-05 0.0601922 -0.0402285 0.0406239 0.0471149 0.0346981 -0.0222556 -0.0261296 -0.0184321 0.0676178 0.0690811 0.0636501 -0.0408922 -0.0452035 -0.036091 0.0704547 -0.0459581 -0.0412224 -0.0472956
internal_weight=1853.19 742.695 1110.5 204.318 162.852 93.0219 240.766 206.971 136.052 538.376 489.88 69.8304 70.9188 869.732 66.5465 451.441 803.186 176.936 626.25
internal_count=5600 2002 3598 560 446 256 748 644 422 1442 1312 190 222 2850 216 1209 2634 575 2059
is_linear=0
shrinkage=0.0553438


Tree=15
num_leaves=20
num_cat=0
split_feature=780 780 780 780 371 780 287 164 178 109 577 540 687 708 464 234 585 288 219
split_gain=1143.31 54.5163 39.5937 11.447 11.3559 9.74522 9.10842 8.25275 6.70039 6.94764 4.4985 4.35321 4.31715 3.56837 3.06087 2.97264 2.34425 1.50674 1.47344
threshold=0.36495717500000008 0.66226615000000011 0.11095328200000001 0.90153040000000007 0.016946949064731601 0.045127967500000005 -0.030200172215700146 -0.0090142074041068537 -0.031161581166088578 0.085983291268348708 -0.095503348857164369 -0.053297780454158776 -0.050492297857999795 -0.27707648277282709 0.12814868241548541 0.054877577349543578 -0.077345259487628923 0.056638896465301521 0.055271113291382797
decision_type=2 2 2 2 2 2 2 2 2 2 2 2 2 2 2 2 2 2 2
left_child=2 6 5 8 -4 17 -2 -6 15 -10 -7 13 -9 -5 -12 -3 -13 18 -1
right_child=1 3 4 11 7 10 -8 12 9 -11 14 16 -14 -15 -16 -17 -18 -19 -20
leaf_value=-0.045889945556966932 0.037997954524864895 0.069179766926435876 0.0075558677735940881 0.043432228407462678 0.0018505164560372084 -0.016159432828201238 0.0019762542007078642 -0.043475842989778447 0.052633220018797902 0.021324344856828312 -0.029149084299933525 0.057425263454344996 -0.02117176043285347 0.064306918079350253 -0.041503685018737621 0.048444820092592086 0.072411754616034302 -0.032883095322338789 -0.034313695308017478
leaf_weight=515.58540105819702 35.111804604530334 53.900600224733353 56.152055084705353 35.826891005039215 36.191773235797882 45.9521604180336 55.494351714849472 38.846075981855392 51.916270434856415 37.373001575469971 129.31730428338051 36.659588396549225 84.468105733394623 84.531622111797333 117.43925076723099 35.118595868349075 262.79185083508492 32.773972034454346 36.249562531709671
leaf_count=1817 100 146 172 96 114 153 164 126 141 102 438 98 270 226 399 95 702 114 127
internal_value=9.94884e-05 0.0559485 -0.0350929 0.0620089 -0.0138453 -0.0403155 0.0159386 -0.0213807 0.0502539 0.0395322 -0.0320688 0.0670007 -0.0282006 0.0580962 -0.0350303 0.061004 0.0705784 -0.0444441 -0.0451301
internal_weight=1781.7 688.725 1092.98 598.118 215.658 877.318 90.6062 159.506 178.308 89.2893 292.709 419.81 123.314 120.359 246.757 89.0192 299.451 584.609 551.835
internal_count=5600 1870 3730 1606 682 3048 264 510 484 243 990 1122 396 322 837 241 800 2058 1944
is_linear=0
shrinkage=0.0553438


Tree=16
num_leaves=18
num_cat=0
split_feature=782 782 782 523 158 782 260 62 782 144 257 466 490 3 446 145 527
split_gain=1564.58 37.113 25.2621 8.13279 6.79447 6.76483 4.73906 5.63708 3.29225 2.76344 2.14538 2.66688 1.85451 1.70065 0.80627 1.11179 0.436606
threshold=0.33843428000000003 0.70418242500000006 0.081530655000000021 -0.0094310687854886038 0.16442147642374041 0.89278799000000009 0.10492542013525964 0.09378764778375627 0.015513490000000003 -0.018269368447363373 0.03064844943583012 0.18069136142730716 0.13150160014629367 0.19057298451662066 0.31662175059318548 0.17849200963974002 0.06643350794911386
decision_type=2 2 2 2 2 2 2 2 2 2 2 2 2 2 2 2 2
left_child=2 3 8 -2 -4 6 7 -3 14 -10 13 -12 -11 -7 16 -16 -1
right_child=1 5 4 -5 -6 10 -8 -9 9 12 11 -13 -14 -15 15 -17 -18
leaf_value=-0.048054927381429378 0.043704447062117645 0.032224626453000761 0.0064677273636031592 0.0075055318302530453 -0.02826427759738025 0.073720510117054314 0.070971878854821119 0.061812129488180524 -0.022557476601668184 -0.033460407927305397 0.069448187595990293 0.051319989427248774 -0.047017019405398715 0.061515456880800665 -0.046306360552630044 -0.032528675637880311 -0.042820882107961249
leaf_weight=675.85703682899475 40.932187288999557 37.073446452617645 34.306051164865494 35.52769011259079 34.682311356067657 352.33600065112114 42.212795048952103 42.283308207988739 28.01787257194519 50.848205268383026 82.560220688581467 35.810756653547287 79.644789189100266 39.21092277765274 56.077747017145157 26.645044386386871 53.792315423488617
leaf_count=2429 117 101 108 103 112 942 114 115 96 177 221 96 277 105 199 95 193
internal_value=-0.000150322 0.0633108 -0.0433551 0.0268882 -0.0109902 0.0677203 0.055976 0.0479941 -0.0456546 -0.0383488 0.0705195 0.0639671 -0.0417371 0.0724993 -0.0470797 -0.0418725 -0.0476695
internal_weight=1747.82 707.947 1039.87 76.4599 68.9884 631.487 121.57 79.3568 970.883 158.511 509.918 118.371 130.493 391.547 812.372 82.7228 729.649
internal_count=5600 1914 3686 220 220 1694 330 216 3466 550 1364 317 454 1047 2916 294 2622
is_linear=0
shrinkage=0.0553438


Tree=17
num_leaves=20
num_cat=0
split_feature=781 781 781 371 468 508 496 781 204 263 540 781 4 49 693 220 648 715 507
split_gain=1319.54 31.8959 31.2075 9.73398 5.9734 6.5588 7.59591 5.87815 7.48127 4.04504 2.01591 3.17587 4.2242 1.6374 1.40443 1.11587 2.1243 1.16015 0.950052
threshold=0.38452328500000005 0.76163456000000018 0.082515732500000008 0.047847473993897445 0.2352554798126221 -0.055998742580413811 -0.076768234372138963 0.9515212500000001 0.1068038083612919 -0.062539879232645021 -0.053297780454158776 0.016930276000000005 -0.13155244290828702 0.25108805298805242 0.30181069672107702 -0.16730497777462003 0.03051657043397427 -0.21997250616550443 0.22997064888477328
decision_type=2 2 2 2 2 2 2 2 2 2 2 2 2 2 2 2 2 2 2
left_child=2 3 10 -2 5 -4 -7 8 9 -3 11 18 -13 14 -9 16 -12 -17 -1
right_child=1 7 4 -5 -6 6 -8 13 -10 -11 15 12 -14 -15 -16 17 -18 -19 -20
leaf_value=-0.0494969911689929 0.0066860401715877621 0.064652460955613847 -0.0388079375656031 0.041573823812170958 -0.039852976697501416 0.00090705810198729348 -0.023389514379115073 0.062161624227263075 0.037725911634538506 0.051108384290163358 -0.030427217729140525 -0.041438514350867435 -0.024249588192350235 0.057292456033938871 0.071546132096280204 -0.048859906685890193 -0.049131100102945101 -0.040525018937024773 -0.038740850767827274
leaf_weight=117.50080978870392 39.810019344091415 194.60360106825829 35.101470977067947 63.746272653341293 43.48836949467659 72.093295127153397 86.891822874546051 68.601115226745605 55.090131849050522 103.91162160038948 35.763919413089752 159.66967085003853 60.466729134321213 44.226629823446274 175.8131967484951 337.52078312635422 39.026597917079926 60.839443624019623 32.384032398462296
leaf_count=399 111 520 111 175 139 225 273 183 148 278 121 536 203 118 469 1144 132 206 109
internal_value=4.66753e-05 0.0566725 -0.0390296 0.0281647 -0.0213102 -0.0171537 -0.0123708 0.0612687 0.0564794 0.0599391 -0.0440219 -0.0409552 -0.0367185 0.0671345 0.0689138 -0.0464194 -0.0401916 -0.0475878 -0.0471753
internal_weight=1826.55 745.803 1080.75 103.556 237.575 194.087 158.985 642.246 353.605 298.515 843.172 370.021 220.136 288.641 244.414 473.151 74.7905 398.36 149.885
internal_count=5600 2002 3598 286 748 609 498 1716 946 798 2850 1247 739 770 652 1603 253 1350 508
is_linear=0
shrinkage=0.0553438


Tree=18
num_leaves=19
num_cat=0
split_feature=780 780 780 188 371 417 780 164 780 467 460 580 353 114 450 121 139 29
split_gain=1016.6 47.9208 38.0082 14.0451 10.5348 9.95155 9.67154 7.79869 4.90178 4.73177 4.65414 4.12688 3.66419 2.88435 1.97298 1.1867 0.977327 0.11219
threshold=0.36495717500000008 0.82016250000000002 0.11095328200000001 -0.1147700287401676 0.016946949064731601 -0.085167594254016862 0.042315957500000008 -0.0090142074041068537 0.96614887500000013 0.031972521916031844 0.081795535981655135 0.093961291015148177 -0.10013798624277113 0.18076937645673755 -0.22417300939559934 0.29227562248706823 0.10775407403707506 -0.24101375043392179
decision_type=2 2 2 2 2 2 2 2 2 2 2 2 2 2 2 2 2 2
left_child=2 3 6 5 -4 -2 14 -6 10 -9 -3 12 -8 -12 -1 -16 17 -10
right_child=1 8 4 -5 7 -7 11 9 16 -11 13 -13 -14 -15 15 -17 -18 -19
leaf_value=-0.03293846404145221 0.021861624322930363 0.040933585467959464 0.0075867558202287215 0.0015251226250567284 0.0022455687084715513 0.054586334551936393 -0.021049838142171377 -0.035751552464772414 0.067947999272060675 -0.013253308931729643 0.06154421610538157 -0.016998942760611389 -0.03750656181941478 0.046412077971707023 -0.036670066629873252 -0.045606552021789724 0.060550631191423718 0.071848589780825256
leaf_weight=48.403815358877182 62.181176424026489 48.594723731279373 56.107281416654587 49.290235072374344 36.03144246339798 52.548717647790909 51.98754894733429 74.344349265098572 35.566991716623306 46.638005793094635 268.45662912726402 51.352202355861664 205.90684589743614 45.272875815629959 51.174590408802032 439.08556824922562 37.827376544475555 91.395413845777512
leaf_count=174 175 130 172 141 114 146 181 246 95 150 717 175 722 121 187 1609 101 244
internal_value=0.000133814 0.0523661 -0.033889 0.0262382 -0.012994 0.0368532 -0.0391407 -0.0203498 0.0604956 -0.027081 0.0568911 -0.0313365 -0.0341903 0.0593617 -0.0436204 -0.0446744 0.0684183 0.0707592
internal_weight=1752.17 691.134 1061.03 164.02 213.121 114.73 847.911 157.014 527.114 120.982 362.324 309.247 257.894 313.73 538.664 490.26 164.79 126.962
internal_count=5600 1870 3730 462 682 321 3048 510 1408 396 968 1078 903 838 1970 1796 440 339
is_linear=0
shrinkage=0.0553438


Tree=19
num_leaves=22
num_cat=0
split_feature=775 780 781 781 780 780 781 781 282 262 781 780 780 528 586 360 459 218 322 99 724
split_gain=552.992 227.571 132.927 114.064 365.1 27.6512 14.5959 6.84009 6.00857 5.25128 5.09386 9.58734 3.0416 2.65766 2.30907 1.33096 1.15177 1.04944 1.02292 0.851705 0.440257
threshold=0.20078578591346743 0.19094640000000004 0.21624007000000003 0.13451734500000004 0.5077710700000001 0.80802280000000015 0.15208441000000003 0.033247185000000005 -0.0040325638838112346 0.47344425320625311 0.5278376050000001 0.53188950000000013 0.87439480500000011 0.27417927980422979 -0.079273961484432207 0.35669866204261785 0.018893983215093616 0.0021670447895303373 0.079058781266212477 0.15188919007778171 0.25911052525043493
decision_type=2 2 2 2 2 2 2 2 2 2 2 2 2 2 2 2 2 2 2 2 2
left_child=3 2 7 4 9 6 -3 15 -9 14 11 -5 -6 18 -1 -2 -13 20 -7 -14 -12
right_child=1 5 -4 10 12 13 -8 8 -10 -11 17 16 19 -15 -16 -17 -18 -19 -20 -21 -22
leaf_value=0.071693952846966683 0.069554721875678682 0.030759097293304203 -0.033589658781062098 -0.003478473179801054 -0.026616347898854652 -0.034901986948173085 -0.017509988040085748 0.071387290178335019 0.04465735817677606 0.043417221580647751 -0.046994267289445321 -0.048726283062393294 -0.047104778501380472 -0.022806204686002189 0.05532737484008813 0.061804238879962663 -0.034201924419366835 -0.037699019193669775 -0.048704488138866658 -0.03923099760120477 -0.040603368762622466
leaf_weight=82.024863809347153 271.27532759308815 38.939377695322037 47.112841099500656 26.887273043394089 29.41498652100563 27.34697613120079 37.818122655153275 36.573248326778412 87.589733511209488 40.791325598955154 381.04369810223579 39.076865315437317 200.5456690788269 27.083258718252182 39.277564167976379 91.78984197974205 29.579462677240372 47.317508012056351 42.07342317700386 53.927080273628235 36.935603231191635
leaf_count=220 724 113 161 84 99 98 123 98 235 110 1430 142 745 96 106 245 106 176 153 198 138
internal_value=-0.000189918 0.0373029 0.055175 -0.0265404 -0.0056503 -0.0178136 0.00697444 0.0637588 0.0525342 0.0606169 -0.0431518 -0.0315026 -0.0434884 -0.0375316 0.0663978 0.0675964 -0.0424736 -0.0455431 -0.0432721 -0.0454375 -0.0464303
internal_weight=1714.42 707.602 534.341 1006.82 445.981 173.261 76.7575 487.228 124.163 162.094 560.84 95.5436 283.888 96.5037 121.302 363.065 68.6563 465.297 69.4204 254.473 417.979
internal_count=5600 2046 1463 3554 1478 583 236 1302 333 436 2076 332 1042 347 326 969 248 1744 251 943 1568
is_linear=0
shrinkage=0.0553438


Tree=20
num_leaves=21
num_cat=0
split_feature=781 781 781 514 545 728 679 777 225 517 252 450 290 540 780 440 61 728 172 646
split_gain=1178.39 30.1426 28.6322 8.7147 6.96782 7.43258 6.35396 5.48203 7.37361 3.17241 2.97177 2.3559 2.09084 2.00651 4.58796 4.37039 2.18234 1.35999 1.9967 0.933795
threshold=0.38452328500000005 0.082515732500000008 0.76163456000000018 -0.12640331685543058 -0.17996303737163541 -0.0069520636461675158 0.18923506140708926 0.083679933100938811 0.18612059205770495 -0.014138240367174147 -0.073661472648382173 -0.10283104702830313 -0.30806428194046015 -0.053297780454158776 0.92709344500000002 0.12315161898732187 -0.44065634906291956 0.076009042561054244 -0.058990420773625367 0.10317393764853479
decision_type=2 2 2 2 2 2 2 2 2 2 2 2 2 2 2 2 2 2 2 2
left_child=1 13 3 -2 -3 11 -7 8 10 12 -4 -6 -9 14 16 -16 -1 19 -19 -15
right_child=2 4 7 -5 5 6 -8 9 -10 -11 -12 -13 -14 17 15 -17 -18 18 -20 -21
leaf_value=-0.033955066248461313 0.012611699557280117 0.0032066284199098582 0.065589925323386117 0.045005077653608047 -0.04979440647710362 -0.034832685360865638 -0.0084993016760690245 0.054005730836318711 0.025859097650291287 0.046327203879972877 0.044662763230704297 -0.029182081547194115 0.063241806265473544 -0.039726109971641319 -0.038175884491464911 -0.011202964068508816 -0.045655534636477389 -0.028060307007465739 -0.044292739658166734 -0.048327820348965107
leaf_weight=63.303111761808395 60.146606773138046 33.186876595020294 44.933067858219147 44.115518450737 32.501014769077301 40.361551374197006 92.230710178613663 94.215925067663193 35.798760205507278 47.132128894329071 38.936202824115753 35.79276317358017 380.54762297868729 45.258372455835342 47.925202161073685 29.914094239473343 216.9290423989296 30.678923964500427 96.782005697488785 283.31789883971214
leaf_count=221 166 104 120 120 107 129 293 252 96 126 104 115 1018 159 167 103 756 107 341 996
internal_value=5.06764e-05 -0.0377849 0.0532249 0.026321 -0.0202799 -0.0241611 -0.0165175 0.0575966 0.0469013 0.0600483 0.055879 -0.0389964 0.0614097 -0.0428175 -0.0397103 -0.0278137 -0.0430136 -0.0452566 -0.0403882 -0.047144
internal_weight=1794.01 1048.18 745.826 104.262 234.073 200.886 132.592 641.564 119.668 521.896 83.8693 68.2938 474.764 814.109 358.071 77.8393 280.232 456.037 127.461 328.576
internal_count=5600 3598 2002 286 748 644 422 1716 320 1396 224 222 1270 2850 1247 270 977 1603 448 1155
is_linear=0
shrinkage=0.0553438


Tree=21
num_leaves=21
num_cat=0
split_feature=780 780 780 190 780 780 47 136 708 662 620 14 353 542 637 303 311 288 114 529
split_gain=906.755 43.2175 36.5592 11.0216 9.66657 9.53638 9.27438 8.46867 7.97461 6.55758 6.10881 5.62052 4.0975 6.91108 4.80459 3.89782 3.58346 1.73992 1.71253 1.26903
threshold=0.36495717500000008 0.66226615000000011 0.11095328200000001 -0.093100719153881059 0.042315957500000008 0.90153040000000007 -0.15970511734485623 0.068829327821731581 -0.19579505175352094 -0.075330022722482667 -0.022375221364200112 0.20978336036205295 -0.068966478109359727 0.032768951728940017 -0.028182754293084141 -0.13238012790679929 -0.11962587013840674 0.056638896465301521 0.17598408460617068 -0.11099085211753844
decision_type=2 2 2 2 2 2 2 2 2 2 2 2 2 2 2 2 2 2 2 2
left_child=2 8 4 7 17 10 -5 9 -2 -4 11 -3 13 -6 -14 16 -7 19 -17 -1
right_child=1 5 3 6 12 15 -8 -9 -10 -11 -12 -13 14 -15 -16 18 -18 -19 -20 -21
leaf_value=-0.044241285208469552 -0.0059820916223382757 0.020778164740252705 0.0033954100566373976 0.020474637057158056 -0.038549662143552529 0.039747646379266623 -0.015370764722567293 -0.04617156683554955 0.027288158261963295 -0.027119513282287799 0.057718261550096808 0.045908640344233954 -0.012607174550634594 -0.0072647486508515312 -0.037533697088872615 0.06439968236742083 0.059209926867613727 -0.029597431652863632 0.052856488005975699 -0.033879685984231835
leaf_weight=448.59240838885307 37.037476867437363 43.816456884145737 38.274214744567871 44.617184162139893 36.839258879423141 51.598333209753036 43.81399205327034 34.492818623781204 54.551909774541855 49.385768085718155 64.204639464616776 72.349642992019653 27.215066611766815 52.431219041347504 184.25860965251923 253.4535610973835 66.500989943742752 29.811801195144653 47.014395445585251 39.652543693780899
leaf_count=1709 110 118 122 139 132 138 143 116 154 162 172 194 97 185 664 680 178 111 126 150
internal_value=0.000178108 0.0492417 -0.0327344 -0.0121663 -0.0380238 0.0546561 0.00271228 -0.0229392 0.0138319 -0.0137938 0.0440113 0.0364324 -0.0301283 -0.0201784 -0.0343271 0.0592423 0.0507098 -0.0426067 0.0625948 -0.0434004
internal_weight=1719.91 690.527 1029.38 210.584 818.801 598.938 88.4312 122.153 91.5894 87.66 180.371 116.166 300.744 89.2705 211.474 418.567 118.099 518.057 300.468 488.245
internal_count=5600 1870 3730 682 3048 1606 282 400 264 284 484 312 1078 317 761 1122 316 1970 806 1859
is_linear=0
shrinkage=0.0553438


Tree=22
num_leaves=23
num_cat=0
split_feature=775 780 781 781 780 780 781 552 781 271 29 781 780 225 780 180 298 404 280 459 64 321
split_gain=498.489 200.756 133.717 106.519 328.604 15.0491 12.6028 9.3309 5.7167 6.31225 5.01286 4.95119 9.11682 4.8304 3.0027 2.22204 1.72357 1.22687 1.21878 1.15477 1.08367 0.631585
threshold=0.20078578591346743 0.33064079500000004 0.16616120500000003 0.13451734500000004 0.5077710700000001 0.89301720000000018 0.77592820000000007 0.13057829439640048 0.029554977000000003 0.1585580259561539 -0.17856224626302716 0.5278376050000001 0.53188950000000013 0.16943974047899249 0.87439480500000011 0.29945728182792669 0.11711833626031877 0.098257288336753859 0.1461296156048775 0.018893983215093616 -0.049419945105910294 -0.0097892456687986833
decision_type=2 2 2 2 2 2 2 2 2 2 2 2 2 2 2 2 2 2 2 2 2 2
left_child=3 2 8 4 10 7 -4 -3 17 -10 13 12 -5 -1 -6 -7 -16 -2 -12 -14 -13 -22
right_child=1 5 6 11 14 15 -8 -9 9 -11 18 20 19 -15 16 -17 -18 -19 -20 -21 21 -23
leaf_value=0.059886932051933697 0.055442086585751629 -0.024044314320065055 0.0015141127089447054 -0.0033679260098772742 -0.025609733342391965 -0.04675438355985409 -0.046779199969000443 0.018600729526879536 0.058503873498801776 0.033714730749124282 0.060162554805721517 -0.035588882282024878 -0.04798938639719532 0.03367097407671242 -0.03402484874702482 -0.027506939514166499 -0.046580707275801193 0.065392481157787868 0.074279561864638521 -0.03323173033169801 -0.037311274579211177 -0.046067572493053842
leaf_weight=46.600821942090988 44.022553443908691 32.297196269035339 31.857232064008713 26.798252612352371 28.849464505910873 49.501055389642715 34.426431804895401 30.601059764623642 106.6841287612915 44.719043105840683 37.695365250110626 37.278213188052177 37.759499907493591 40.145154684782028 40.286246582865715 29.361100703477859 204.15819422900677 298.20275437831879 38.091063171625137 28.826799765229225 27.403405010700226 382.21825221180916
leaf_count=125 118 105 96 84 99 187 127 98 286 120 101 144 142 108 153 109 790 800 102 106 106 1494
internal_value=-0.000237761 0.0353425 0.050238 -0.0258147 -0.00545822 -0.0234887 -0.0235661 -0.00329334 0.0601488 0.0511843 0.0568558 -0.0422349 -0.0306354 0.0477585 -0.0425184 -0.0395925 -0.0445127 0.0641136 0.0672634 -0.0416055 -0.044658 -0.0454826
internal_weight=1677.78 701.673 559.912 976.111 435.826 141.76 66.2837 62.8983 493.628 151.403 162.532 540.284 93.3846 86.746 273.294 78.8622 244.444 342.225 75.7864 66.5863 446.9 409.622
internal_count=5600 2046 1547 3554 1478 499 223 203 1324 406 436 2076 332 233 1042 296 943 918 203 248 1744 1600
is_linear=0
shrinkage=0.0553438


Tree=23
num_leaves=22
num_cat=0
split_feature=782 776 775 772 772 642 17 782 398 625 293 782 252 114 414 516 24 738 487 340 127
split_gain=401.964 218.477 97.7749 47.7434 27.463 21.9082 13.9023 11.7535 9.95708 9.69129 7.82101 7.19511 7.17359 5.76227 5.46836 4.54905 2.06564 3.08151 1.53581 1.41709 0.644022
threshold=0.24265425500000001 0.48739832639694219 0.23302996158599856 182.50000000000003 190.50000000000003 0.20743431150913241 0.048953969031572349 0.028182557000000004 0.029118336737155918 -0.063766848295927034 0.19745835661888125 0.7489867750000001 -0.020543581806123253 0.11331744119524957 0.12298381701111795 0.094379261136055007 0.14218772947788241 -0.12306481599807738 0.059875993058085449 0.24172187596559527 0.040373988449573524
decision_type=2 2 2 2 2 2 2 2 2 2 2 2 2 2 2 2 2 2 2 2 2
left_child=1 2 7 6 -4 8 10 15 -5 -7 -3 13 -8 -2 -6 -1 19 -18 -19 20 -13
right_child=11 3 4 5 14 9 12 -9 -10 -11 -12 16 -14 -15 -16 -17 17 18 -20 -21 -22
leaf_value=0.058591036846684881 -0.038388184410634497 -0.017104473669252829 0.032419364508232212 -0.018280676007632411 -0.033302528636388523 -0.015628290249643517 0.051057310781194701 0.020966693105664288 -0.042465464627073103 0.021946076732975973 0.020641388285568038 -0.04057593180951876 0.017223870360662939 -0.011044867926427884 -0.0056378973469048133 0.047632045425456584 -0.021293231518004128 -0.031329120642974148 -0.045586961713522535 -0.032240470500294931 -0.047012157332434384
leaf_weight=255.26384925842285 49.34729278087616 33.424019694328308 46.731235563755035 269.29085743427277 45.871219426393509 33.648665308952332 43.788127839565277 36.463158041238785 64.689799159765244 56.015231132507324 33.824937403202057 61.091470777988434 34.226462751626968 45.314404129981995 41.89568567276001 213.57202780246735 31.829841554164886 34.467109173536301 71.461310178041458 26.444353848695755 229.60294339060783
leaf_count=691 163 101 133 908 160 108 122 103 226 173 98 222 98 145 138 583 114 124 260 95 835
internal_value=5.25284e-05 0.0178956 0.0400833 -0.00705642 -0.00185019 -0.0164449 0.0203222 0.0512453 -0.0229661 0.0078428 0.00187773 -0.0391913 0.036218 -0.0253021 -0.0200999 0.0535996 -0.0420809 -0.036411 -0.0409508 -0.0445427 -0.0456607
internal_weight=1758.26 1208.71 639.797 568.908 134.498 423.645 145.264 505.299 333.981 89.6639 67.249 549.559 78.0146 94.6617 87.7669 468.836 454.897 137.758 105.928 317.139 290.694
internal_count=5600 3642 1808 1834 431 1415 419 1377 1134 281 199 1958 220 308 298 1274 1650 498 384 1152 1057
is_linear=0
shrinkage=0.0553438


Tree=24
num_leaves=27
num_cat=0
split_feature=772 708 708 772 666 773 770 551 772 758 769 770 669 328 772 178 225 437 723 772 544 589 398 655 113 6
split_gain=282.603 47.7054 36.483 22.2527 22.2534 19.7146 15.6011 14.2967 10.4413 11.3561 11.0743 10.0791 8.62962 8.07883 8.07254 7.83883 7.68108 6.59862 5.5955 4.81832 4.53954 4.35585 3.95994 3.4189 3.37417 1.74093
threshold=188.50000000000003 -0.14030417799949643 -0.14672791212797162 226.50000000000003 -0.1643101945519447 35.500000000000007 88.500000000000014 -0.34368008375167841 207.50000000000003 -0.16707653552293775 170.50000000000003 183.50000000000003 0.34121471643447882 -0.37007266283035273 161.50000000000003 -0.041149437427520745 0.21700853109359744 -0.28937195241451258 -0.0067998098675161591 209.50000000000003 -0.12678833305835721 0.22882211208343509 -0.12970983237028119 -0.24406267702579496 -0.077122014015912996 -0.17226558178663251
decision_type=2 2 2 2 2 2 2 2 2 2 2 2 2 2 2 2 2 2 2 2 2 2 2 2 2 2
left_child=2 3 14 4 13 17 19 -7 10 -10 -8 -6 -5 -2 23 -9 21 -4 -14 20 -3 -16 -19 -1 -25 -21
right_child=1 6 5 12 11 7 8 15 9 -11 -12 -13 18 -15 16 -17 -18 22 -20 25 -22 -23 -24 24 -26 -27
