tree
version=v4
num_class=3
num_tree_per_iteration=3
label_index=0
max_feature_idx=782
objective=multiclass num_class:3
feature_names=Column_0 Column_1 Column_2 Column_3 Column_4 Column_5 Column_6 Column_7 Column_8 Column_9 Column_10 Column_11 Column_12 Column_13 Column_14 Column_15 Column_16 Column_17 Column_18 Column_19 Column_20 Column_21 Column_22 Column_23 Column_24 Column_25 Column_26 Column_27 Column_28 Column_29 Column_30 Column_31 Column_32 Column_33 Column_34 Column_35 Column_36 Column_37 Column_38 Column_39 Column_40 Column_41 Column_42 Column_43 Column_44 Column_45 Column_46 Column_47 Column_48 Column_49 Column_50 Column_51 Column_52 Column_53 Column_54 Column_55 Column_56 Column_57 Column_58 Column_59 Column_60 Column_61 Column_62 Column_63 Column_64 Column_65 Column_66 Column_67 Column_68 Column_69 Column_70 Column_71 Column_72 Column_73 Column_74 Column_75 Column_76 Column_77 Column_78 Column_79 Column_80 Column_81 Column_82 Column_83 Column_84 Column_85 Column_86 Column_87 Column_88 Column_89 Column_90 Column_91 Column_92 Column_93 Column_94 Column_95 Column_96 Column_97 Column_98 Column_99 Column_100 Column_101 Column_102 Column_103 Column_104 Column_105 Column_106 Column_107 Column_108 Column_109 Column_110 Column_111 Column_112 Column_113 Column_114 Column_115 Column_116 Column_117 Column_118 Column_119 Column_120 Column_121 Column_122 Column_123 Column_124 Column_125 Column_126 Column_127 Column_128 Column_129 Column_130 Column_131 Column_132 Column_133 Column_134 Column_135 Column_136 Column_137 Column_138 Column_139 Column_140 Column_141 Column_142 Column_143 Column_144 Column_145 Column_146 Column_147 Column_148 Column_149 Column_150 Column_151 Column_152 Column_153 Column_154 Column_155 Column_156 Column_157 Column_158 Column_159 Column_160 Column_161 Column_162 Column_163 Column_164 Column_165 Column_166 Column_167 Column_168 Column_169 Column_170 Column_171 Column_172 Column_173 Column_174 Column_175 Column_176 Column_177 Column_178 Column_179 Column_180 Column_181 Column_182 Column_183 Column_184 Column_185 Column_186 Column_187 Column_188 Column_189 Column_190 Column_191 Column_192 Column_193 Column_194 Column_195 Column_196 Column_197 Column_198 Column_199 Column_200 Column_201 Column_202 Column_203 Column_204 Column_205 Column_206 Column_207 Column_208 Column_209 Column_210 Column_211 Column_212 Column_213 Column_214 Column_215 Column_216 Column_217 Column_218 Column_219 Column_220 Column_221 Column_222 Column_223 Column_224 Column_225 Column_226 Column_227 Column_228 Column_229 Column_230 Column_231 Column_232 Column_233 Column_234 Column_235 Column_236 Column_237 Column_238 Column_239 Column_240 Column_241 Column_242 Column_243 Column_244 Column_245 Column_246 Column_247 Column_248 Column_249 Column_250 Column_251 Column_252 Column_253 Column_254 Column_255 Column_256 Column_257 Column_258 Column_259 Column_260 Column_261 Column_262 Column_263 Column_264 Column_265 Column_266 Column_267 Column_268 Column_269 Column_270 Column_271 Column_272 Column_273 Column_274 Column_275 Column_276 Column_277 Column_278 Column_279 Column_280 Column_281 Column_282 Column_283 Column_284 Column_285 Column_286 Column_287 Column_288 Column_289 Column_290 Column_291 Column_292 Column_293 Column_294 Column_295 Column_296 Column_297 Column_298 Column_299 Column_300 Column_301 Column_302 Column_303 Column_304 Column_305 Column_306 Column_307 Column_308 Column_309 Column_310 Column_311 Column_312 Column_313 Column_314 Column_315 Column_316 Column_317 Column_318 Column_319 Column_320 Column_321 Column_322 Column_323 Column_324 Column_325 Column_326 Column_327 Column_328 Column_329 Column_330 Column_331 Column_332 Column_333 Column_334 Column_335 Column_336 Column_337 Column_338 Column_339 Column_340 Column_341 Column_342 Column_343 Column_344 Column_345 Column_346 Column_347 Column_348 Column_349 Column_350 Column_351 Column_352 Column_353 Column_354 Column_355 Column_356 Column_357 Column_358 Column_359 Column_360 Column_361 Column_362 Column_363 Column_364 Column_365 Column_366 Column_367 Column_368 Column_369 Column_370 Column_371 Column_372 Column_373 Column_374 Column_375 Column_376 Column_377 Column_378 Column_379 Column_380 Column_381 Column_382 Column_383 Column_384 Column_385 Column_386 Column_387 Column_388 Column_389 Column_390 Column_391 Column_392 Column_393 Column_394 Column_395 Column_396 Column_397 Column_398 Column_399 Column_400 Column_401 Column_402 Column_403 Column_404 Column_405 Column_406 Column_407 Column_408 Column_409 Column_410 Column_411 Column_412 Column_413 Column_414 Column_415 Column_416 Column_417 Column_418 Column_419 Column_420 Column_421 Column_422 Column_423 Column_424 Column_425 Column_426 Column_427 Column_428 Column_429 Column_430 Column_431 Column_432 Column_433 Column_434 Column_435 Column_436 Column_437 Column_438 Column_439 Column_440 Column_441 Column_442 Column_443 Column_444 Column_445 Column_446 Column_447 Column_448 Column_449 Column_450 Column_451 Column_452 Column_453 Column_454 Column_455 Column_456 Column_457 Column_458 Column_459 Column_460 Column_461 Column_462 Column_463 Column_464 Column_465 Column_466 Column_467 Column_468 Column_469 Column_470 Column_471 Column_472 Column_473 Column_474 Column_475 Column_476 Column_477 Column_478 Column_479 Column_480 Column_481 Column_482 Column_483 Column_484 Column_485 Column_486 Column_487 Column_488 Column_489 Column_490 Column_491 Column_492 Column_493 Column_494 Column_495 Column_496 Column_497 Column_498 Column_499 Column_500 Column_501 Column_502 Column_503 Column_504 Column_505 Column_506 Column_507 Column_508 Column_509 Column_510 Column_511 Column_512 Column_513 Column_514 Column_515 Column_516 Column_517 Column_518 Column_519 Column_520 Column_521 Column_522 Column_523 Column_524 Column_525 Column_526 Column_527 Column_528 Column_529 Column_530 Column_531 Column_532 Column_533 Column_534 Column_535 Column_536 Column_537 Column_538 Column_539 Column_540 Column_541 Column_542 Column_543 Column_544 Column_545 Column_546 Column_547 Column_548 Column_549 Column_550 Column_551 Column_552 Column_553 Column_554 Column_555 Column_556 Column_557 Column_558 Column_559 Column_560 Column_561 Column_562 Column_563 Column_564 Column_565 Column_566 Column_567 Column_568 Column_569 Column_570 Column_571 Column_572 Column_573 Column_574 Column_575 Column_576 Column_577 Column_578 Column_579 Column_580 Column_581 Column_582 Column_583 Column_584 Column_585 Column_586 Column_587 Column_588 Column_589 Column_590 Column_591 Column_592 Column_593 Column_594 Column_595 Column_596 Column_597 Column_598 Column_599 Column_600 Column_601 Column_602 Column_603 Column_604 Column_605 Column_606 Column_607 Column_608 Column_609 Column_610 Column_611 Column_612 Column_613 Column_614 Column_615 Column_616 Column_617 Column_618 Column_619 Column_620 Column_621 Column_622 Column_623 Column_624 Column_625 Column_626 Column_627 Column_628 Column_629 Column_630 Column_631 Column_632 Column_633 Column_634 Column_635 Column_636 Column_637 Column_638 Column_639 Column_640 Column_641 Column_642 Column_643 Column_644 Column_645 Column_646 Column_647 Column_648 Column_649 Column_650 Column_651 Column_652 Column_653 Column_654 Column_655 Column_656 Column_657 Column_658 Column_659 Column_660 Column_661 Column_662 Column_663 Column_664 Column_665 Column_666 Column_667 Column_668 Column_669 Column_670 Column_671 Column_672 Column_673 Column_674 Column_675 Column_676 Column_677 Column_678 Column_679 Column_680 Column_681 Column_682 Column_683 Column_684 Column_685 Column_686 Column_687 Column_688 Column_689 Column_690 Column_691 Column_692 Column_693 Column_694 Column_695 Column_696 Column_697 Column_698 Column_699 Column_700 Column_701 Column_702 Column_703 Column_704 Column_705 Column_706 Column_707 Column_708 Column_709 Column_710 Column_711 Column_712 Column_713 Column_714 Column_715 Column_716 Column_717 Column_718 Column_719 Column_720 Column_721 Column_722 Column_723 Column_724 Column_725 Column_726 Column_727 Column_728 Column_729 Column_730 Column_731 Column_732 Column_733 Column_734 Column_735 Column_736 Column_737 Column_738 Column_739 Column_740 Column_741 Column_742 Column_743 Column_744 Column_745 Column_746 Column_747 Column_748 Column_749 Column_750 Column_751 Column_752 Column_753 Column_754 Column_755 Column_756 Column_757 Column_758 Column_759 Column_760 Column_761 Column_762 Column_763 Column_764 Column_765 Column_766 Column_767 Column_768 Column_769 Column_770 Column_771 Column_772 Column_773 Column_774 Column_775 Column_776 Column_777 Column_778 Column_779 Column_780 Column_781 Column_782
feature_infos=[-0.45089578628540039:0.32443273067474365] [-0.20735260844230652:0.87005126476287842] [-0.51949876546859741:0.069982320070266724] [-0.55789053440093994:0.42162102460861206] [-0.48568969964981079:0.129022017121315] [-0.30537539720535278:0.53669518232345581] [-0.74408990144729614:0.35275083780288696] [-0.5923159122467041:0.19868692755699158] [-0.2674371600151062:0.37109282612800598] [-0.1817193329334259:0.41294401884078979] [-0.58480304479598999:0.24583990871906281] [-0.31172400712966919:0.62022638320922852] [-0.16093012690544128:0.41639363765716553] [-0.25012144446372986:0.35804480314254761] [-0.43157488107681274:0.58956634998321533] [-0.4486815333366394:0.32955467700958252] [-0.36011666059494019:0.42186728119850159] [-0.40423896908760071:0.44513165950775146] [-0.49527272582054138:0.4291151762008667] [-0.16906507313251495:0.39491769671440125] [-0.31537336111068726:0.41699361801147461] [-0.37463408708572388:0.38004603981971741] [-0.2639811635017395:0.60599207878112793] [-0.17512983083724976:0.68039947748184204] [-0.47615623474121094:0.65610122680664062] [-0.49331533908843994:0.18399302661418915] [-0.41175371408462524:0.46856200695037842] [-0.32427853345870972:0.40961435437202454] [-0.57572329044342041:0.256988525390625] [-0.55126500129699707:0.11769683659076691] [-0.14065957069396973:0.47281020879745483] [-0.21696722507476807:0.56480073928833008] [-0.39652389287948608:0.23056519031524658] [-0.30078607797622681:0.55466550588607788] [-0.068294741213321686:0.76013946533203125] [-0.10874728858470917:0.72651243209838867] [-0.093580335378646851:0.70082783699035645] [-0.29971924424171448:0.3069814145565033] [-0.34479761123657227:0.39157819747924805] [-0.29076099395751953:0.72744941711425781] [-0.35550487041473389:0.41732481122016907] [0.030661553144454956:0.70184421539306641] [-0.57778728008270264:0.23638671636581421] [-0.33120280504226685:0.66967499256134033] [-0.08697771281003952:0.69026660919189453] [-0.42893743515014648:0.31143283843994141] [-0.26825422048568726:0.65801548957824707] [-0.50200754404067993:0.20542797446250916] [-0.25485101342201233:0.47421735525131226] [-0.20619502663612366:0.54872810840606689] [-0.36787489056587219:0.41984406113624573] [-0.31099504232406616:0.19573472440242767] [-0.6238136887550354:0.2671760618686676] [-0.33018025755882263:0.71683919429779053] [-0.1324179470539093:0.79724669456481934] [-0.41367504000663757:0.42760324478149414] [-0.52395319938659668:0.32373714447021484] [-0.50571310520172119:0.21153709292411804] [-0.41505098342895508:0.52186805009841919] [-0.34177693724632263:0.23901578783988953] [-0.28575396537780762:0.45370015501976013] [-0.74260127544403076:0.088994607329368591] [-0.24318864941596985:0.44089031219482422] [-0.16035410761833191:0.51875591278076172] [-0.25772061944007874:0.38535061478614807] [-0.68256664276123047:0.25320839881896973] [-0.47289949655532837:0.38685423135757446] [-0.11591833829879761:0.59320026636123657] [-0.24003440141677856:0.38275629281997681] [-0.59137988090515137:0.24277618527412415] [-0.35622400045394897:0.34769958257675171] [-0.4881233274936676:0.81028556823730469] [-0.28517797589302063:0.68886899948120117] [-0.19278782606124878:0.71833539009094238] [-0.40086480975151062:0.18978011608123779] [-0.14851132035255432:0.6683121919631958] [-0.43905669450759888:0.20831573009490967] [-0.19424743950366974:0.50036251544952393] [-0.49257713556289673:0.33500465750694275] [-0.42636516690254211:0.2338099479675293] [-0.27197259664535522:0.44821262359619141] [-0.38747283816337585:0.52575421333312988] [-0.031660482287406921:0.60314226150512695] [-0.16487486660480499:0.5296090841293335] [-0.59708809852600098:0.13703390955924988] [-0.069205492734909058:0.60950130224227905] [-0.72030389308929443:0.13814571499824524] [-0.27408325672149658:0.35590425133705139] [-0.30078205466270447:0.25874033570289612] [-0.22375586628913879:0.40066182613372803] [-0.18771880865097046:0.34980675578117371] [-0.54542779922485352:0.57026982307434082] [-0.48464381694793701:0.44992566108703613] [-0.10021047294139862:0.81861472129821777] [-0.65574145317077637:-0.007748996838927269] [-0.35287117958068848:0.47335708141326904] [-0.12610679864883423:0.73365950584411621] [-0.53640592098236084:0.24942821264266968] [-0.41376912593841553:0.84588468074798584] [-0.26449614763259888:0.45739984512329102] [-0.25731068849563599:0.48508232831954956] [-0.55327928066253662:0.36287069320678711] [-0.47222176194190979:0.41452512145042419] [-0.32939544320106506:0.10578241944313049] [-0.42969793081283569:0.23291707038879395] [-0.74218684434890747:0.41254347562789917] [-0.27650761604309082:0.29760774970054626] [-0.57244580984115601:0.21097186207771301] [-0.47292381525039673:0.16633185744285583] [-0.24318146705627441:0.38765439391136169] [0.027428321540355682:0.73569977283477783] [-0.27287343144416809:0.41278350353240967] [-0.53378552198410034:0.39497086405754089] [-0.28317922353744507:0.3308844268321991] [-0.23127801716327667:0.50723540782928467] [-0.27439501881599426:0.43849736452102661] [-0.48388049006462097:0.37835037708282471] [-0.25416016578674316:0.38651248812675476] [-0.36168402433395386:0.2962871789932251] [-0.18862169981002808:0.3307669460773468] [-0.11354312300682068:0.56295788288116455] [-0.0047637633979320526:0.92753219604492188] [-0.52155178785324097:0.38841277360916138] [-0.49326306581497192:0.16984409093856812] [-0.39562496542930603:0.45018818974494934] [-0.21736009418964386:0.55279362201690674] [-0.43231081962585449:0.30443257093429565] [-0.23374637961387634:0.41660940647125244] [-0.65125298500061035:0.16500797867774963] [-0.54913794994354248:0.38293904066085815] [-0.31507790088653564:0.59534001350402832] [-0.54171836376190186:0.24137954413890839] [-0.35426312685012817:0.53146690130233765] [-0.40293499827384949:0.39704287052154541] [-0.32150262594223022:0.54655814170837402] [-0.22121122479438782:0.59239339828491211] [-0.26228940486907959:0.37703430652618408] [-0.3148019015789032:0.37695804238319397] [-0.46669822931289673:0.1596638411283493] [-0.31637787818908691:0.46410149335861206] [-0.54872989654541016:0.32790136337280273] [-0.3613666296005249:0.72323298454284668] [-0.26764219999313354:0.45023095607757568] [-0.46212801337242126:0.66478043794631958] [-0.51152223348617554:0.52927470207214355] [-0.20742231607437134:0.47654935717582703] [-0.19832822680473328:0.72238081693649292] [-0.46475473046302795:0.18494971096515656] [-0.34723937511444092:0.32375922799110413] [-0.50887775421142578:0.59400224685668945] [-0.32817724347114563:0.45826607942581177] [-0.37445229291915894:0.38095176219940186] [-0.3404616117477417:0.3247031569480896] [-0.29658013582229614:0.33770269155502319] [-0.6616901159286499:0.38072288036346436] [-0.25760841369628906:0.44187158346176147] [-0.46770238876342773:0.43862605094909668] [-0.15404380857944489:0.44460639357566833] [-0.23961986601352692:0.40386009216308594] [-0.49509981274604797:0.55126762390136719] [-0.52042597532272339:0.18654017150402069] [-0.25006818771362305:0.42315575480461121] [-0.11317364871501923:0.63993430137634277] [-0.17737491428852081:0.46102294325828552] [-0.26514190435409546:0.45033043622970581] [-0.4985632598400116:0.35143274068832397] [-0.36792698502540588:0.44434508681297302] [-0.42219680547714233:0.28150609135627747] [-0.55809396505355835:0.22171467542648315] [-0.12556402385234833:0.69289207458496094] [-0.62669086456298828:0.26354110240936279] [-0.23884427547454834:0.59337210655212402] [-0.40087056159973145:0.3305148184299469] [-0.23714223504066467:0.37166395783424377] [-0.63852238655090332:1.0012996196746826] [-0.10849976539611816:0.3175007700920105] [-0.36302685737609863:0.54879432916641235] [-0.36476463079452515:0.33166742324829102] [-0.30853378772735596:0.47175535559654236] [-0.43571740388870239:0.27722638845443726] [-0.17887362837791443:0.65181291103363037] [-0.054906159639358521:0.55816227197647095] [-0.2695370614528656:0.59741604328155518] [-0.34569686651229858:0.38504168391227722] [-0.55941081047058105:0.26636666059494019] [-0.30458730459213257:0.40653011202812195] [-0.5884469747543335:0.28369855880737305] [-0.37534493207931519:0.21800117194652557] [-0.5955665111541748:0.2558935284614563] [-0.45091539621353149:0.75025534629821777] [-0.38160160183906555:0.19143509864807129] [-0.37391293048858643:0.64971655607223511] [-0.47477823495864868:0.455849289894104] [-0.38334131240844727:0.32024449110031128] [-0.27546495199203491:0.58711957931518555] [-0.6497044563293457:-0.058835051953792572] [-0.51499354839324951:0.65288090705871582] [-0.32817208766937256:0.33810737729072571] [-0.40903687477111816:0.44551873207092285] [-0.49757593870162964:0.36909836530685425] [-0.44797271490097046:0.43318390846252441] [-0.47232711315155029:0.30178302526473999] [-0.11912093311548233:0.5834040641784668] [-0.48452004790306091:0.29627728462219238] [-0.51574015617370605:0.4042278528213501] [-0.5179673433303833:0.200447678565979] [-0.3021666407585144:0.1894524097442627] [-0.062231376767158508:0.845589280128479] [-0.28013232350349426:0.51920211315155029] [-0.28683102130889893:0.69130539894104004] [-0.37602740526199341:0.68705844879150391] [-0.33568722009658813:0.41091692447662354] [-0.2688678503036499:0.34991699457168579] [-0.51448148488998413:0.41276326775550842] [-0.52081882953643799:0.39107793569564819] [-0.25595563650131226:0.40538337826728821] [-0.32560229301452637:0.56432992219924927] [-0.72069907188415527:0.21284569799900055] [-0.60138547420501709:0.36371263861656189] [-0.41901788115501404:0.23586373031139374] [-0.38160517811775208:0.20204572379589081] [-0.44899681210517883:0.47097700834274292] [-0.75994193553924561:0.57406103610992432] [0.10086969286203384:0.91956555843353271] [-0.071241289377212524:0.80907523632049561] [-0.21354109048843384:0.60010623931884766] [-0.20944485068321228:0.5440821647644043] [-0.58729815483093262:0.30910027027130127] [-0.21887168288230896:0.43390959501266479] [-0.17399215698242188:0.35850217938423157] [-0.32907050848007202:0.24935740232467651] [-0.25763899087905884:0.25921681523323059] [-0.1484413743019104:0.41972458362579346] [-0.090705521404743195:0.48831456899642944] [-0.32681208848953247:0.36040067672729492] [-0.16026216745376587:0.43859788775444031] [-0.56374698877334595:0.361095130443573] [-0.21186439692974091:0.38439637422561646] [-0.55633825063705444:0.24228152632713318] [-0.41604682803153992:0.23012971878051758] [-0.31071972846984863:0.36431068181991577] [-0.23234482109546661:0.5564415454864502] [-0.43092882633209229:0.33065223693847656] [-0.23516274988651276:0.30556473135948181] [-0.27785190939903259:0.40826705098152161] [-0.30763590335845947:0.37018135190010071] [-0.4660382866859436:0.25898173451423645] [-0.51386106014251709:0.38848957419395447] [-0.76702821254730225:0.36166077852249146] [-0.32451352477073669:0.36701294779777527] [-0.17007532715797424:0.47684895992279053] [-0.22194458544254303:0.43430289626121521] [-0.44542273879051208:0.43253502249717712] [-0.31592199206352234:0.28249502182006836] [-0.38326334953308105:0.2680191695690155] [-0.45725113153457642:0.25718787312507629] [-0.26571738719940186:0.60989034175872803] [-0.37120205163955688:0.31669315695762634] [-0.66459304094314575:0.21334555745124817] [-0.4854404628276825:0.56591570377349854] [-0.34061405062675476:0.44404810667037964] [-0.40235000848770142:0.28429108858108521] [0.0034436886198818684:0.74556547403335571] [-0.60589414834976196:0.35379785299301147] [-0.51702773571014404:0.27602630853652954] [-0.46695190668106079:0.28739374876022339] [-0.1848006546497345:0.68736708164215088] [-0.57189595699310303:0.22008374333381653] [-0.39081037044525146:0.37455087900161743] [-0.32037988305091858:0.34039047360420227] [-0.1868792325258255:0.77234554290771484] [-0.28639358282089233:0.54663825035095215] [-0.31664261221885681:0.47482895851135254] [-0.34479033946990967:0.35868591070175171] [-0.12741339206695557:0.80219930410385132] [-0.33811876177787781:0.31660020351409912] [-0.31848028302192688:0.54269886016845703] [0.17423099279403687:1.2526029348373413] [-0.35111153125762939:0.38009089231491089] [-0.20555466413497925:0.55801498889923096] [-0.25811606645584106:0.68601107597351074] [-0.26749938726425171:0.2622869610786438] [-0.32230940461158752:0.45650053024291992] [-0.48203554749488831:0.1531682014465332] [-0.15977145731449127:0.5035775899887085] [-0.22216756641864777:0.54306292533874512] [-0.56973874568939209:0.70307648181915283] [-0.43986812233924866:0.40059995651245117] [-0.53656023740768433:0.30116927623748779] [-0.2997404932975769:0.38821980357170105] [-0.61361366510391235:0.14542919397354126] [-0.088710851967334747:0.66762733459472656] [-0.35788372159004211:0.45462828874588013] [-0.19112366437911987:0.71582686901092529] [-0.13883355259895325:0.60349535942077637] [-0.19303107261657715:0.93756210803985596] [-0.25085669755935669:0.34450411796569824] [-0.60968613624572754:0.32137018442153931] [-0.071029312908649445:0.39213591814041138] [-0.41778838634490967:0.5256161093711853] [-0.37988671660423279:0.43267819285392761] [-0.48292887210845947:0.37547627091407776] [-0.4310755729675293:0.40976142883300781] [-0.45632380247116089:0.33787393569946289] [-0.67821425199508667:0.50430846214294434] [-0.39821827411651611:0.64502012729644775] [-0.43356749415397644:0.40770363807678223] [-0.36578422784805298:0.39940112829208374] [-0.48067831993103027:0.59862399101257324] [-0.27187824249267578:0.52348518371582031] [-0.47143888473510742:0.57332146167755127] [-0.61093276739120483:0.2695249617099762] [-0.38440346717834473:0.42461308836936951] [-0.63995343446731567:0.44806116819381714] [-0.61479413509368896:0.0074657043442130089] [-0.21150107681751251:0.48908644914627075] [-0.41919323801994324:0.52871042490005493] [-0.52811408042907715:0.26759201288223267] [-0.52017879486083984:0.34701600670814514] [-0.31425219774246216:0.36770385503768921] [-0.44538742303848267:0.31299459934234619] [-0.2933010458946228:0.40502658486366272] [-0.23612844944000244:0.46181634068489075] [-0.62142097949981689:0.19069212675094604] [-0.28063791990280151:0.55624985694885254] [-0.19107130169868469:0.53990113735198975] [-0.34376746416091919:0.60264110565185547] [-0.3928450345993042:0.4057595431804657] [-0.77282941341400146:0.024242078885436058] [-0.4615204930305481:0.38177335262298584] [-0.31835341453552246:0.38411179184913635] [-0.37486451864242554:0.37036055326461792] [-0.21591828763484955:0.45499143004417419] [-0.33476999402046204:0.34681475162506104] [-0.27118462324142456:0.44836100935935974] [-0.38982942700386047:0.2402663379907608] [-0.11619038879871368:0.63852077722549438] [0.006587945856153965:0.60981786251068115] [-0.70734894275665283:0.29997637867927551] [-0.46973264217376709:0.28964298963546753] [-0.20556381344795227:0.48314982652664185] [-0.10331651568412781:0.56550312042236328] [-0.66546738147735596:0.40666684508323669] [-0.28336727619171143:0.49014458060264587] [-0.34484454989433289:0.87304258346557617] [-0.23947258293628693:0.42187994718551636] [-0.35704845190048218:0.45823898911476135] [-0.15422981977462769:0.45641344785690308] [-0.60422021150588989:0.25422057509422302] [-0.24191504716873169:0.43863749504089355] [-0.63310539722442627:0.23533889651298523] [-0.22579500079154968:0.3920939564704895] [-0.4039129912853241:0.26919621229171753] [-0.42573288083076477:0.48144340515136719] [-0.39477384090423584:0.22750163078308105] [-0.73004424571990967:0.13708955049514771] [-0.29371392726898193:0.4823799729347229] [-0.27582049369812012:0.33307099342346191] [-0.47968631982803345:0.28329142928123474] [-0.37652349472045898:0.39784622192382812] [-0.19974356889724731:0.7225189208984375] [-0.28282910585403442:0.54012894630432129] [-0.12274789810180664:0.47454071044921875] [-0.13635122776031494:0.84638917446136475] [-0.26958006620407104:0.40244150161743164] [-0.28088736534118652:0.30698749423027039] [-0.074453070759773254:0.61829686164855957] [-0.18236227333545685:0.99391621351242065] [-0.36370685696601868:0.46572273969650269] [-0.57581347227096558:0.31726732850074768] [-0.089258268475532532:0.53067231178283691] [-0.24083438515663147:0.56185626983642578] [-0.24035249650478363:0.40976333618164062] [-0.26308256387710571:0.28006809949874878] [-0.61798197031021118:0.31197065114974976] [-0.43625736236572266:0.4682687520980835] [-0.27891284227371216:0.26128697395324707] [-0.61534953117370605:0.23278477787971497] [-0.51128125190734863:0.28825712203979492] [-0.36134129762649536:0.32282036542892456] [-0.38277146220207214:0.5246245265007019] [-0.26923897862434387:0.4169861376285553] [-0.41110995411872864:0.61945235729217529] [-0.22900444269180298:0.27139931917190552] [-0.27787256240844727:0.46474254131317139] [-0.25075867772102356:0.35007259249687195] [-0.37429231405258179:0.57371699810028076] [-0.44410020112991333:0.20667161047458649] [-0.45956230163574219:0.36291268467903137] [-0.36812314391136169:0.33168298006057739] [-0.4394277036190033:0.29676294326782227] [-0.31408727169036865:0.45045432448387146] [-0.30045416951179504:0.44230306148529053] [-0.21523499488830566:0.43148475885391235] [-0.2766108512878418:0.37146484851837158] [-0.36167636513710022:0.46063974499702454] [-0.336342453956604:0.56918585300445557] [-0.38292780518531799:0.27835121750831604] [-0.50887382030487061:0.27352750301361084] [-0.22326439619064331:0.33162751793861389] [-0.22042998671531677:0.7390819787979126] [-0.15839254856109619:0.47418686747550964] [-0.21429601311683655:0.78019189834594727] [-0.61197924613952637:0.57531970739364624] [-0.14040970802307129:0.60085791349411011] [-0.70011758804321289:0.20733745396137238] [-0.22727465629577637:0.36967593431472778] [-0.20609751343727112:0.44462114572525024] [-0.81000840663909912:0.23965422809123993] [-0.29123926162719727:0.37656581401824951] [-0.63157671689987183:0.25736939907073975] [-0.34810104966163635:0.54387569427490234] [-0.4591490626335144:0.336220383644104] [-0.42764770984649658:0.31574472784996033] [-0.25454926490783691:0.51330828666687012] [-0.62228161096572876:0.14986121654510498] [-0.65101325511932373:0.22308847308158875] [-0.39211767911911011:0.24069985747337341] [-0.32962793111801147:0.52062606811523438] [-0.52622020244598389:0.068178310990333557] [-0.25718080997467041:0.50349259376525879] [-0.48326224088668823:0.26405578851699829] [-0.53333175182342529:0.36988401412963867] [-0.71519768238067627:0.22467902302742004] [-0.10340017080307007:0.92611598968505859] [-0.20943398773670197:0.46215143799781799] [-0.3691331148147583:0.40740564465522766] [-0.28436166048049927:0.3026157021522522] [-0.40792229771614075:0.30585750937461853] [-0.36339995265007019:0.52592921257019043] [-0.38237595558166504:0.62049347162246704] [-0.58814668655395508:0.24493572115898132] [-0.31591811776161194:0.54114735126495361] [-0.31255486607551575:0.47939509153366089] [-0.50395756959915161:0.68204021453857422] [-0.18443720042705536:0.64729046821594238] [-0.67558062076568604:0.056786075234413147] [-0.70626437664031982:0.24270129203796387] [-0.20332643389701843:0.37829971313476562] [-0.39427876472473145:0.39693745970726013] [-0.37586984038352966:0.3987622857093811] [-0.020114604383707047:0.93056631088256836] [-0.26727050542831421:0.38922685384750366] [-0.42239999771118164:0.14592735469341278] [-0.17760004103183746:0.6285967230796814] [-0.22371569275856018:0.55441576242446899] [-0.27015715837478638:0.6361464262008667] [-0.38225626945495605:0.54623055458068848] [-0.21420395374298096:0.51447492837905884] [-0.55049538612365723:0.28202491998672485] [-0.48030030727386475:0.29497653245925903] [-0.30429816246032715:0.49824288487434387] [-0.25829687714576721:0.48560944199562073] [-0.27381473779678345:0.32153815031051636] [-0.29899236559867859:0.40279525518417358] [-0.33518904447555542:0.57033365964889526] [-0.10695348680019379:0.61768722534179688] [-0.2286125123500824:0.65449714660644531] [-0.20620611310005188:0.39645090699195862] [-0.29756325483322144:0.46409595012664795] [-0.31985372304916382:0.48287791013717651] [0.027164466679096222:1.0640594959259033] [-0.54381376504898071:0.4224974513053894] [-0.38284492492675781:0.27243173122406006] [-0.28060191869735718:0.41486120223999023] [-0.38577687740325928:0.51531052589416504] [-0.22131659090518951:0.44928932189941406] [-0.33097249269485474:0.34837877750396729] [-0.31774884462356567:0.51391875743865967] [-0.23650537431240082:0.66866385936737061] [-0.29206430912017822:0.23750200867652893] [-0.38689532876014709:0.48428076505661011] [-0.16821660101413727:0.64784246683120728] [-0.60557389259338379:0.13956931233406067] [-0.33514529466629028:0.29979926347732544] [-0.21975426375865936:0.5661386251449585] [-0.27881383895874023:0.48727184534072876] [-0.095621831715106964:0.51972413063049316] [-0.61333918571472168:0.18044623732566833] [-0.53852581977844238:0.39507207274436951] [-0.15983983874320984:0.38510054349899292] [-0.38570815324783325:0.28981810808181763] [-0.72521889209747314:0.42959654331207275] [-0.28939163684844971:0.44362682104110718] [-0.33620595932006836:0.40591078996658325] [-0.35464665293693542:0.37619754672050476] [-0.31357705593109131:0.36354154348373413] [-0.28837370872497559:0.38547107577323914] [-0.31753748655319214:0.39505770802497864] [-0.40052962303161621:0.49439612030982971] [-0.18802738189697266:0.51137959957122803] [-0.39308193325996399:0.2255672812461853] [-0.099028363823890686:0.77739369869232178] [-0.35914844274520874:0.33247274160385132] [-0.42864635586738586:0.31230172514915466] [-0.22704115509986877:0.79074215888977051] [-0.46059906482696533:0.2315174788236618] [-0.24839094281196594:0.57119512557983398] [-0.22949624061584473:0.47085779905319214] [-0.49992093443870544:0.23253059387207031] [-0.57102692127227783:0.43519234657287598] [-0.56675428152084351:0.24120910465717316] [-0.43910011649131775:0.3917047381401062] [-0.18135847151279449:0.46897611021995544] [-0.45207265019416809:0.32049959897994995] [-0.49588707089424133:0.45920306444168091] [-0.19974043965339661:0.49325111508369446] [-0.21816065907478333:0.46216735243797302] [-0.44490861892700195:0.4362143874168396] [-0.46244239807128906:0.11919534206390381] [-0.42989954352378845:0.25023654103279114] [-0.54309070110321045:0.18700131773948669] [-0.41395947337150574:0.54678696393966675] [-0.23693406581878662:0.58673357963562012] [-0.62500029802322388:0.32345214486122131] [-0.18429470062255859:0.43423300981521606] [-0.36016684770584106:0.56449723243713379] [-0.42970740795135498:0.31269872188568115] [-0.60096287727355957:0.32873627543449402] [-0.35000544786453247:0.43488258123397827] [-0.35122379660606384:0.41617429256439209] [-0.32239019870758057:0.6729884147644043] [-0.33805528283119202:0.27664470672607422] [-0.32183367013931274:0.25270447134971619] [-0.96237927675247192:0.045529801398515701] [-0.47298020124435425:-0.027961686253547668] [-0.27726662158966064:0.3516954779624939] [-0.41540002822875977:0.23174938559532166] [-0.067072771489620209:0.56384754180908203] [-0.76118171215057373:0.20435893535614014] [-0.53746569156646729:0.24272841215133667] [-0.35080668330192566:0.49785757064819336] [-0.0089136064052581787:0.49872946739196777] [-0.26598784327507019:0.5760575532913208] [-0.24985420703887939:0.39142608642578125] [-0.37442883849143982:0.34638702869415283] [-0.37338036298751831:0.4297012984752655] [-0.30921322107315063:0.26052951812744141] [-0.21346750855445862:0.60514223575592041] [-0.37568205595016479:0.20186033844947815] [-0.40502780675888062:0.45669415593147278] [-0.40703922510147095:0.35961323976516724] [-0.20045594871044159:0.3353944718837738] [-0.3532111644744873:0.33703494071960449] [-0.42153960466384888:0.33656799793243408] [-0.39071905612945557:0.23779501020908356] [-0.55105710029602051:0.73530566692352295] [-0.072511546313762665:0.4456290602684021] [-0.2712022066116333:0.18900166451931] [-0.44622611999511719:0.39713394641876221] [-0.50164699554443359:0.18736341595649719] [-0.74869298934936523:0.31133872270584106] [-0.16054520010948181:0.43496260046958923] [-0.30234932899475098:0.38638591766357422] [-0.26698273420333862:0.35168963670730591] [-0.25774013996124268:0.47839757800102234] [-0.43809846043586731:0.32341063022613525] [-0.2996528148651123:0.42357805371284485] [-0.21366691589355469:0.81567585468292236] [-0.27723303437232971:0.5446007251739502] [-0.48305732011795044:0.12822023034095764] [-0.47384065389633179:0.12564943730831146] [-0.39904773235321045:0.41036024689674377] [-0.30515319108963013:0.40675991773605347] [-0.3130033016204834:0.43268275260925293] [-0.51325047016143799:0.36636054515838623] [-0.31372633576393127:0.48133248090744019] [-0.26518732309341431:0.527351975440979] [-0.376423180103302:0.41747796535491943] [-0.26982346177101135:0.43507793545722961] [-0.43966978788375854:0.19363559782505035] [-0.38753527402877808:0.46391233801841736] [-0.23632657527923584:0.39647620916366577] [-0.64498627185821533:-0.032121468335390091] [-0.54770517349243164:0.26198288798332214] [-0.20029494166374207:0.41419869661331177] [-0.36775580048561096:0.28813850879669189] [-0.39908686280250549:0.48915141820907593] [-0.27327591180801392:0.68303358554840088] [-0.49051615595817566:0.20346364378929138] [-0.34267443418502808:0.39342281222343445] [-0.17236445844173431:0.40522688627243042] [-0.5665706992149353:0.27943652868270874] [-0.58137720823287964:0.27047914266586304] [-0.27313351631164551:0.50031787157058716] [-0.34133213758468628:0.42443478107452393] [-0.45262831449508667:0.28663164377212524] [-0.31111329793930054:0.5353018045425415] [-0.60416191816329956:0.45549798011779785] [-0.42678171396255493:0.57847821712493896] [0.90319520235061646:1.9861115217208862] [-0.19545716047286987:0.54331076145172119] [-0.20663091540336609:0.30873385071754456] [-0.3763064444065094:0.47673851251602173] [-0.034332748502492905:0.65470230579376221] [-0.53308480978012085:0.29847824573516846] [-0.23808848857879639:0.48332041501998901] [-0.24688208103179932:0.42752212285995483] [-0.50706303119659424:0.3177967369556427] [-0.84206306934356689:0.16155299544334412] [-0.22364798188209534:0.41914975643157959] [-0.36349952220916748:0.33883041143417358] [-0.41314274072647095:0.37850716710090637] [-0.2201659083366394:0.53665494918823242] [-0.43946406245231628:0.17613935470581055] [-0.12677600979804993:0.46573930978775024] [-0.49337321519851685:0.33776652812957764] [0.0044641615822911263:0.76473605632781982] [-0.51319491863250732:0.22610947489738464] [-0.39912194013595581:0.44833439588546753] [-0.89795058965682983:0.18843144178390503] [-0.77238947153091431:0.2886587381362915] [-0.28521579504013062:0.40293008089065552] [-0.3430519700050354:0.48673248291015625] [-0.15552917122840881:0.43795633316040039] [-0.65387612581253052:0.1073760986328125] [-0.16825684905052185:0.62610489130020142] [-0.37628865242004395:0.43650138378143311] [-0.51300036907196045:0.28290998935699463] [-0.50723814964294434:0.32011419534683228] [-0.52105110883712769:0.35334405303001404] [-0.38528859615325928:0.35993495583534241] [-0.34015151858329773:0.65375316143035889] [-0.1423400491476059:0.68319118022918701] [-0.16864091157913208:0.39540982246398926] [-0.50990962982177734:0.54825913906097412] [-0.66433191299438477:0.13948008418083191] [-0.40304693579673767:0.26868590712547302] [-0.28561756014823914:0.42800885438919067] [-0.27665314078330994:0.26913756132125854] [-0.46984079480171204:0.21248981356620789] [-0.45588240027427673:0.28128260374069214] [-0.26109066605567932:0.5669897198677063] [-0.18933083117008209:0.45520135760307312] [-0.2517121434211731:0.45278888940811157] [-0.50257885456085205:0.37936848402023315] [-0.3238770067691803:0.56557482481002808] [-0.28215780854225159:0.33366042375564575] [-0.68230915069580078:0.32635647058486938] [-0.45340138673782349:0.36061713099479675] [-0.21966832876205444:0.39933359622955322] [-0.36844825744628906:0.6475030779838562] [-0.34846580028533936:0.81147360801696777] [-0.46093767881393433:0.42631587386131287] [-0.48644822835922241:0.42751067876815796] [-0.11521336436271667:0.67162871360778809] [-0.19861337542533875:0.53582519292831421] [-0.29707446694374084:0.33533364534378052] [-0.45031356811523438:0.30587518215179443] [-0.40734153985977173:0.32524073123931885] [-0.34507885575294495:0.3393712043762207] [-0.40291282534599304:0.39278262853622437] [-0.16777525842189789:0.28482764959335327] [-0.37835133075714111:0.22864943742752075] [-0.53355050086975098:0.35854363441467285] [-0.4473356306552887:0.1723908931016922] [-0.12149316072463989:0.69595503807067871] [-0.53150904178619385:0.21218691766262054] [-0.075359493494033813:0.62036919593811035] [-0.30863946676254272:0.47684317827224731] [-0.1950870156288147:0.34132248163223267] [-0.21686846017837524:0.39747574925422668] [-0.5875706672668457:0.44714069366455078] [-0.48759475350379944:0.46992301940917969] [-0.26515477895736694:0.37284517288208008] [-0.55559337139129639:0.23737731575965881] [-0.64903038740158081:0.22437900304794312] [-0.1574133038520813:0.8197435736656189] [-0.45728820562362671:0.23027324676513672] [-0.05819779634475708:0.92840111255645752] [-0.70506805181503296:0.045205041766166687] [-0.38645088672637939:0.417793869972229] [-0.35820251703262329:0.32149267196655273] [-0.25069889426231384:0.65475296974182129] [-0.15957391262054443:0.74989598989486694] [-0.73017829656600952:0.1833575963973999] [-0.32851916551589966:0.56406623125076294] [-0.44398754835128784:0.4016689658164978] [-0.4710237979888916:0.17943905293941498] [-0.14536365866661072:0.56094539165496826] [-0.24045631289482117:0.69611012935638428] [-0.31697520613670349:0.37613365054130554] [-0.23352068662643433:0.50245320796966553] [-0.19862452149391174:0.63772344589233398] [-0.45080214738845825:0.3338162899017334] [-0.21735082566738129:0.51683950424194336] [-0.027095844969153404:0.55173158645629883] [-0.32054829597473145:0.25286191701889038] [-0.2944733202457428:0.40421962738037109] [-0.65567779541015625:0.38605368137359619] [-0.37447309494018555:0.26014560461044312] [-0.41292166709899902:0.15543597936630249] [-0.48544090986251831:0.42664593458175659] [-0.11742459237575531:0.98916155099868774] [-0.22960200905799866:0.74552625417709351] [-0.22222320735454559:0.47940355539321899] [-0.29929032921791077:0.43479865789413452] [-0.25790244340896606:0.60453891754150391] [-0.39147889614105225:0.21404124796390533] [-0.26788598299026489:0.42409056425094604] [-0.42443922162055969:0.26459896564483643] [-0.19614128768444061:0.49714338779449463] [-0.16900146007537842:0.655875563621521] [-0.46804976463317871:0.29143375158309937] [-0.63236713409423828:0.17188650369644165] [-0.66678351163864136:0.3277679979801178] [-0.34740221500396729:0.30635344982147217] [-0.29050421714782715:0.45135760307312012] [-0.72058886289596558:0.40842235088348389] [-0.1935812383890152:0.55661594867706299] [0.051468625664710999:0.64840787649154663] [-0.30565297603607178:0.29615604877471924] [-0.40633225440979004:0.35320901870727539] [-0.49397522211074829:0.17802760004997253] [-0.052633173763751984:0.54662775993347168] [-0.64470165967941284:0.051601752638816833] [-0.4620191752910614:0.16990837454795837] [-0.23710283637046814:0.51178950071334839] [-0.61456179618835449:0.26131546497344971] [-0.27974477410316467:0.73260051012039185] [-0.80280196666717529:0.3889196515083313] [-0.38655492663383484:0.38779813051223755] [-0.58746063709259033:0.49245172739028931] [-0.34582990407943726:0.24029235541820526] [-0.18014904856681824:0.51276248693466187] [-0.45550775527954102:0.18425415456295013] [-0.25671198964118958:0.77674382925033569] [-0.23618711531162262:0.49942904710769653] [-0.30573886632919312:0.58783245086669922] [-0.27311372756958008:0.69806092977523804] [-0.30637821555137634:0.85945749282836914] [-0.39904230833053589:0.25154727697372437] [-0.29781687259674072:0.37642896175384521] [-0.30512645840644836:0.7247236967086792] [-0.2353055328130722:0.466889888048172] [-0.24890667200088501:0.45626059174537659] [-0.48378381133079529:0.24898886680603027] [-0.33508086204528809:0.46593964099884033] [-0.40157487988471985:0.23318105936050415] [-0.40366417169570923:0.31543305516242981] [-1.1750493049621582:-0.0051198736764490604] [-0.38865828514099121:0.41917514801025391] [-0.37307250499725342:0.44628763198852539] [-0.24199584126472473:0.55976283550262451] [-0.53635185956954956:0.35180854797363281] [-0.60571402311325073:0.37809973955154419] [-0.16968311369419098:0.42659860849380493] [-0.60371452569961548:0.18463210761547089] [-0.34951332211494446:0.29401308298110962] [-0.16100837290287018:0.61087828874588013] [-0.2102695107460022:0.34515395760536194] [-0.3558274507522583:0.3714410662651062] [0.0051278891041874886:0.5557401180267334] [-0.35653290152549744:0.41314607858657837] [-0.55692183971405029:0.26246985793113708] [-0.22597157955169678:0.403839111328125] [-0.31263607740402222:0.40948686003684998] [-0.39976984262466431:0.405141681432724] [-0.72086715698242188:0.42117372155189514] [-0.33706456422805786:0.40474170446395874] [-0.27713316679000854:0.43731310963630676] [-0.47034123539924622:0.43406885862350464] [-0.32833963632583618:0.31134951114654541] [-0.27587699890136719:0.33056110143661499] [-0.20557421445846558:0.41940051317214966] [-0.28573501110076904:0.43129968643188477] [-0.46275246143341064:0.21462379395961761] [-0.32954567670822144:0.5332794189453125] [478:7221] [88:1537] [10:426] [3:94] [3:304] [1:68] [0.021990697830915451:0.89360469579696655] [6.6707965743262321e-05:0.99952030181884766] [8.7616528617218137e-05:0.99968838691711426] [9.1835943749174476e-05:0.99983072280883789] [0:14] [0:1] [0.00065836986000000004:0.99273889999999998] [0.00023904526:0.99574510000000005] [0.00015796000000000001:0.99847620000000004]
tree_sizes=2342 2020 2466 2405 2094 2520 2421 2303 2205 2417 1987 2318 2639 2320 2312 2533 1985 2201 2639 2527 2099 2426 2209 2538 2953 2086 2104 2521 2312 2427 2633 2209 2427 2632 2005 2316 2415 2083 2101 2757 2205 2530 2102 2212 2524 2330 2212 2428 2428 1897 2537 2429 2406 2209 2322 2209 2318 2317 2205 2306 2536 2412 2203 2535 2200 2319 2418 2311 2426 2437 2422 2978 2531 2540 2539 2761 2529 2859 2644 2211 2540 2641 2418 2541 2641 2638 2646 2523 2314 2321 2425 2324 2541 2324 2650 2099 2533 2310 2437 2427 2207 1998 2429 2102 2427 2211 2321 2529 2325 2750 2647 2214 2317 2541 2101 2438 2096 2327 2315 2640 2218 2417 1777 2212 2530 2435 2209 1891 2539 1659 2434 2763 2330 2645 2528 1894 2538 2318 2327 2206 2436 1878 1786 2216 1774 2330 2546 2001 1990 2323 1886 2107 2001 1340 2647 2006 1881 2314 2104 1886 2646 2217 1892 2208 2105 1787 2322 2320 1779 1762 2213 1782 1895 1346 1341 1998 1677 1890 1885 2322 2855 1670 1890 2435 1990 1773 1238 1779 2221 1569 1681 2005 2226 1777 1899 1567 2549 1783 1564 1665 2331 1660 1790 2426 1128 2101 1775 1123 1670 2106 1243 1774 1669 1245 1563 1679 1461 2118 2114 1672 2429 2321 2228 2101 2447 1896 2106 1794

Tree=0
num_leaves=21
num_cat=0
split_feature=780 780 780 780 371 642 209 567 316 765 81 438 780 681 185 586 780 265 351 78
split_gain=2098.74 105.532 38.0855 22.4 21.6522 12.4937 8.56359 8.71829 7.6564 7.40822 6.11086 7.16477 4.06852 4.14815 3.97845 3.40554 3.33335 3.23252 1.47154 0.18578
threshold=0.61145365000000007 0.20374380000000003 0.88947890000000018 0.061776743000000002 0.04762897081673146 0.19087979942560199 0.16470505297183993 0.068681959062814726 -0.0910012051463127 0.061388490721583373 0.03147601522505284 0.062350293621420867 0.96767538500000005 0.042826564982533462 0.024068024940788749 -0.16731075197458264 0.042161603000000013 -0.21146103739738462 0.15616317093372348 -0.18409445881843564
decision_type=2 2 2 2 2 2 2 2 2 2 2 2 2 2 2 2 2 2 2 2
left_child=1 3 5 16 -3 9 7 -5 -4 -2 -6 -12 13 -10 -11 -8 18 -18 -1 -14
right_child=2 4 8 6 10 -7 15 -9 12 14 11 -13 19 -15 -16 -17 17 -19 -20 -21
leaf_value=-1.1623899122670538 -1.0544733958027033 -1.0809128908731456 -1.0302673639378812 -1.1544771609354674 -1.1426856532766512 -1.0698849928447014 -1.1612806858085456 -1.1223799258270244 -1.0209998951599271 -1.0114984267339291 -1.1322483515391686 -1.0959935910578948 -1.0035907432177456 -1.0055458455173534 -1.0358265820619263 -1.1449421047581576 -1.1379742634889918 -1.1565191173215708 -1.1549418742947859 -0.99830582980472471
leaf_weight=549.4219782948494 37.445526868104935 61.635999977588654 53.682967722415924 35.788645148277283 31.812129020690918 39.433784931898117 55.008473098278046 94.110881686210632 95.105010718107224 37.776903212070465 31.812129020690918 35.125892460346222 31.480752676725388 122.27787092328072 45.729935467243195 135.86430102586746 36.451397836208344 138.51531177759171 96.099139750003815 91.128494590520859
leaf_count=1658 113 186 162 108 96 119 166 284 287 114 96 106 95 369 138 410 110 418 290 275
internal_value=-1.11029 -1.14869 -1.02008 -1.15459 -1.10665 -1.04282 -1.14219 -1.13123 -1.01081 -1.03399 -1.12272 -1.11322 -1.00774 -1.0123 -1.02482 -1.14965 -1.15944 -1.15266 -1.16128 -0.999658
internal_weight=1855.71 1301.65 554.061 1141.26 160.386 160.386 320.772 129.9 393.675 120.952 98.7502 66.938 339.992 217.383 83.5068 190.873 820.488 174.967 645.521 122.609
internal_count=5600 3928 1672 3444 484 484 968 392 1188 365 298 202 1026 656 252 576 2476 528 1948 370
is_linear=0
shrinkage=1


Tree=1
num_leaves=18
num_cat=0
split_feature=782 782 782 782 230 480 624 782 544 162 448 130 285 95 315 655 0
split_gain=2831.28 51.4947 40.0311 14.9112 8.51874 5.4144 4.59173 4.23325 2.91055 2.53523 2.90682 1.88068 2.18845 1.06776 0.784696 0.574607 0.294676
threshold=0.45286844000000009 0.89278799000000009 0.10174800500000002 0.67925282000000009 -0.06605734676122664 0.12394677847623826 0.094546556472778334 0.015438399250000002 -0.16218735277652738 0.25421145558357244 0.21844802796840671 0.16513143479824069 0.089455448091030135 -0.067996703088283525 0.049698887392878539 -0.30694544315338129 -0.07264165952801703
decision_type=2 2 2 2 2 2 2 2 2 2 2 2 2 2 2 2 2
left_child=2 3 7 -2 -4 6 -5 13 -3 16 -11 14 -13 -1 -10 -15 -9
right_child=1 8 4 5 -6 -7 -8 9 11 10 -12 12 -14 15 -16 -17 -18
leaf_value=-1.1810091889682377 -1.0940189290453748 -1.0435101950319878 -1.1658952136383478 -1.0619229500273615 -1.129565982879648 -1.0710969752997959 -1.0335606713139878 -1.1843778828290623 -1.0328565135492218 -1.1841509520249494 -1.1667772665689253 -1.0401193468511543 -1.0265300977957514 -1.1825953271591645 -1.0239180212446357 -1.1903245669575688 -1.1915118491645642
leaf_weight=42.155257076025009 43.135611891746521 41.501687198877335 38.887407690286636 32.024923980236053 40.194547444581985 44.115966707468033 38.887407690286636 31.044569164514542 36.273128181695938 60.12842869758606 58.167719066143036 70.91233167052269 76.140890687704086 31.044569164514542 220.906618475914 879.70505464076996 44.769536584615707
leaf_count=129 132 127 119 98 123 135 119 95 111 184 178 217 233 95 676 2692 137
internal_value=-1.1372 -1.03912 -1.18552 -1.06625 -1.14743 -1.05585 -1.04636 -1.18814 -1.02949 -1.18068 -1.17561 -1.02805 -1.03308 -1.18966 -1.02518 -1.19006 -1.1886
internal_weight=1830 603.899 1226.1 158.164 79.082 115.028 70.9123 1147.02 445.735 194.11 118.296 404.233 147.053 952.905 257.18 910.75 75.8141
internal_count=5600 1848 3752 484 242 352 217 3510 1364 594 362 1237 450 2916 787 2787 232
is_linear=0
shrinkage=1


Tree=2
num_leaves=22
num_cat=0
split_feature=781 780 781 371 781 185 552 8 782 781 39 29 93 781 504 292 756 238 735 760 258
split_gain=2374.85 53.6824 48.1366 14.5647 11.6756 8.11628 9.5745 6.80928 5.37419 4.14692 3.86126 6.10063 3.85345 3.0122 2.63322 1.95128 1.90635 1.73259 1.69077 1.34679 0.929825
threshold=0.41088484500000005 0.10466134500000002 0.099014550000000021 0.04762897081673146 0.76099810000000012 0.069855727255344405 0.11617983877658845 0.023676705546677116 0.0095056405000000007 0.95310870000000014 0.068968661129474654 -0.1435907110571861 0.33771277964115148 0.030978469000000005 -0.15494802594184873 -0.10206912830471991 -0.05194206349551677 0.0039102889131754645 0.076764270663261427 0.079069484025239958 -0.11808512732386588
decision_type=2 2 2 2 2 2 2 2 2 2 2 2 2 2 2 2 2 2 2 2 2
left_child=2 9 13 4 -3 12 -7 -5 -9 10 18 -12 -4 17 -15 -16 -11 20 -2 -18 -1
right_child=1 3 5 7 -6 6 -8 8 -10 16 11 -13 -14 14 15 -17 19 -19 -20 -21 -22
leaf_value=-1.104833410390001 -0.96219967779846949 -1.0334882603134559 -1.0938544345570342 -0.99801164978933277 -0.98951969693530639 -1.0424245092587254 -1.0774715058574846 -0.95510495730853362 -0.98585583564525414 -0.96404563745484628 -0.97731033385843546 -0.95500808660904879 -1.0726377324107212 -1.0859149711989295 -1.08893051761662 -1.1005278253551343 -0.95805102922099883 -1.0938931638051141 -0.94604848001918596 -0.94791936474688621 -1.0951159970311606
leaf_weight=517.55427670478821 35.14046835899353 36.846316337585449 46.057895421981812 39.57567310333252 37.187485933303833 48.787252187728882 46.740234613418579 37.869825124740601 32.41111159324646 37.528655529022217 88.704094886779785 65.504562377929688 61.069357633590698 54.92830491065979 51.857778549194336 321.04058957099915 54.587135314941406 54.587135314941406 47.081404209136963 163.07906675338745 32.41111159324646
leaf_count=1517 103 108 135 116 109 143 137 111 95 110 260 192 179 161 152 941 160 160 138 478 95
internal_value=-1.05033 -0.966901 -1.09597 -0.992416 -1.0114 -1.0713 -1.05957 -0.979627 -0.96928 -0.957358 -0.962654 -0.967834 -1.08176 -1.10081 -1.09725 -1.09892 -0.952454 -1.10333 -0.952945 -0.950458 -1.10426
internal_weight=1910.55 675.516 1235.03 183.89 74.0338 202.655 95.5275 109.857 70.2809 491.625 236.431 154.209 107.127 1032.38 427.827 372.898 255.195 604.553 82.2219 217.666 549.965
internal_count=5600 1980 3620 539 217 594 280 322 206 1441 693 452 314 3026 1254 1093 748 1772 241 638 1612
is_linear=0
shrinkage=1


Tree=3
num_leaves=21
num_cat=0
split_feature=780 780 780 780 371 642 256 653 305 202 767 316 53 716 780 780 265 535 748 408
split_gain=1825.2 98.2472 30.1341 21.4882 19.2922 10.6874 8.93109 8.49636 6.5736 6.70689 6.5632 6.42702 4.30216 3.51087 3.2938 3.24964 3.161 2.6569 1.5458 0.182248
threshold=0.61145365000000007 0.20374380000000003 0.88947890000000018 0.061776743000000002 0.04762897081673146 0.19087979942560199 0.20766767859458926 -0.13488417863845822 0.13344827294349673 0.18502958118915561 0.2041653245687485 -0.093879513442516313 0.1154269576072693 -0.15838988125324246 0.96767538500000005 0.042161603000000013 -0.21146103739738462 -0.074301991611719118 -0.15989685058593747 -0.28811502456665034
decision_type=2 2 2 2 2 2 2 2 2 2 2 2 2 2 2 2 2 2 2 2
left_child=1 3 5 15 -3 10 12 -8 -6 -10 13 -4 -5 -2 17 18 -17 -13 -1 -16
right_child=2 4 11 6 8 -7 7 -9 9 -11 -12 14 -14 -15 19 16 -18 -19 -20 -21
leaf_value=-0.040626374471545552 0.093774408567814924 0.027519433709303345 0.071614796180555759 -0.022686261044656656 -0.030993788696815142 0.036867040344963818 0.0044640212825133732 -0.02771106821718167 -0.019298904846418066 0.0168309655929673 0.054356479718990297 0.083454073912569163 -0.045161289534964261 0.069452746934897655 0.10067324164854902 -0.026237707240382307 -0.044760861298358823 0.095656830212854677 -0.050359426299042338 0.095608333880237387
leaf_weight=55.127223789691925 32.621683388948441 62.458911687135696 53.135591208934784 33.495017796754837 35.165685147047043 40.359969407320023 31.054648101329803 131.66813817620277 31.273909538984299 31.669923812150955 51.121596336364746 139.00727763772011 118.83157435059547 41.523232370615005 95.770069807767868 35.776848942041397 135.04158091545105 91.18473869562149 572.41103535890579 33.089416563510895
leaf_count=171 95 186 154 103 107 119 95 404 95 96 149 401 366 121 275 110 418 263 1777 95
internal_value=9.56962e-06 -0.0369937 0.0815953 -0.0428302 0.00347608 0.0616505 -0.0305885 -0.0215693 -0.0118286 -0.00111684 0.0696327 0.0896086 -0.0402213 0.0801598 0.0922702 -0.0476606 -0.0408831 0.08829 -0.049505 0.0993765
internal_weight=1851.79 1273.97 577.814 1113.41 160.568 165.626 315.049 162.723 98.1095 62.9438 125.267 412.187 152.327 74.1449 359.052 798.357 170.818 230.192 627.538 128.859
internal_count=5600 3928 1672 3444 484 484 968 499 298 191 365 1188 469 216 1034 2476 528 664 1948 370
is_linear=0
shrinkage=0.0553438


Tree=4
num_leaves=18
num_cat=0
split_feature=782 782 782 782 568 6 738 782 162 655 257 779 704 413 291 655 408
split_gain=2471.82 46.7022 29.6764 14.3286 6.67467 4.9071 4.8041 3.56483 2.58179 2.63815 2.52444 3.49434 1.34343 0.993755 1.44366 0.388029 0.167251
threshold=0.40428081000000005 0.70135637500000014 0.087335887500000015 0.89278799000000009 -0.023617602884769436 -0.10049625486135481 -0.093318179249763475 0.015438399250000002 0.25421145558357244 -0.17297007888555524 0.030750661157071594 0.21132376395534294 -0.34835018217563624 0.0047527160495519647 0.16265099495649341 -0.30214141309261316 -0.36231695115566248
decision_type=2 2 2 2 2 2 2 2 2 2 2 2 2 2 2 2 2
left_child=2 -2 7 5 -4 6 -3 13 16 -10 12 -12 -5 15 -15 -1 -9
right_child=1 3 4 10 -6 -7 -8 8 9 -11 11 -13 -14 14 -16 -17 -18
leaf_value=-0.045901685821967304 0.040584760720246769 0.067763532019292208 -0.0013478921971971864 0.088892695848128908 -0.034353361372500564 0.058527989319981481 0.096129425066285509 -0.047533296174021689 -0.046077680582875306 -0.028949996853421065 0.098863624788006949 0.079225565546414786 0.10006381091564179 -0.037553560635392579 -0.049789142577975655 -0.052329486475067799 -0.05309958477089622
leaf_weight=30.843637853860855 58.77050718665123 34.30125093460083 47.33816060423851 37.479151338338852 31.107882052659988 38.455666780471802 39.490567922592163 30.175576716661453 53.683550715446472 56.862296253442764 57.41713011264801 54.32465386390686 319.97989729046822 35.851654380559921 173.76759082078934 684.30301114916801 41.67141056060791
leaf_count=97 176 101 146 109 96 113 116 95 168 178 167 158 930 113 548 2158 131
internal_value=-1.92101e-05 0.0876107 -0.0473391 0.0923633 -0.0144399 0.0745868 0.0829501 -0.0496699 -0.0425889 -0.0372706 0.096615 0.0893206 0.0988939 -0.0510661 -0.0476981 -0.0520528 -0.0507669
internal_weight=1825.82 640.219 1185.6 581.448 78.446 112.247 73.7918 1107.16 182.393 110.546 469.201 111.742 357.459 924.766 209.619 715.147 71.847
internal_count=5600 1870 3730 1694 242 330 217 3488 572 346 1364 325 1039 2916 661 2255 226
is_linear=0
shrinkage=0.0553438


Tree=5
num_leaves=22
num_cat=0
split_feature=781 781 780 540 780 552 781 539 603 242 686 14 124 781 728 743 708 398 238 508 681
split_gain=2084.06 45.389 43.4 11.2293 7.59268 7.29298 9.30736 7.37201 4.3808 4.60014 4.08551 3.58898 3.3176 2.8605 2.61246 3.96799 2.84742 2.58601 1.70632 1.61582 1.02123
threshold=0.41088484500000005 0.099014550000000021 0.10466134500000002 0.034391606226563461 0.20374380000000003 0.11553302034735681 0.22291329500000004 -0.028519019484519955 0.20631637424230578 0.010621222201734783 0.29619394242763525 0.21774576604366305 0.0099834753200411814 0.030978469000000005 0.070666156709194197 0.18590120971202853 -0.32003568112850184 0.054791798815131194 0.0039102889131754645 0.12240417301654817 -0.055647864937782281
decision_type=2 2 2 2 2 2 2 2 2 2 2 2 2 2 2 2 2 2 2 2 2
left_child=1 13 8 4 12 6 -3 11 17 10 -10 -7 -4 18 16 -16 -15 19 20 -2 -1
right_child=2 5 3 -5 -6 7 -8 -9 9 -11 -12 -13 -14 14 15 -17 -18 -19 -20 -21 -22
leaf_value=-0.043434590030541856 0.092771836325064791 -0.022119174009313288 0.06208226424407675 0.031854791500085501 0.048028518037369468 -0.02652639806532317 0.013409157022276314 -0.0084551638409007916 0.091440985084783669 0.063149924095726159 0.071866323162197654 -0.051603526585845889 0.086074726089294534 -0.035580641858201555 -0.044380009531754777 -0.022553423809962832 -0.050848334185229362 0.073783106909792229 -0.041829075325572486 0.083875366838532833 -0.052910453011906111
leaf_weight=37.85730043053627 200.96044707298279 61.603459149599075 34.75597071647644 53.352222770452499 64.047423362731934 31.993533790111542 35.645778000354767 32.654286056756973 75.424506545066833 49.560134053230286 58.056026518344879 38.703172951936722 36.220184326171875 44.705360531806946 105.72180467844009 33.702219218015671 233.98663923144341 33.993464350700378 53.318462371826172 92.471348285675049 497.43300476670265
leaf_count=114 567 182 99 153 184 95 105 97 213 140 164 115 103 134 317 101 702 96 160 261 1498
internal_value=8.98775e-06 -0.0440181 0.0760707 0.0533623 0.0618581 -0.0199765 -0.0090943 -0.0302135 0.0844499 0.0775771 0.0829306 -0.0402597 0.0743321 -0.0488083 -0.045302 -0.0391062 -0.0484004 0.0882907 -0.0512984 0.0899698 -0.0522409
internal_weight=1906.17 1207.33 698.842 188.376 135.024 200.6 97.2492 103.351 510.466 183.041 133.481 70.6967 70.9762 1006.72 418.116 139.424 278.692 327.425 588.609 293.432 535.29
internal_count=5600 3620 1980 539 386 594 287 307 1441 517 377 210 202 3026 1254 418 836 924 1772 828 1612
is_linear=0
shrinkage=0.0553438


Tree=6
num_leaves=21
num_cat=0
split_feature=780 780 780 371 780 137 780 106 622 580 316 676 231 442 248 780 561 748 544 654
split_gain=1597.17 93.0154 24.7821 21.3593 11.973 9.14931 8.65829 8.20133 9.11254 5.66918 5.58967 4.73257 4.69475 3.77838 3.48206 2.78406 2.86185 1.52494 1.5298 0.179057
threshold=0.61145365000000007 0.10466134500000002 0.88947890000000018 0.049372121691703803 0.20374380000000003 0.019008167088031772 0.042161603000000013 -0.020043772645294663 0.21944339573383334 0.087242212146520629 -0.093879513442516313 0.20574579387903216 0.01663285028189421 0.087221734225749983 -0.22126261889934537 0.96767538500000005 -0.21856154501438138 -0.15989685058593747 -0.16473803669214246 -0.037474069744348519
decision_type=2 2 2 2 2 2 2 2 2 2 2 2 2 2 2 2 2 2 2 2
left_child=1 6 5 4 -3 -2 17 8 -5 14 -4 13 -9 -7 -8 16 -12 -1 -19 -17
right_child=2 3 10 7 -6 11 9 12 -10 -11 15 -13 -14 -15 -16 19 -18 18 -20 -21
leaf_value=-0.039198791704756791 0.030719564540941824 -0.010333956194298721 0.065123565690834467 -0.027529119033973672 0.025868413156214735 0.083909205361616682 -0.033027949627881553 -0.021582644634482145 0.012433937948280283 -0.021170021998136713 0.067316242290615044 0.050011938122209915 -0.045182225754125054 0.060274457514036144 -0.045606672865740223 0.086863230866702862 0.083302512497910472 -0.039337997761835851 -0.049872767611812946 0.091766826028114062
leaf_weight=53.713665395975113 33.504787892103195 49.706369370222092 54.778006076812744 31.628552347421646 63.995523720979691 38.688947290182114 116.61401963233948 78.882800400257111 39.044917106628418 57.218567818403244 41.884835839271545 52.741954386234283 38.440122753381729 44.981018096208572 160.53947839140892 34.263368606567383 196.02899146080017 46.346707969903946 508.72551181912422 99.166120439767838
leaf_count=171 96 154 154 98 189 110 368 244 120 180 117 150 119 128 508 95 547 148 1629 275
internal_value=2.76769e-05 -0.0356425 0.0745269 -0.0088934 0.0100402 0.0566495 -0.0441987 -0.0203458 -0.005448 -0.03704 0.0816546 0.0630159 -0.0293177 0.0712083 -0.0403153 0.084092 0.0804899 -0.0481301 -0.0489938 0.0905112
internal_weight=1840.89 1244.86 596.038 301.698 113.702 169.917 943.158 187.996 70.6735 334.372 426.121 136.412 117.323 83.67 277.153 371.343 237.914 608.786 555.072 133.429
internal_count=5600 3928 1672 924 343 484 3004 581 218 1056 1188 388 363 238 876 1034 664 1948 1777 370
is_linear=0
shrinkage=0.0553438


Tree=7
num_leaves=20
num_cat=0
split_feature=775 772 772 775 735 772 775 770 770 772 312 133 772 769 679 263 258 775 590
split_gain=836.151 213.529 77.8445 55.2325 34.456 29.8377 28.3464 24.5802 21.9283 14.5398 15.0719 13.507 12.3852 11.3221 7.1567 5.67661 5.60191 3.61943 2.83299
threshold=0.18487373739480975 189.50000000000003 102.50000000000001 0.015252958517521622 0.18085286021232608 202.50000000000003 0.92847982048988353 157.50000000000003 137.50000000000003 163.50000000000003 0.023074459284543995 -0.06840911507606505 211.50000000000003 172.50000000000003 0.16447851061820987 -0.19727699458599088 -0.25667172670364374 0.003445695037953556 1.5151881575584414
decision_type=2 2 2 2 2 2 2 2 2 2 2 2 2 2 2 2 2 2 2
left_child=2 6 -1 11 7 8 9 13 -5 16 -11 -4 -9 -3 -8 -7 -2 -13 -16
right_child=1 4 3 5 -6 15 14 12 -10 10 -12 17 -14 -15 18 -17 -18 -19 -20
leaf_value=0.051151901379813673 0.078958671909513181 -0.035019356715772464 -0.0082688197504121336 -0.017351960723891533 0.045259080937611718 -0.014712940894145618 0.059678201001260499 0.044668462130645029 0.016686286237121178 0.015440028974854667 0.063587729561491904 -0.047165611616422277 -0.0029565642044311587 -0.0017316319152278648 0.09198600222058323 -0.040583142362657136 0.054935504549116679 -0.038256141286077155 0.079336908390869931
leaf_weight=35.050986379384995 55.532991319894791 68.356771647930145 33.684352487325668 153.32849571108818 52.282977163791656 32.769344687461853 39.121074497699738 34.686772882938385 93.204181224107742 47.170725107192993 34.483798146247864 426.40171813964844 32.279991626739502 57.75103747844696 105.00210672616959 126.00680455565453 64.322018831968307 208.38782972097397 113.75078132748604
leaf_count=103 158 218 105 482 154 103 112 102 283 142 100 1383 100 179 295 405 186 668 322
internal_value=-4.67081e-05 0.0470901 -0.0300057 -0.0326552 0.00540483 -0.0165344 0.0693536 -0.00538673 -0.00448251 0.0537968 0.0357777 -0.0424291 0.0217093 -0.0197774 0.0815085 -0.0352456 0.0660698 -0.0442414 0.0854107
internal_weight=1813.57 704.741 1108.83 1073.78 245.358 405.309 459.383 193.075 246.533 201.51 81.6545 668.474 66.9668 126.108 257.874 158.776 119.855 634.79 218.753
internal_count=5600 2068 3532 3429 753 1273 1315 599 765 586 242 2156 202 397 729 508 344 2051 617
is_linear=0
shrinkage=0.0553438


Tree=8
num_leaves=19
num_cat=0
split_feature=781 781 781 371 781 225 57 36 1 135 225 263 343 781 504 699 238 681
split_gain=1838.55 43.0324 36.2871 11.7656 8.06849 7.79548 7.73107 10.6378 6.57906 3.52442 3.75227 3.49626 2.94087 2.74291 2.62667 1.99705 1.69481 1.01328
threshold=0.41088484500000005 0.099014550000000021 0.76099810000000012 0.04762897081673146 0.89200908000000012 0.20233720541000369 -0.017955329269170758 0.25364607572555548 0.33472947776317602 0.31499107182025915 0.1239399127662182 -0.090677794069051729 -0.046904446557164185 0.030978469000000005 -0.15494802594184873 0.21064284443855288 0.0039102889131754645 -0.055647864937782281
decision_type=2 2 2 2 2 2 2 2 2 2 2 2 2 2 2 2 2 2
left_child=1 13 3 -2 5 11 7 -3 -9 12 -11 -4 -6 16 -15 -16 17 -1
right_child=2 6 4 -5 9 -7 -8 8 -10 10 -12 -13 -14 14 15 -17 -18 -19
leaf_value=-0.041807760341710055 0.013823018423146063 0.010670030404019478 0.081008012195793941 0.053904177857554678 0.066984115279486695 0.040304096045510412 -0.039863250417700558 -0.034117986314603894 -0.0074228093655141405 0.079473539233545776 0.054274215129783483 0.057927972838553325 0.081370335499439173 -0.032229404019123595 -0.046930245392613826 -0.033422153639782258 -0.040183236609781486 -0.051372392791965114
leaf_weight=36.867000371217728 37.617619276046753 41.622957289218903 47.267541259527206 55.640075713396072 49.445312142372131 36.126393735408783 42.697913616895676 62.366152793169022 51.781185895204544 35.323302090167999 37.392692714929581 35.240650743246078 382.16617497801781 52.614728152751923 317.61231112480164 37.655240297317505 51.973508238792419 482.72563496232033
leaf_count=114 108 124 131 156 136 101 128 187 155 97 103 98 1050 161 977 116 160 1498
internal_value=1.77054e-05 -0.0424995 0.0699431 0.0377398 0.0747633 0.0617636 -0.018998 -0.0132766 -0.0220106 0.0778205 0.066521 0.0711552 0.0797232 -0.0472614 -0.0437884 -0.0454994 -0.0497392 -0.0506944
internal_weight=1894.14 1177.92 716.22 93.2577 622.962 118.635 198.468 155.77 114.147 504.327 72.716 82.5082 431.611 979.448 407.882 355.268 571.566 519.593
internal_count=5600 3620 1980 264 1716 330 594 466 342 1386 200 229 1186 3026 1254 1093 1772 1612
is_linear=0
shrinkage=0.0553438


Tree=9
num_leaves=21
num_cat=0
split_feature=780 780 780 380 589 780 329 780 625 780 521 452 500 644 539 0 782 748 544 83
split_gain=1417.82 64.7804 41.3903 16.4249 15.3311 10.3658 9.66732 8.71132 8.64989 7.05147 5.2024 4.25845 3.84367 4.20584 3.39251 3.09457 2.88477 1.50593 1.51604 1.16594
threshold=0.46941139000000004 0.10466134500000002 0.81804733500000004 0.047756697982549674 0.085512600839138045 0.20374380000000003 -0.082277726382017122 0.042161603000000013 -0.077819924801588045 0.94359860000000018 0.12985886633396151 0.14739078283309939 0.13370452076196673 0.037539219483733184 -0.022623697295784947 -0.13566641509532926 0.0080754255000000021 -0.15989685058593747 -0.16473803669214246 0.25302799046039587
decision_type=2 2 2 2 2 2 2 2 2 2 2 2 2 2 2 2 2 2 2 2
left_child=1 7 4 5 -2 -3 11 17 -6 10 -4 -5 15 -14 -12 -9 19 -1 -19 -11
right_child=2 3 9 6 8 -7 -8 12 -10 16 14 -13 13 -15 -16 -17 -18 18 -20 -21
leaf_value=-0.037997083443866549 0.069672532817217386 -0.011751736477035016 0.050747120306430568 -0.02132945894927565 0.0041692779718561076 0.02503106465982766 0.0060590655366472099 -0.023235902864001602 0.038986158971125402 0.083471595396632112 0.076916744716718083 -0.041808412601311171 -0.010308001539583571 -0.038805094186298003 0.06091439620515219 -0.041016423451142973 0.068512567005728497 -0.03812096801778405 -0.048740938968826447 0.072421345575754234
leaf_weight=52.437483280897141 34.864878922700882 46.616351038217545 54.295995265245438 91.000108867883682 33.603171825408936 47.239975094795227 30.53978231549263 34.615112572908401 62.601060330867767 189.88125538825989 100.96558171510696 47.327835977077484 34.263615220785141 29.585394442081451 68.341059267520905 227.68939825892448 65.543839782476425 45.210433304309845 493.61648455262184 35.20675802230835
leaf_count=171 98 146 150 284 97 141 95 112 179 517 278 148 110 96 188 738 179 148 1629 96
internal_value=3.55621e-05 -0.0360313 0.0659955 -0.0117998 0.0382276 0.00675969 -0.0221164 -0.0429703 0.0268278 0.0730724 0.0656748 -0.0283385 -0.0357055 -0.0235172 0.0704598 -0.0386711 0.0787624 -0.0469772 -0.0478505 0.0817451
internal_weight=1825.45 1180.14 645.304 262.724 131.069 93.8563 168.868 917.418 96.2042 514.234 223.603 138.328 326.154 63.849 169.307 262.305 290.632 591.264 538.827 225.088
internal_count=5600 3818 1782 814 374 287 527 3004 276 1408 616 432 1056 206 466 850 792 1948 1777 613
is_linear=0
shrinkage=0.0553438


Tree=10
num_leaves=17
num_cat=0
split_feature=782 782 782 782 500 480 782 612 162 448 544 130 413 381 8 209
split_gain=1992.44 33.0192 27.3253 9.82406 7.82313 5.26209 3.37091 3.16625 2.59597 2.54515 2.18222 1.29122 1.00302 1.45339 0.496013 0.185833
threshold=0.40428081000000005 0.70135637500000014 0.087335887500000015 0.89278799000000009 0.049722576513886459 0.12394677847623826 0.015438399250000002 0.077718894928693785 0.25421145558357244 0.22196397185325625 -0.16218735277652738 0.16513143479824069 0.011100267060101034 0.070870146155357375 0.17573291808366778 0.13525430858135226
decision_type=2 2 2 2 2 2 2 2 2 2 2 2 2 2 2 2
left_child=2 -2 6 5 -4 7 12 -3 15 -10 -5 -12 14 -14 -1 -8
right_child=1 3 4 10 -6 -7 8 -9 9 -11 11 -13 13 -15 -16 -17
leaf_value=-0.050305515471944083 0.036098350542420568 0.085450766779214316 0.0038867410706150286 0.070869071544205117 -0.031300587077637256 0.049800227544925003 -0.045400451276325249 0.062225299374262896 -0.043450380987144946 -0.02628092011396416 0.08582314668638634 0.079616669179341445 -0.047624495222327208 -0.034941681786253245 -0.044654482075180107 -0.051390644160383858
leaf_weight=638.3577706515789 60.429433524608612 36.22973644733429 39.320879817008972 46.048086822032928 38.086945831775665 45.38526239991188 28.674044013023376 36.039657205343246 54.103114426136017 51.972367316484451 286.86546152830124 163.53706127405167 147.8475127518177 34.290946573019028 52.478888958692551 39.762632519006729
leaf_count=2134 176 101 122 127 120 128 95 101 177 169 787 450 493 114 175 131
internal_value=-6.29316e-05 0.075142 -0.0451592 0.0789834 -0.0134241 0.0645913 -0.0475042 0.0738746 -0.0404726 -0.0350411 0.0823934 0.0835706 -0.0489094 -0.0452385 -0.0498767 -0.0488861
internal_weight=1799.43 674.535 1124.9 614.105 77.4078 117.655 1047.49 72.2694 174.512 106.075 496.451 450.403 872.975 182.138 690.837 68.4367
internal_count=5600 1870 3730 1694 242 330 3488 202 572 346 1364 1237 2916 607 2309 226
is_linear=0
shrinkage=0.0553438


Tree=11
num_leaves=20
num_cat=0
split_feature=781 781 780 483 473 55 782 342 780 595 129 580 546 307 508 305 781 627 30
split_gain=1647.99 41.6287 30.8522 9.2619 6.92898 6.83559 7.36386 6.54408 6.21086 7.62863 4.32754 3.44036 2.77459 2.88354 2.30096 2.21717 1.31496 1.76858 0.520382
threshold=0.41088484500000005 0.099014550000000021 0.18112439500000002 0.090534754097461714 -0.3630376905202865 -0.079846829175949083 0.018597624500000003 -0.19413410127162931 0.099712114500000018 0.00098747201263904593 -0.16844806820154187 0.10001454502344133 0.13996695727109912 0.14494872838258746 -0.15226110816001889 0.34269155561923986 0.030978469000000005 -0.017053126357495781 0.085591923445463194
decision_type=2 2 2 2 2 2 2 2 2 2 2 2 2 2 2 2 2 2 2
left_child=1 12 8 7 -3 6 -6 -4 11 -10 -7 15 16 14 -14 -2 18 -18 -1
right_child=2 4 3 -5 5 10 -8 -9 9 -11 -12 -13 13 -15 -16 -17 17 -19 -20
leaf_value=-0.044512360464209602 0.075174442081037088 0.0046501911797740434 0.066417497720497445 0.013873605561863825 0.0082369434102250293 -0.020392977736410176 -0.025734392161156448 0.032835509073556993 0.04500740807161821 0.076364600174955638 -0.045872598479572382 0.060335311241074052 -0.030419695509483001 -0.027479056515740893 -0.0453403176289634 0.060783858224820853 -0.047641489225263484 -0.033719478512098638 -0.051755414890651351
leaf_weight=34.754952818155289 421.69981807470322 34.195848613977432 34.147427678108215 34.193486958742142 34.098737746477127 38.371652096509933 45.758623570203781 37.17088058590889 60.813452452421188 39.097011089324951 43.757658362388611 64.182668328285217 34.684427261352539 34.818333566188812 377.8381167948246 35.832225859165192 154.50718992948532 34.31740003824234 283.12460348010063
leaf_count=111 1140 103 95 96 103 116 139 104 167 107 133 174 110 110 1197 97 487 108 903
internal_value=2.56218e-05 -0.0412018 0.0652418 0.0375651 -0.0179815 -0.0227604 -0.0112262 0.0489198 0.069939 0.0572822 -0.0339721 0.0723621 -0.0459764 -0.0427946 -0.0440866 0.0740483 -0.0487847 -0.045113 -0.0509646
internal_weight=1877.36 1150.23 727.137 105.512 196.183 161.987 79.8574 71.3183 621.625 99.9105 82.1293 521.715 954.045 447.341 412.523 457.532 506.704 188.825 317.88
internal_count=5600 3620 1980 295 594 491 242 199 1685 274 249 1411 3026 1417 1307 1237 1609 595 1014
is_linear=0
shrinkage=0.0553438


Tree=12
num_leaves=23
num_cat=0
split_feature=782 777 777 773 712 773 331 708 95 86 176 782 467 407 460 504 100 6 615 544 131 624
split_gain=440.973 458.518 47.6068 42.3079 36.7153 26.2197 17.8075 14.0102 13.2739 11.2162 11.0429 9.58378 8.09887 8.72993 7.55483 5.91137 4.85808 5.33902 3.66322 1.41751 1.06647 1.27075
threshold=0.63950397500000011 0.13525914400815967 0.89896395802497875 42.500000000000007 -0.011935051530599592 40.500000000000007 -0.044766698032617562 -0.30400963127613062 0.11225812882184984 -0.28637127578258509 0.043181184679269798 0.89278799000000009 0.065247043967247023 0.14003915339708331 0.16436117142438891 0.03620713762938977 0.11000762879848482 -0.1559731066226959 -0.35753507912158961 -0.16218735277652738 -0.014077111613005398 0.21530598402023318
decision_type=2 2 2 2 2 2 2 2 2 2 2 2 2 2 2 2 2 2 2 2 2 2
left_child=1 3 5 4 9 14 8 -6 -5 -1 -7 16 18 -14 -3 -8 17 -2 -4 -13 21 -21
right_child=11 2 12 6 7 10 15 -9 -10 -11 -12 19 13 -15 -16 -17 -18 -19 -20 20 -22 -23
leaf_value=0.021494519509355325 -0.034195377843877814 -0.034497275302997905 -0.026771006698870364 0.033892965533322529 -0.0246594766753103 0.038103412461296657 0.067310170995114882 0.016648359177076986 0.060637187399869209 0.059611002413803224 0.0003448864849581146 -0.036518010749549724 0.0028887163423994017 -0.033171944641817885 9.8800820655506606e-05 0.044103129102891776 -0.040659431613443403 -0.0024435907450034186 -0.043408383145945174 -0.049763701323854978 -0.037718697454633632 -0.038031180600296727
leaf_weight=33.248276948928833 33.118558168411255 53.755005419254303 51.204095125198364 161.63477745652199 34.32652223110199 50.508533656597137 227.57055225968361 94.017828196287155 87.755558907985687 82.091276884078979 44.757908016443253 38.135310888290405 31.523797810077667 59.074585378170013 30.17144301533699 39.546438843011856 58.309013485908508 31.820388197898865 196.37470278143883 303.54363965988159 29.95642027258873 31.429387003183365
leaf_count=99 106 177 170 457 110 147 622 285 242 232 138 127 101 195 97 109 189 101 659 1029 101 107
internal_value=6.00797e-05 0.0176234 -0.0225662 0.0449758 0.0259653 0.000495537 0.0539442 0.00559827 0.0433052 0.0486261 0.0203667 -0.0425722 -0.0347867 -0.0206224 -0.0220578 0.0638757 -0.0290605 -0.0186411 -0.0399687 -0.0467029 -0.0477663 -0.0486639
internal_weight=1803.87 1277.56 517.37 760.191 243.684 179.193 516.507 128.344 249.39 115.34 95.2664 526.313 338.177 90.5984 83.9264 267.117 123.248 64.9389 247.579 403.065 364.929 334.973
internal_count=5600 3840 1684 2156 726 559 1430 395 699 331 285 1760 1125 296 274 731 396 207 829 1364 1237 1136
is_linear=0
shrinkage=0.0553438


Tree=13
num_leaves=20
num_cat=0
split_feature=781 780 781 780 780 708 387 780 427 151 3 781 408 553 256 487 324 533 491
split_gain=675.139 1018.6 43.0561 76.3105 12.165 10.9277 8.60645 8.32395 3.20407 2.51006 1.77527 1.64092 3.35579 1.61064 1.35838 1.12143 1.05258 0.595398 0.385521
threshold=0.096225380000000013 0.61145365000000007 0.37347103500000006 0.58433425500000014 0.073530815000000013 -0.14046162366867063 -0.14791219681501386 0.88947890000000018 0.026136711239814762 -0.12247592583298682 0.17642707377672198 0.74639610000000012 -0.28090079128742212 -0.096261706203222261 0.20540908724069598 -0.086485795676708208 0.20358825474977496 0.092020373791456236 0.035101654008030898
decision_type=2 2 2 2 2 2 2 2 2 2 2 2 2 2 2 2 2 2 2
left_child=1 4 3 6 9 8 -2 -3 -6 -1 -11 12 -4 -9 -5 -15 18 -16 -13
right_child=2 7 11 14 5 -7 -8 13 -10 10 -12 16 -14 15 17 -17 -18 -19 -20
leaf_value=0.062700109641140339 0.048950255742786788 -0.017944203000704047 -0.048513153252399362 -0.033631899284045967 0.056519374040004337 0.031686257094878156 0.0097892301172218549 -0.033138402089808748 0.080477069416966904 0.078248528124282027 0.068253057073514367 -0.049130282293978665 -0.025215437721935352 -0.036200489597997411 -0.040340859951146571 -0.047806751976263273 -0.040053713716928847 -0.050316109612261115 -0.043521230574492309
leaf_weight=41.344355821609497 35.879190117120743 37.181107729673386 47.279400229454041 32.327953279018402 34.14169454574585 38.367292851209641 33.031195163726807 29.378581076860428 34.555033147335052 422.84622606635094 63.139357030391693 411.49771824479103 31.697317868471146 28.307319134473801 27.793481767177582 278.788644105196 49.269780218601227 56.232625663280487 42.394344508647919
leaf_count=112 103 120 159 109 95 108 95 101 96 1141 171 1423 105 98 95 962 169 192 146
internal_value=-9.33563e-05 0.0296835 -0.0392081 -0.0159684 0.0723795 0.0553598 0.0301834 -0.0428052 0.0685764 0.0758343 0.0769508 -0.0466036 -0.0391667 -0.0455515 -0.0433036 -0.046738 -0.0477703 -0.0470207 -0.0486072
internal_weight=1775.45 1008.05 767.403 185.264 634.394 107.064 68.9104 373.656 68.6967 527.33 485.986 582.139 78.9767 336.475 116.354 307.096 503.162 84.0261 453.892
internal_count=5600 3004 2596 594 1723 299 198 1281 191 1424 1312 2002 264 1161 396 1060 1738 287 1569
is_linear=0
shrinkage=0.0553438


Tree=14
num_leaves=20
num_cat=0
split_feature=781 781 781 371 550 159 780 580 772 128 707 25 265 781 728 743 708 238 681
split_gain=1465.96 36.5044 31.1659 10.6571 6.3504 6.82599 5.91038 7.76323 5.88502 6.89245 5.61913 3.76542 3.64793 2.73458 2.70027 4.15329 2.88779 1.74034 1.05812
threshold=0.34824406500000005 0.76099810000000012 0.099014550000000021 0.04762897081673146 -0.17710995674133298 0.10633266717195512 0.06094631000000001 0.088334351778030409 185.50000000000003 -0.22553931176662442 0.11462805792689325 -0.25214727222919459 -0.24250581115484235 0.030978469000000005 0.070666156709194197 0.18590120971202853 -0.32003568112850184 0.0039102889131754645 -0.055647864937782281
decision_type=2 2 2 2 2 2 2 2 2 2 2 2 2 2 2 2 2 2 2
left_child=2 3 13 -2 5 -4 11 10 -6 -10 -8 -3 -13 17 16 -16 -15 18 -1
right_child=1 6 4 -5 8 -7 7 -9 9 -11 -12 12 -14 14 15 -17 -18 -19 -20
leaf_value=-0.038832748971844716 0.0088547418527971759 0.052151070270633738 -0.02288234896177899 0.044148003772363484 -0.04843442449572135 0.0097182472720668926 0.069756792098615406 0.038024848970675776 -0.035934974707896056 -0.00077838715559908642 0.049125124663557646 0.058485165735699965 0.073054206745761907 -0.030988679594976625 -0.040148105669916147 -0.017008024235090957 -0.046924740016379751 -0.037230036571450728 -0.04888968031825814
leaf_weight=34.796651214361191 43.154295772314072 37.723451852798462 42.141397833824158 66.798075169324875 31.564713060855865 36.879707813262939 123.04262220859528 48.383368074893951 36.657304495573044 32.00548467040062 60.425592869520187 63.881393373012543 306.19119855761528 41.675386250019073 97.970925271511078 31.420955717563629 215.6966315805912 49.235634565353394 453.97543460130692
leaf_count=114 123 101 129 185 98 112 331 131 113 98 163 171 819 134 317 101 702 160 1498
internal_value=3.08317e-05 0.059761 -0.0405242 0.0302987 -0.0194008 -0.0076648 0.064825 0.057761 -0.028651 -0.0195516 0.0629638 0.0688402 0.0705404 -0.0446183 -0.041063 -0.0345311 -0.0443455 -0.0471734 -0.0481744
internal_weight=1853.62 749.6 1104.02 109.952 179.249 79.0211 639.648 231.852 100.228 68.6628 183.468 407.796 370.073 924.772 386.764 129.392 257.372 538.008 488.772
internal_count=5600 2024 3576 308 550 241 1716 625 309 211 494 1091 990 3026 1254 418 836 1772 1612
is_linear=0
shrinkage=0.0553438


Tree=15
num_leaves=22
num_cat=0
split_feature=780 780 780 256 540 780 197 780 189 576 437 284 283 564 555 579 311 751 311 265 409
split_gain=1133.18 51.0612 40.8782 14.7036 10.6484 9.59694 8.45765 7.40887 7.07777 8.23955 6.2132 5.61627 5.84768 5.02088 4.67209 3.78028 3.25292 3.15324 1.72062 1.5779 1.34147
threshold=0.42699550000000003 0.097090682500000011 0.73436073000000013 0.2487064674496651 0.037602586671710021 0.91731244500000009 -0.062929674983024583 0.042161603000000013 0.15736171603202823 -0.033733699470758431 -0.2954073548316955 0.15044847130775454 -0.1301111429929733 0.093348279595375075 0.08688689768314363 0.0074637935031205424 -0.041980622336268418 -0.014945508446544407 -0.1239878088235855 -0.31151446700096125 0.25122265517711645
decision_type=2 2 2 2 2 2 2 2 2 2 2 2 2 2 2 2 2 2 2 2 2
left_child=1 7 6 8 13 10 -2 19 17 -10 -4 12 -9 -5 -12 18 -13 -3 -7 -1 -21
right_child=2 3 5 4 -6 15 -8 11 9 -11 14 16 -14 -15 -16 -17 -18 -19 -20 20 -22
leaf_value=-0.031827022799203346 0.0022288985565286912 -0.048851624327784941 0.070159409630828298 0.0032719957664258306 0.027386646906558745 0.063162585982121461 0.03589534506369034 -0.0083691708241490012 -0.02906201462575855 0.0056847215173076223 0.029411119762318187 -0.044172528251908441 -0.038728092314856272 -0.02650351283631306 0.052311054255867642 0.053128234421030804 -0.030138837110196482 -0.025818969705906879 0.071804518016245253 -0.046091398865845457 -0.033658432892929385
leaf_weight=27.665365725755692 35.224925071001053 33.64561003446579 42.660145282745361 39.904665023088455 35.813047260046005 100.58009946346283 65.163631469011307 45.71741595864296 44.773743957281113 39.187691360712051 37.897021293640137 126.47370320558548 33.83272784948349 30.66500461101532 98.110943108797073 51.187651962041855 84.61710998415947 39.845310211181641 243.31879276037216 497.14128422737122 28.268654018640518
leaf_count=96 100 109 115 125 110 269 186 154 144 123 103 432 116 96 266 137 288 129 650 1752 100
internal_value=9.72342e-05 -0.0343373 0.0566701 -0.0130856 0.00280723 0.0623709 0.0240849 -0.0409825 -0.0238249 -0.0128422 0.0517195 -0.0338243 -0.0212846 -0.00966391 0.0459327 0.0671868 -0.0385486 -0.0363683 0.0692782 -0.0447436 -0.0454231
internal_weight=1781.69 1107.55 674.143 263.835 106.383 573.755 100.389 843.716 157.452 83.9614 178.668 290.641 79.5501 70.5697 136.008 395.087 211.091 73.4909 343.899 553.075 525.41
internal_count=5600 3774 1826 836 331 1540 286 2938 505 267 484 990 270 221 369 1056 720 238 919 1948 1852
is_linear=0
shrinkage=0.0553438


Tree=16
num_leaves=17
num_cat=0
split_feature=782 782 782 782 500 240 590 782 162 448 257 567 3 95 413 409
split_gain=1583.81 25.6643 25.1569 8.32517 7.36732 5.06859 4.16883 3.37024 2.66057 2.58511 1.97686 2.44777 1.72457 1.18816 0.565188 0.200607
threshold=0.40428081000000005 0.087335887500000015 0.67925282000000009 0.89278799000000009 0.049722576513886459 0.13616868853569034 1.5151881575584414 0.015438399250000002 0.25421145558357244 0.22196397185325625 0.030750661157071594 0.091082658618688597 0.19081886857748034 -0.067996703088283525 0.0047527160495519647 0.042323619127273567
decision_type=2 2 2 2 2 2 2 2 2 2 2 2 2 2 2 2
left_child=1 7 -2 5 -3 6 -4 13 15 -10 12 -12 -5 -1 -15 -9
right_child=2 4 3 10 -6 -7 -8 8 9 -11 11 -13 -14 14 -16 -17
leaf_value=-0.036976233731003338 0.02854094883440363 0.0049064048134655003 0.062866468592009561 0.074194921594139346 -0.029600454021533048 0.072092005910512139 0.038567504701509277 -0.043189609275823562 -0.041226584049701955 -0.023457405219340276 0.076731352946277975 0.059611888538421656 0.061949449150119407 -0.04804827922538861 -0.044372701741532329 -0.049595024192964153
leaf_weight=36.246924698352814 54.160063356161118 38.860708385705948 35.734261184930801 349.08664438128471 36.969035774469376 38.6347336769104 55.072561621665955 26.886883407831192 51.068788200616837 49.48202383518219 36.982357382774353 84.455123484134674 39.572107523679733 610.78378310799599 165.42792776226997 37.379197269678116
leaf_count=129 154 122 97 933 120 105 150 95 177 169 99 226 106 2195 592 131
internal_value=-0.000163762 -0.0429347 0.0647666 0.0678339 -0.0119142 0.0552878 0.0481338 -0.0453414 -0.0381161 -0.0324853 0.0710168 0.064829 0.0729492 -0.0468068 -0.0472654 -0.0469207
internal_weight=1746.8 1053.11 693.698 639.538 75.8297 129.442 90.8068 977.276 164.817 100.551 510.096 121.437 388.659 812.459 776.212 64.2661
internal_count=5600 3730 1870 1716 242 352 247 3488 572 346 1364 325 1039 2916 2787 226
is_linear=0
shrinkage=0.0553438


Tree=17
num_leaves=19
num_cat=0
split_feature=781 781 781 371 137 667 600 781 42 656 577 498 546 504 681 781 627 30
split_gain=1319.63 32.097 29.9732 9.60792 5.99619 6.9494 6.16088 5.39063 6.92629 3.22442 2.86648 2.81457 2.77848 4.216 2.32151 1.26594 1.81366 0.531066
threshold=0.34824406500000005 0.76099810000000012 0.099014550000000021 0.04762897081673146 0.12119917199015619 0.24966821074485782 0.09845867753028871 0.89200908000000012 -0.1758964657783508 0.19395133107900622 -0.12492534518241881 0.23879856616258624 0.13996695727109912 -0.17270765453577039 -0.055647864937782281 0.030978469000000005 -0.017053126357495781 0.085591923445463194
decision_type=2 2 2 2 2 2 2 2 2 2 2 2 2 2 2 2 2 2
left_child=2 3 12 -2 5 -4 -7 8 9 -3 -9 -12 15 -14 -15 17 -17 -1
right_child=1 7 4 -5 -6 6 -8 10 -10 -11 11 -13 13 14 -16 16 -18 -19
leaf_value=-0.04183124183779479 0.0083563974512224429 0.046592698095294698 -0.029228502537830402 0.041780681062876204 -0.034255680945973907 0.010119291238950215 -0.021503458559562191 0.051667575560306808 0.030976360590366316 0.068547915329948791 0.066779010070041514 0.054964765960795164 -0.020367713089087355 -0.027696762219978126 -0.043003573110489572 -0.045278052984339213 -0.030804721695209879 -0.049386099287057637
leaf_weight=32.572987109422684 43.280190736055374 35.300714880228043 45.32360628247261 67.385346412658691 52.286053746938705 48.904952496290207 30.720108956098557 56.564328700304031 38.214549958705902 49.254608720541 389.01818126440048 73.834515482187271 30.643454730510712 33.277449578046799 357.94562116265297 145.89168947935104 32.580204963684082 263.95782724022865
leaf_count=111 123 95 141 185 164 150 95 151 103 132 1038 197 102 111 1204 487 108 903
internal_value=6.16299e-05 0.056244 -0.0393171 0.0287113 -0.0185174 -0.0119291 -0.00207861 0.0609881 0.050546 0.0593864 0.0634555 0.0648952 -0.0434271 -0.0401533 -0.0417024 -0.0463339 -0.0426377 -0.0485574
internal_weight=1826.96 752.852 1074.1 110.666 177.235 124.949 79.6251 642.187 122.77 84.5553 519.417 462.853 896.869 421.867 391.223 475.003 178.472 296.531
internal_count=5600 2024 3576 308 550 386 245 1716 330 227 1386 1235 3026 1417 1315 1609 595 1014
is_linear=0
shrinkage=0.0553438


Tree=18
num_leaves=23
num_cat=0
split_feature=780 780 780 540 776 781 290 467 751 780 781 284 444 474 128 289 316 311 780 739 748 242
split_gain=1006 48.875 36.4006 13.6403 13.4202 8.57172 8.25437 7.75596 7.65171 7.43964 5.99136 5.5296 6.07705 5.37587 5.32147 4.69493 3.70049 3.23564 1.97983 1.59691 2.30934 0.687244
threshold=0.42699550000000003 0.097090682500000011 0.81804733500000004 0.034391606226563461 0.14173080027103427 0.34824406500000005 -0.26465731859207148 0.026822722516953949 -0.043999221175909035 0.042161603000000013 0.077967907000000017 0.15044847130775454 0.19106841832399371 -0.052090585231780999 -0.22650956362485883 0.041247248649597175 -0.093879513442516313 -0.041980622336268418 0.96767538500000005 -0.062238093465566628 -0.15989685058593747 0.11572706326842309
decision_type=2 2 2 2 2 2 2 2 2 2 2 2 2 2 2 2 2 2 2 2 2 2
left_child=1 9 5 7 -5 6 -2 15 -9 19 16 12 -11 -8 -12 -3 -4 -13 -18 20 -1 -21
right_child=2 3 10 4 -6 -7 13 8 -10 11 14 17 -14 -15 -16 -17 18 -19 -20 21 -22 -23
leaf_value=-0.026835951268432481 0.05486808641598407 -0.014484048497957962 0.049360462156534342 -0.018010053019405323 0.032036180802576177 0.0047134548855180215 0.039503602714308098 -0.024197338236001769 0.010286228737967784 -0.0059127194489484221 0.059851378778159568 -0.043035012110898496 -0.037014317744957399 0.0090285814126015388 0.034109871663635112 -0.037488770063919485 0.061553888402788928 -0.028826102854190502 0.069931236029798394 -0.047927436075657033 -0.042596225392260136 -0.038751151408672156
leaf_weight=32.25762003660202 44.4531309902668 43.739654511213303 55.780479401350021 29.946951687335968 36.296534270048141 34.493415862321854 35.892364323139191 37.944655030965805 40.995814234018326 42.615263372659683 51.496612131595612 122.18203747272491 35.114885985851288 35.083747535943985 47.240576952695847 71.931089490652084 233.8120804131031 82.336298823356628 138.52596789598465 221.93864381313324 249.7227531671524 28.579968065023422
leaf_count=115 121 141 149 95 111 101 99 120 130 147 138 432 123 97 127 239 624 288 370 816 912 105
internal_value=0.000130349 -0.0331318 0.052994 -0.0122807 0.00940842 0.0289294 0.0361636 -0.0196646 -0.00628659 -0.0398073 0.0598413 -0.0325393 -0.0199667 0.0244438 0.047539 -0.0287923 0.0626777 -0.0373163 0.0646717 -0.043659 -0.0407944 -0.0468819
internal_weight=1752.38 1075.6 676.778 260.855 66.2435 149.923 115.429 194.611 78.9405 814.747 526.856 282.248 77.7301 70.9761 98.7372 115.671 428.119 204.518 372.338 532.499 281.98 250.519
internal_count=5600 3774 1826 836 206 418 317 630 250 2938 1408 990 270 196 265 380 1143 720 994 1948 1027 921
is_linear=0
shrinkage=0.0553438


Tree=19
num_leaves=22
num_cat=0
split_feature=781 780 781 780 780 708 780 387 183 544 553 694 570 151 47 546 585 781 565 731 361
split_gain=551.318 800.751 38.4317 64.2641 9.72021 9.28167 7.95691 7.64979 3.08145 2.4452 1.65577 1.62967 2.09381 1.60823 1.59078 1.22758 1.19064 0.630902 1.10303 0.580582 0.30978
threshold=0.096225380000000013 0.61145365000000007 0.37347103500000006 0.58433425500000014 0.073530815000000013 -0.14046162366867063 0.88947890000000018 -0.14791219681501386 0.014568928629159929 -0.16218735277652738 -0.096261706203222261 0.24913681298494342 -0.05501988343894481 -0.12247592583298682 -0.1195426471531391 -0.039413450285792344 -0.077083699405193315 0.74639610000000012 -0.04942654445767402 -0.10223509743809699 -0.056088939309120171
decision_type=2 2 2 2 2 2 2 2 2 2 2 2 2 2 2 2 2 2 2 2 2
left_child=1 4 3 7 9 8 -3 -2 -6 -1 -8 12 15 -11 19 -4 -12 18 -13 -5 -19
right_child=2 6 11 14 5 -7 10 -9 -10 13 16 17 -14 -15 -16 -17 -18 20 -20 -21 -22
leaf_value=0.054466559514060299 0.043918767872067582 -0.016196251450904291 -0.032185689577443902 -0.0386573314612879 0.071823803659177912 0.026559810012287199 -0.030648002379554961 0.0072977214219169693 0.048635632882488983 0.056156825607667223 -0.034966965686939099 -0.032982278565537072 -0.026798699726902665 0.068372555160332416 -0.030330535862291411 -0.045455870619658729 -0.046146788753111269 -0.041622027860663449 -0.048900911192619245 -0.048736752987932244 -0.04800389362914842
leaf_weight=49.080245465040207 36.644970715045929 36.216558933258057 26.69277235865593 26.485231935977936 35.059262156486511 39.18060377240181 27.696299403905869 33.423821419477463 35.427344113588333 35.967477589845657 33.232805043458939 26.83315908908844 30.45350906252861 448.45214337110519 29.347381830215454 110.20814946293831 253.53698223829269 26.114595532417297 26.855421602725983 53.907724499702454 292.34250468015671
leaf_count=131 103 120 97 95 95 108 101 95 96 96 123 95 112 1197 105 406 937 98 97 196 1097
internal_value=-0.000206557 0.026503 -0.0371106 -0.0149497 0.063185 0.0481683 -0.0407728 0.0264542 0.0601748 0.0662711 -0.0436023 -0.0444961 -0.039948 0.0674664 -0.0413879 -0.0428708 -0.0448523 -0.0465404 -0.0409512 -0.0454204 -0.0474816
internal_weight=1713.16 993.85 719.309 179.809 643.167 109.667 350.683 70.0688 70.4866 533.5 314.466 539.5 167.354 484.42 109.74 136.901 286.77 372.146 53.6886 80.393 318.457
internal_count=5600 3004 2596 594 1723 299 1281 198 191 1424 1161 2002 615 1293 396 503 1060 1387 192 291 1195
is_linear=0
shrinkage=0.0553438


Tree=20
num_leaves=18
num_cat=0
split_feature=781 781 781 761 473 452 167 20 646 781 405 781 504 353 699 238 299
split_gain=1179.36 28.8845 28.6831 7.9911 6.87405 6.11392 5.98883 5.59681 3.91649 3.79104 4.71627 2.67946 2.74462 2.35365 2.14656 1.80355 1.10017
threshold=0.34824406500000005 0.099014550000000021 0.76099810000000012 -0.11486115306615828 -0.34895378351211542 0.14134031534194949 -0.11283017694950102 0.13204877078533175 0.24450735002756122 0.94352572500000009 -0.20252536982297895 0.030978469000000005 -0.15494802594184873 -0.097737673670053468 0.21064284443855288 0.0039102889131754645 0.055922953411936767
decision_type=2 2 2 2 2 2 2 2 2 2 2 2 2 2 2 2 2
left_child=1 11 3 -2 -3 -5 -6 9 -8 10 -4 15 -13 -11 -14 16 -1
right_child=2 4 7 5 6 -7 8 -9 -10 13 -12 12 14 -15 -16 -17 -18
leaf_value=-0.0405868825694886 0.0052988754407882147 0.0029149803963924785 0.057865790587442692 0.022753162477012479 -0.0073873901041134598 0.054357602947517236 -0.040726832719315258 0.03727437432766207 -0.016697939381697561 0.054060686704071555 0.040685375929858082 -0.026202735873288405 -0.042040168258466341 0.065272887968198093 -0.027266354533850845 -0.034417981299966732 -0.047309334068829687
leaf_weight=94.959372192621231 35.661325812339783 38.989672690629959 211.06352001428604 41.412216514348984 46.761778503656387 34.321091175079346 56.255842000246048 40.013636946678162 33.013184249401093 74.771901905536652 63.897319912910461 47.640569031238556 283.56771963834763 251.86873266100883 33.830678343772888 46.314103126525879 360.27159124612808
leaf_count=336 99 121 564 114 146 95 180 107 103 200 171 161 977 674 116 160 1276
internal_value=6.97754e-05 -0.0380766 0.0528362 0.0269083 -0.0175666 0.0370802 -0.0234387 0.0573372 -0.0318439 0.0586711 0.0538746 -0.0422186 -0.0386057 0.0627075 -0.0404664 -0.0448475 -0.0459078
internal_weight=1794.61 1041.6 753.01 111.395 175.02 75.7333 136.031 641.615 89.269 601.601 274.961 866.584 365.039 326.641 317.398 501.545 455.231
internal_count=5600 3576 2024 308 550 209 429 1716 283 1609 735 3026 1254 874 1093 1772 1612
is_linear=0
shrinkage=0.0553438


Tree=21
num_leaves=21
num_cat=0
split_feature=780 780 780 757 256 155 349 780 780 329 555 712 283 95 560 579 548 588 265 409
split_gain=896.366 42.9028 38.1623 12.3812 11.6674 9.68106 9.03126 8.1912 7.42652 4.78377 4.46266 4.54478 4.20697 4.12644 4.42551 3.55076 2.91663 1.70069 1.63545 1.40561
threshold=0.3556356200000001 0.73436073000000013 0.097090682500000011 -0.041447788476943963 0.2487064674496651 0.068366952240467085 0.11433175578713418 0.91731244500000009 0.042161603000000013 -0.08729172125458716 0.08688689768314363 -0.019408217631280419 -0.15028824657201764 0.075011942535638823 -0.16875369101762769 0.0074637935031205424 0.031764302402734763 -0.19354440271854398 -0.31151446700096125 0.25122265517711645
decision_type=2 2 2 2 2 2 2 2 2 2 2 2 2 2 2 2 2 2 2 2
left_child=2 3 8 6 9 -6 -2 10 18 12 -3 -12 -4 16 -15 17 -10 -9 -1 -20
right_child=1 7 4 -5 5 -7 -8 15 13 -11 11 -13 -14 14 -16 -17 -18 -19 19 -21
leaf_value=-0.029056311650138306 0.011796714394806611 0.029596192831920193 -0.040472627536498607 -0.0079224763613610204 0.022274908857645302 -0.013229646278328521 0.047624656171785774 0.056121303557566081 -0.040214646119214006 -0.0038506784871508892 0.061097596813449929 0.040854764719786649 -0.018723793868843552 -0.010433114593824363 -0.033039013637368345 0.04575114801752668 -0.021154857113612157 0.064301163436876502 -0.044070878661614826 -0.030877705599511033
leaf_weight=25.920780271291733 41.600334614515305 43.214011877775192 51.406069308519363 36.906986474990845 40.003305494785309 57.086771637201309 44.758989125490189 121.51823800802231 136.90800258517265 29.598349511623383 62.108026117086411 75.329997003078461 58.093012809753418 48.284900784492493 58.964830219745636 51.209424197673798 30.055581212043762 221.12379765510559 459.62936842441559 26.297227144241333
leaf_count=96 118 116 172 108 125 182 126 326 498 96 166 202 195 171 212 137 109 593 1752 100
internal_value=0.000174683 0.0485326 -0.0328334 0.0189028 -0.013324 0.00139696 0.0303694 0.0548895 -0.0386951 -0.0236007 0.0451249 0.0500052 -0.028937 -0.0313417 -0.0228642 0.0593674 -0.0367854 0.0614013 -0.0426339 -0.0433575
internal_weight=1720.02 697.77 1022.25 123.266 236.188 97.0901 86.3593 574.503 786.061 139.097 180.652 137.438 109.499 274.213 107.25 393.851 166.964 342.642 511.847 485.927
internal_count=5600 1892 3708 352 770 307 244 1540 2938 463 484 368 367 990 383 1056 607 919 1948 1852
is_linear=0
shrinkage=0.0553438


Tree=22
num_leaves=19
num_cat=0
split_feature=781 780 781 780 780 780 780 319 755 553 694 570 725 487 546 70 626 351
split_gain=501.602 726.664 31.0483 50.4864 10.0257 8.57052 2.74524 3.48373 2.2285 1.88171 1.66417 2.09994 1.3063 1.30175 1.23199 0.62865 0.309453 0.218868
threshold=0.10521417500000001 0.61145365000000007 0.37347103500000006 0.58433425500000014 0.23195047000000005 0.88947890000000018 0.073530815000000013 0.026612149551510814 -0.039094658568501466 -0.098232936114072786 0.24913681298494342 -0.05501988343894481 -0.14670260995626447 -0.089405149221420274 -0.039413450285792344 0.085723932832479491 -0.12619555741548535 0.1454410254955292
decision_type=2 2 2 2 2 2 2 2 2 2 2 2 2 2 2 2 2 2
left_child=1 4 3 -2 6 -3 8 -8 -1 -7 11 14 -5 -11 -4 16 -12 -14
right_child=2 5 10 12 -6 9 7 -9 -10 13 15 -13 17 -15 -16 -17 -18 -19
leaf_value=0.048995638967899255 0.022682250352102824 -0.015875804330130135 -0.031042420692003941 -0.031579396571919716 0.030411020296347662 -0.028205971345273428 0.039241313467237103 0.062183141560043037 0.063387739259579176 -0.031833814735099705 -0.047013020942012179 -0.025553918002706403 -0.04829780794212564 -0.045169965958315586 -0.044545222142647771 -0.039045043657314461 -0.040429314341963327 -0.041569643721097782
leaf_weight=35.50727054476738 63.330502837896347 41.325599819421768 25.913832873106003 29.646196857094765 34.768372416496277 25.227966785430908 38.031620174646378 43.67897817492485 496.95710530877113 24.707799211144447 293.9050472676754 29.58065627515316 39.108018830418587 259.20058792829514 106.03784647583961 39.351038217544556 24.349406987428665 25.374736368656158
leaf_count=95 178 140 97 110 97 95 102 117 1332 95 1140 112 145 997 406 152 95 95
internal_value=-0.000252453 0.0246592 -0.0370499 -0.0155205 0.0593395 -0.0395569 0.0609766 0.0515095 0.0624287 -0.0427217 -0.0435794 -0.0389051 -0.0412257 -0.0440105 -0.0418958 -0.0456898 -0.0465104 -0.0456556
internal_weight=1676 999.405 676.597 157.459 648.943 350.462 614.175 81.7106 532.464 309.136 519.138 161.532 94.129 283.908 131.952 357.605 318.254 64.4828
internal_count=5600 3070 2530 528 1743 1327 1646 219 1427 1187 2002 615 350 1092 503 1387 1235 240
is_linear=0
shrinkage=0.0553438


Tree=23
num_leaves=22
num_cat=0
split_feature=782 776 772 775 776 642 331 147 86 782 514 52 576 722 653 24 299 449 299 217 262
split_gain=408.049 224.747 76.8917 49.9728 27.9973 23.5361 12.5321 11.0891 9.47933 7.68517 6.83299 5.8773 5.72637 5.1758 2.77226 2.5595 4.15549 2.18384 1.67443 1.46438 0.692744
threshold=0.22406580000000001 0.076306872069835677 189.50000000000003 0.33663031458854681 0.98016789555549633 0.18978914618492129 -0.098933447152376161 -0.095714237540960298 -0.26485061645507807 0.7508986150000001 -0.16284393519163129 -0.20186631381511685 0.062806665897369399 -0.17781499028205869 -0.060829810798168175 0.14246661216020587 0.055922953411936767 -0.018404887057840821 0.070215906947851195 -0.42119616270065302 0.49129742383956915
decision_type=2 2 2 2 2 2 2 2 2 2 2 2 2 2 2 2 2 2 2 2 2
left_child=1 3 4 11 6 7 -3 -4 -6 13 -7 18 -13 -2 -15 19 -17 -18 -1 -11 -21
right_child=9 2 5 -5 8 10 -8 -9 -10 15 -12 12 -14 14 -16 16 17 -19 -20 20 -22
leaf_value=0.050948713446900551 -0.0070435536443194729 0.0520573509539968 -0.032580295198239601 -0.0038603178713030296 0.016710466908545121 -0.0071830608565690542 0.022720143549579498 -0.012844503240083781 -0.023236077761788553 -0.036351462622028888 0.018588803286719142 0.051737998930029075 0.027598820128681888 -0.021853037064777564 -0.045282927996245913 -0.018154429199634729 -0.046491547524414797 -0.028859328000221333 0.062014342047465289 -0.048405094691351916 -0.041796243529157368
leaf_weight=53.90712234377861 31.98270121216774 76.649300307035446 153.47920379042625 51.002844572067261 32.83854341506958 59.611251026391983 106.77721387147903 202.0739853978157 40.789176851511002 48.507071018218994 66.819982379674911 133.65217158198357 38.923514902591705 28.866860151290894 33.476567298173904 30.540728896856308 74.313283503055573 30.428246587514877 193.95517382025719 205.58667913079262 64.679483413696289
leaf_count=146 102 210 532 166 97 193 302 663 131 175 208 363 106 95 111 110 270 110 525 749 236
internal_value=6.96083e-05 0.0180118 -0.00103456 0.0478694 0.0234093 -0.0140716 0.0349813 -0.0213645 -0.00541662 -0.0395348 0.00643594 0.0541452 0.0462954 -0.0251532 -0.0344393 -0.0425218 -0.0361329 -0.0413723 0.0596092 -0.0452321 -0.0468248
internal_weight=1758.86 1210.48 739.039 471.441 257.054 481.984 183.427 355.553 73.6277 548.382 126.431 420.438 172.576 94.3261 62.3434 454.055 135.282 104.742 247.862 318.773 270.266
internal_count=5600 3642 2336 1306 740 1596 512 1195 228 1958 401 1140 469 308 206 1650 490 380 671 1160 985
is_linear=0
shrinkage=0.0553438


Tree=24
num_leaves=26
num_cat=0
split_feature=772 666 708 773 772 772 770 551 331 703 770 708 109 637 773 708 54 163 4 101 151 393 644 513 345
split_gain=272.581 49.4406 37.0616 31.6446 28.8611 22.68 19.3664 15.8512 12.7347 12.0618 10.2619 9.94467 8.01363 7.6266 6.47231 6.6995 6.4573 6.2721 5.58143 4.69086 4.55955 4.34998 2.74949 2.60828 1.11177
threshold=188.50000000000003 -0.15695810317993161 -0.16176940500736234 34.500000000000007 206.50000000000003 226.50000000000003 116.50000000000001 -0.34288781881332392 -0.044766698032617562 -0.048820214346051209 183.50000000000003 -0.16992444545030591 0.12327204644680025 0.071559894829988493 32.500000000000007 -0.34490919113159174 0.2408305108547211 0.14130284637212756 -0.24358716607093808 0.10699193552136423 -0.071186944842338548 0.1005200855433941 -0.065961357206106172 0.11580750346183778 0.1429250165820122
decision_type=2 2 2 2 2 2 2 2 2 2 2 2 2 2 2 2 2 2 2 2 2 2 2 2 2
